nep4 3 B C N 
cutoff 8 4 414 46
n_max 8 8
basis_size 12 12
l_max 4 2 0
ANN 50 0
 -7.2052264e-01
 -1.7028764e+00
  3.7025113e+00
  4.8197250e+00
 -4.9063277e+00
  1.1129876e+00
 -1.8884131e-01
 -4.5986257e+00
  9.8239651e+00
 -2.5688064e+00
 -1.4352756e+00
 -1.9006588e-01
  1.7381574e-01
 -1.4495130e+00
  7.9867542e-01
  2.5370762e+00
  2.0417521e+00
 -3.3116736e+00
  4.0288520e+00
  5.2588992e+00
 -8.5194510e-01
 -1.1455438e+00
 -9.4527709e-01
  2.1096427e+00
  3.2079456e+00
  1.7672572e+00
 -1.6580130e-01
 -1.0055156e+00
  2.5648775e+00
 -2.0084996e+00
  6.8814158e+00
  1.2595074e+00
 -2.5178859e+00
  3.0556784e+00
 -2.0115445e+00
 -1.5229191e+00
 -9.0227991e-01
  4.1795564e+00
 -2.4899302e+00
  3.1900722e-01
 -7.3325282e-01
  3.9597484e-01
  1.0977364e+00
 -1.7327322e+00
  8.2892239e-01
 -4.6277058e-04
 -4.7277551e+00
 -1.5341629e+00
  1.7321612e-01
  1.3464652e-02
  1.0697091e+00
  1.2750831e+00
  2.4764524e+00
 -2.9684183e-01
  1.5593253e+00
  3.6712205e+00
  1.1023649e-01
  2.0914340e+00
  8.3969645e-03
  3.6455178e+00
 -2.4428341e+00
 -2.1686360e-01
 -1.2477414e-02
 -4.7030888e+00
 -1.7289119e+00
 -1.3176552e+00
  3.4597173e-01
 -1.2040973e+00
 -2.6311004e+00
  2.2569738e-02
 -2.1522608e+00
 -6.6574085e-01
  6.3003433e-01
  1.9648787e-01
  2.7149848e-03
 -1.1930429e+00
 -6.1689556e-01
 -2.2328341e+00
 -2.1361231e-03
  1.2648463e-01
  2.2070523e-01
  1.2410113e+00
  2.1720730e-01
  4.2527425e-03
 -1.0319388e+00
 -1.8910985e-01
  1.0588820e+00
 -6.1793572e-01
  3.9698873e-02
 -1.8148996e+00
 -6.4276475e-01
  1.6228899e+00
 -2.3309374e+00
  6.0002905e-01
 -1.4280563e-02
  2.2908347e+00
  1.3053131e-02
  1.3358951e-01
 -5.6487834e-03
 -1.7302352e+00
  2.1501811e-02
  4.5570377e-01
 -4.3429554e-01
 -6.7577575e-04
  1.4830193e-01
 -8.7271454e-03
 -9.2099924e-03
 -2.1098151e-03
 -1.9717863e-01
 -1.3264741e-01
  3.0525135e-02
  2.4916368e-02
  6.1816937e-01
  1.6071194e-01
 -1.9085536e-03
  3.4979723e-02
 -4.2191093e-04
  9.8644473e-02
 -8.4371143e-04
  1.3200281e-04
 -7.9575889e-03
 -4.4154041e-03
  7.2426611e-01
  1.4276112e-02
 -4.9556162e-02
 -1.4373809e+00
  6.6975444e-03
 -1.0669822e-03
  4.5477285e+00
 -1.6343521e-02
  3.2038493e-03
 -3.2616619e-02
  2.1803198e-02
 -7.0604873e-03
  2.0048643e-02
 -7.6203473e-04
 -1.3443539e-02
  4.9492051e-03
 -4.5749615e-03
 -2.1575980e-01
  1.2873280e+00
 -5.4570264e-01
 -2.9453994e-03
 -1.9200228e-02
 -4.5422488e-03
  2.6316280e-03
  1.2355793e-02
 -6.2165707e-02
 -9.2353389e-02
  1.0457270e-01
  7.6914486e-03
 -2.7151296e-01
 -7.0411605e-03
  7.9272897e-04
 -5.5563999e-03
  6.4122239e-03
 -8.3025213e-04
  4.5414334e-03
  1.3296479e-02
  4.3439930e-03
  6.4463131e-03
 -3.4110770e-03
 -7.4086553e-01
 -4.5243626e+00
  9.0339351e-03
  1.0383471e-02
 -3.4134951e-01
 -2.6891029e-01
  1.9513882e+00
 -1.1741513e+00
  4.7709513e-03
  6.2511727e-02
 -6.8630455e-03
 -2.1849248e-01
 -6.0756700e-03
 -8.0506307e-01
  7.2039300e-01
 -5.0432216e-02
 -3.3917721e-02
 -1.6172981e+00
  1.5925485e+00
  7.1383590e-01
 -1.7049675e-01
  1.3489288e-01
  1.5621404e-03
  2.1936686e+00
 -2.5563990e-05
  1.1199939e-02
  3.0206093e-01
  1.4066074e+00
  9.5046800e-01
 -5.4168606e-01
  2.3255324e+00
 -1.0483092e+00
 -1.8470619e+00
  1.1955657e-01
  1.9188413e-03
  7.4927419e-01
  1.4685945e-01
 -2.9788613e-01
 -6.3276239e-02
  8.4376460e-01
 -5.9988207e-01
 -2.5950360e+00
 -3.4341271e-04
  1.8534067e-01
  2.0908623e-03
 -1.1111667e-02
  2.6230140e-02
  4.2886189e-01
 -2.2639896e-01
 -2.5779637e-02
  6.7374122e-01
 -2.3829818e-03
 -5.8363390e-01
  1.5738212e-02
  1.7540386e+00
  3.0320716e+00
  1.1834992e-01
  3.4347749e+00
 -1.4492035e+00
  1.4357786e+00
  9.8783165e-02
  2.2709023e-02
 -1.7933571e+00
  1.5148430e-01
  1.3245159e-01
  1.4857820e-01
 -4.6341240e-01
  1.7907910e+00
  1.9855484e+00
  6.5305799e-02
  1.2501250e-01
 -1.4332569e+00
  3.5900909e-01
  1.6893215e+00
 -9.7563380e-04
 -6.9829649e-01
  6.5233022e-01
 -1.6410923e+00
  2.9905757e-02
  8.5869551e-01
  1.9761863e-04
  1.4613703e+00
  2.3493946e+00
 -3.4797704e-01
 -8.8433832e-01
 -3.3630767e-01
 -4.7982326e-01
 -3.5276538e-01
 -8.1959414e-01
  6.5552497e-01
 -1.0133320e-01
 -3.3291298e-01
 -1.2429145e-01
 -9.0714395e-01
  3.5796966e-03
 -6.8025500e-02
  4.0132061e-02
  1.0499799e-01
  1.3390719e+00
 -4.3901980e-02
 -1.0395191e+00
 -1.2387184e+00
  6.4681475e-03
  1.3209760e-02
 -6.0881615e-01
  9.6232286e-03
  8.6964214e-01
 -3.6628514e-03
  3.1945539e+00
  1.1893352e+00
  2.8439179e-01
  1.5923975e+00
  5.8868271e-04
  1.5670630e+00
  1.1505841e+00
 -5.6738980e-02
 -4.0234234e-03
 -2.5883323e-01
 -3.2263261e-03
 -2.3117235e+00
  2.9164252e-03
  1.3483334e-02
 -6.4821416e-01
  8.6305290e-01
 -7.4085812e-03
  3.0818868e+00
 -5.6397924e-03
 -1.0864962e-02
 -4.5052445e-03
 -1.4869955e-01
  4.1458516e+00
  2.8070347e+00
 -6.7437142e-03
 -1.2309033e-02
 -1.6872540e-02
 -9.2385256e-01
  3.4047861e-03
  2.8049776e-03
 -9.0877640e-01
  9.4771152e-03
  3.1395583e+00
 -1.7302774e-03
 -3.2097536e-01
 -1.7227937e+00
 -4.2561083e+00
 -6.3465893e-02
  3.1255835e-03
 -5.8108902e-01
 -1.4006906e-02
 -1.4614369e+00
 -1.1895670e-02
 -2.3922430e-02
 -1.6606865e+00
 -5.6877881e-03
 -3.5490862e-01
 -4.9234356e-04
 -2.2021507e-01
  1.1736287e-02
  5.3745375e+00
 -3.4175119e-03
 -7.5047268e-03
 -3.9768759e-03
 -2.0683608e+00
 -2.1351235e+00
  1.7072889e+00
 -2.0576508e-01
 -1.6105053e+00
 -2.1809359e+00
  8.3925879e-01
  2.1827431e-01
  1.9287292e+00
  3.2956791e+00
 -2.1336833e-02
 -1.6729400e-01
 -1.1706939e+00
 -7.0124373e-02
  9.3328893e-01
  1.5400866e+00
  1.8223644e+00
  4.2027017e-01
  2.0108864e+00
  9.9724066e-01
  1.9238366e+00
  1.3354660e+00
  2.7081230e+00
 -4.3134949e-01
  3.5486572e+00
  1.3099171e+00
 -3.0665368e-01
  1.5541728e+00
 -1.7151200e+00
 -1.2027829e-01
  5.3343687e+00
 -4.9331793e-01
 -4.6186936e-01
  3.1849406e+00
 -1.7481995e+00
  1.5841925e+00
  4.8028922e+00
 -6.8748601e-02
  7.3914218e-01
 -1.4574912e+00
 -2.9767485e+00
 -1.3112458e+00
 -6.7351979e-01
  3.8184229e-01
  2.8032885e+00
 -4.7449422e-01
 -6.1082168e+00
 -3.9071383e+00
  1.2391872e+00
  5.5794015e+00
 -8.9924330e-01
  1.1548543e+00
  5.4117560e+00
 -1.8791305e+00
 -3.2436213e+00
 -9.8557882e+00
 -6.3283572e+00
 -1.9674391e-02
  7.8620583e-02
  4.5835423e+00
  3.6174691e+00
  2.4717958e-01
  1.9176763e-02
  3.7704054e-03
 -1.2648592e-03
  2.0276047e-03
  1.1850093e-02
 -4.3642469e-04
 -2.9456038e-03
  3.6104713e-03
  1.9091209e-02
  2.9327050e-03
 -4.6403422e-03
  4.2836098e-03
 -7.0976996e-05
  1.5767919e-02
 -6.7675668e-03
 -1.5021755e+00
 -8.5725933e-03
  7.5097168e-03
 -4.4804141e-03
  2.2061570e-03
 -2.5999820e-02
 -5.0506527e-03
  1.0687670e-03
  9.0783679e-01
 -5.4059476e-01
  1.8107870e+00
  2.1276716e-03
  4.5404327e-03
 -3.5862259e-03
 -9.5985085e-03
 -1.7025468e-03
  1.2294077e-02
 -1.1318240e-02
  1.0826011e+00
 -1.5154655e-02
 -3.6670656e-03
  6.4994226e-04
 -8.2510134e-04
  1.5126289e-02
  1.3637532e-02
  2.8099355e-03
 -7.2781108e-03
  1.9027977e+00
 -6.1739557e-03
  7.8657521e-03
  1.6159359e-03
 -3.4212372e-03
 -5.2240361e-03
 -2.3657109e-03
 -8.1347153e-03
 -3.9228071e-03
 -4.6218635e-04
 -2.2197966e-03
  1.6571242e-02
  1.2042440e-03
 -7.2392910e-03
 -1.7183162e-02
  1.8584300e-02
 -2.5509221e-03
  5.7065352e-03
 -3.4460081e-03
 -9.2300004e-04
  6.8128509e-03
  4.9925065e-03
 -9.7673526e-03
 -4.9860233e-01
  1.1100191e-02
 -3.0743924e-04
  6.9722156e-03
  2.1740545e-02
 -9.7284559e-04
  2.6444646e-02
 -1.0459447e-02
 -1.0674843e-02
  5.6237979e-03
  1.3319573e-02
  3.0378710e-02
  5.5661770e-03
 -1.0057064e-02
  8.3749974e-03
 -2.8872055e-03
 -1.0560151e-02
  1.5148532e-03
 -7.3327720e-03
 -1.0118231e-03
 -1.8113758e-03
 -9.3111768e-03
 -1.5733436e-02
 -1.3183310e-02
  2.3820836e-03
 -1.1350723e-02
 -3.3477088e-03
 -6.1000912e-03
 -3.5284099e-03
  1.4219740e-02
  1.3059035e-02
  6.6857710e-03
 -6.0355654e-03
  8.7559093e-03
  2.2530796e-03
 -8.8169277e-01
  2.0893340e+00
  4.4258699e-01
  4.6440805e-03
  2.8702438e-02
 -1.0497298e+00
  2.7012160e-01
  3.3061153e-01
 -4.4499254e-03
 -6.4764023e-02
  9.3549377e-01
 -2.1455120e-03
 -5.0547854e-03
 -2.3936176e+00
  1.1356969e+00
 -1.9641684e-01
  1.5391590e-02
 -2.7380993e+00
 -1.0231538e-03
 -1.1421212e+00
  1.6586790e-03
 -2.4046004e-02
 -1.8133377e-01
  2.0035872e-01
 -4.1263020e-03
 -8.8185704e-01
  2.3789126e-03
 -1.2725323e+00
  6.7373891e-03
  2.8261337e-03
 -3.7523162e-01
  1.9017729e+00
 -2.3553739e+00
  2.7452895e-01
  2.6703166e-02
  5.7609010e-01
  1.4862658e-02
 -2.2201367e-02
  6.5673376e-03
  1.1623328e-01
 -3.3942252e-02
  7.4058634e-01
  9.6790586e-03
 -1.5009373e-03
 -9.2762911e-01
  1.6707567e-02
 -3.2564886e-03
  4.2331297e-02
  1.2192670e-03
 -7.7914895e-04
  2.0554609e+00
  1.2513019e-02
 -1.6364796e-02
 -4.8068548e-03
 -1.5511198e+00
  9.6375503e-02
 -1.9711686e-02
 -7.8884983e-01
  4.3036565e-01
  6.1819875e-01
  3.6219871e-01
 -8.2963809e-02
 -2.3189962e+00
 -1.0171538e-02
  3.5190442e-01
 -5.6549804e-03
 -3.0427887e+00
  1.1751924e-04
  5.8208513e-01
  1.9759648e-02
 -1.0042676e+00
  2.7088282e-01
  8.9546405e-03
 -2.2251334e-02
  1.2862282e-01
 -3.1091124e-01
  1.0939415e-02
  7.0787841e-03
  1.6381911e+00
  2.3637573e-01
 -9.2406571e-02
 -9.2671020e-03
 -1.9422531e-02
 -1.4599884e-02
 -4.9137425e-02
 -1.9706461e-01
  6.4364356e-01
  5.7705134e-02
 -1.1191838e+00
 -4.1864066e+00
  1.2741401e-04
  5.1529962e-01
  2.5644770e-01
 -8.3509320e-01
 -3.1226274e-01
  5.9782475e-01
 -2.4716575e+00
 -3.6338554e-03
 -6.2621814e-01
 -1.0775807e-03
 -1.4581858e-02
 -5.4227283e-05
  4.5974483e-04
  7.6580682e-04
  7.8044838e-01
 -3.1699133e-03
  9.5556686e-03
  1.9783648e-03
  6.3047993e-01
 -6.7782897e-01
 -1.0574707e-01
 -2.3045518e+00
  2.7686605e+00
 -2.7897098e+00
  9.9728841e-01
 -2.1077070e-02
 -8.4626269e-01
  4.5035919e-03
  1.1646132e+00
 -6.8125449e-02
 -6.7876965e-01
 -2.4941219e-01
  5.2059977e-03
  1.9041967e-01
 -1.9597054e-01
  6.9228396e-02
 -6.9933576e-03
  6.7856145e-01
  4.2719713e-01
  3.4055500e+00
  3.3696994e-02
  1.8112495e+00
  4.2973747e-03
  8.6678576e-01
 -2.3708136e+00
  2.3218809e-01
  5.6502949e-02
 -1.0168775e+00
  1.2793009e+00
 -1.1226618e-01
  8.7993199e-01
  3.9420828e-01
  9.3272395e-02
  3.1245267e-01
 -4.4796696e+00
  3.8779266e-02
  2.2928894e+00
 -1.9977804e-02
 -1.6522999e-01
 -4.2865384e-01
 -1.0872058e-02
 -7.6245517e-02
 -1.2633720e-01
  7.1210496e-04
 -4.8710513e-03
 -1.5381244e-03
 -3.7512709e-03
  9.0337070e-03
 -7.2877258e-01
 -4.2851316e-03
  2.1123199e-02
  1.0189258e-02
  7.0675045e-01
  2.5982869e+00
 -3.2020395e+00
  5.6673211e-01
  6.1310329e+00
  1.2879092e-01
 -1.9857739e+00
 -2.4019105e+00
 -9.3645550e-02
 -4.1064906e+00
 -1.1002122e+00
  1.6734095e+00
 -3.6641333e+00
 -7.5913712e-02
  3.5522687e-01
  5.5574175e-02
  3.0005255e+00
 -2.9707855e-01
  4.6886930e+00
  2.6822858e+00
  1.5897845e+00
 -4.0820704e+00
 -2.5852051e+00
 -2.3537815e+00
 -1.3637291e+00
  1.8501933e+00
 -2.8833466e+00
  7.8104728e-01
  1.6850706e+00
 -6.0587196e+00
 -2.8210133e-01
 -4.3739334e-01
  3.0843776e-02
 -4.6328759e+00
  2.3850927e+00
  8.9584017e-01
 -1.1270261e+00
  2.5196280e+00
  9.2377877e-01
 -1.3361590e+00
  5.1484175e+00
  1.7111776e+00
  6.8570971e-02
 -4.7268171e+00
 -1.5673646e+00
  5.8277976e-03
 -1.1134313e+00
 -2.3994284e+00
  2.2012870e+00
  3.2118544e-01
 -5.0514493e+00
  2.1956699e+00
 -1.8490925e+00
 -1.7012289e+00
 -1.3708104e+00
 -4.3198407e-01
 -5.4991253e-02
 -6.4351875e-01
 -6.1823970e-01
  4.4824988e-01
 -4.7369674e-01
 -6.5700835e-01
  3.2185778e-01
  1.4805786e-02
  5.2722093e-02
 -1.3126977e-05
 -1.3627586e-01
 -4.3367895e-01
  1.3561629e+00
 -8.2413957e-02
 -2.3696420e-01
 -1.1374853e+00
  1.3197337e-01
  2.3584442e+00
  5.2796244e-03
  7.3601145e-01
  4.0388643e-03
  3.9813509e+00
  1.5454562e-02
  6.4429128e-01
  3.7559003e-01
 -9.0251243e-01
  4.5681125e-03
 -2.3392159e-03
 -3.6283262e+00
 -4.0232393e-01
 -8.7969011e-01
  2.3868133e-01
 -4.4484350e-01
  6.2074929e-01
  1.2446618e+00
  1.5335312e+00
 -2.3308357e-03
  8.9229561e-02
 -2.6589665e-01
 -4.4200730e-01
 -4.5004859e+00
 -2.5740049e+00
 -5.1256055e-01
 -2.1211072e-03
 -3.7961446e-02
  5.7073408e-01
 -1.8921881e-03
 -1.3245692e-02
 -3.7786761e-01
 -1.1281164e-02
  3.6465544e-03
  7.5338244e-02
 -7.3642927e-01
  1.8078194e+00
  7.9677522e-01
  6.6559774e-01
 -9.1445291e-01
  2.7774208e+00
 -8.8170737e-01
 -1.6279545e+00
  6.9661684e-02
  9.6684381e-02
 -8.5801768e-01
  2.4069805e+00
 -2.1076089e-02
  1.2859925e+00
 -2.3141632e+00
  3.1689963e-01
  2.1433476e-01
  7.1017146e-01
 -1.3172052e+00
 -1.1468506e+00
 -7.9420675e-03
 -5.3654976e+00
  4.6500379e-01
  2.5152001e+00
 -3.0517564e-03
 -3.7459057e-02
  7.0343576e-03
  7.7937281e-01
 -4.5183070e-02
  5.8299047e-01
 -6.1208516e-01
 -3.2040974e-05
  1.1815385e+00
 -1.6109300e+00
  1.3265751e-03
 -2.4500185e-01
 -6.3739163e-03
  1.1743306e-01
 -5.2726839e-04
  5.0560677e-01
  4.1475049e-01
  4.3094635e-02
  2.2289002e-02
  5.6797871e-03
 -1.2610748e-01
 -7.2621688e-04
 -5.8884043e-03
 -1.5614472e-01
  6.7958534e-03
  3.5975195e-02
 -6.1416559e+00
  9.6127037e-03
 -7.7768746e-03
  8.3632860e-03
  9.4893456e-01
  1.5876630e-02
  7.4808693e-01
 -3.6975927e+00
 -6.4238870e-01
 -1.0451349e+00
  2.7858474e+00
  4.2974882e+00
 -3.6188230e-02
  1.3375196e+00
  1.7159035e+00
 -3.9910582e-01
  5.9937507e-01
 -1.3053780e+00
 -1.6530421e-01
 -3.5510654e+00
 -4.6539521e+00
 -9.6008852e-02
  1.3126773e+00
 -4.0566049e+00
 -1.4375204e+00
  3.1832841e-01
  1.6339940e-01
  7.0698314e+00
 -2.3790531e+00
  4.5644965e-02
  1.1542016e+00
  8.7960517e-01
 -5.8135837e-01
  6.8051755e-01
  2.1512191e+00
  1.6223654e+00
 -8.4883489e-02
  5.5444393e+00
  5.6061691e-01
 -2.5397875e+00
  2.3387308e+00
 -2.1426046e+00
  7.8863623e-03
  6.6894236e+00
 -1.0466076e+00
  1.4685516e+00
 -5.1574326e+00
  6.6490278e+00
 -7.5373195e-02
  4.6674788e-01
  7.3044918e-02
 -2.4634665e-03
  5.7828084e-02
 -1.2007918e-01
  4.6785145e+00
 -3.3881044e-01
 -2.1613456e-02
  3.1706174e-03
  3.4915636e+00
 -6.3833055e+00
 -2.9314160e+00
  2.8158848e+00
  9.8862070e-01
  1.5781631e+00
  4.4908361e+00
 -2.6742730e+00
  3.7780287e+00
 -9.4928652e-02
  1.8242550e-01
 -7.0185429e-01
  6.1970043e-01
  1.8748019e+00
 -1.0391554e-01
  1.4933627e-02
  1.3244671e+00
  4.1214116e-02
  2.9927664e-02
  2.8244006e-03
  4.5169087e-04
 -1.0364012e+00
  2.6654008e-01
 -6.2172832e+00
  4.4991982e-01
  1.9817669e-03
 -1.9265204e-03
 -4.6542233e-01
 -8.9734858e-01
  1.0875491e+00
  5.0041046e-02
  4.4405928e+00
 -5.7228720e-01
  6.6999549e-01
 -1.0891269e-03
  8.0516464e-01
  5.1760955e+00
  9.5777017e-01
  4.2583153e-02
 -1.5021838e+00
 -1.7032551e+00
 -1.9462479e+00
  1.0511986e-03
  1.3815459e+00
 -6.9956422e-01
  3.0229148e-03
  3.4252915e-03
 -5.4892455e-03
 -9.6832225e-03
  9.9224178e-03
 -4.2073441e+00
 -1.1373835e-03
  8.6603491e-03
  1.6634809e-02
 -1.0685199e-02
 -4.9235101e-04
  7.9014455e-04
  5.8368617e-03
  4.1727046e-03
 -1.5989931e-02
  4.7459947e-03
 -1.7124477e-03
 -3.3929453e-03
 -5.0214450e-03
  3.9651510e-04
 -3.0242163e-03
 -8.7657459e-03
 -1.3294810e-03
 -1.7154280e-03
  1.8364500e-02
 -1.0025766e-02
 -3.0003535e-03
 -3.7912327e-01
  2.6256200e-03
 -1.3912094e-03
 -8.2252519e-03
  9.0120398e-03
 -1.1208257e-01
  6.4747181e-04
  9.8355615e-04
 -2.0909770e-03
 -4.5941346e-03
  2.5389891e-02
 -2.0527358e-03
  6.9554255e-05
  5.6408020e-04
  1.9957532e+00
 -5.1772904e-01
  1.3074499e-02
  2.4444805e-03
  3.4911832e-04
  1.9747689e-03
 -7.9406779e-03
  7.4756755e-03
 -6.7414879e-03
  5.0030805e-02
 -7.8963879e-03
  1.7079641e-03
 -7.9671675e-03
  1.6654393e-04
  9.3572624e-03
 -7.9899272e-03
 -4.0235952e-03
  1.0084374e-02
  8.0283219e-03
 -1.4614388e-03
 -1.7393539e+00
  5.5518560e-03
 -3.3539456e-01
  4.0341383e-01
  3.3063745e-01
 -7.8351218e-01
  3.5642329e-01
  7.7993709e-01
 -3.8320187e-01
  5.1407311e-02
 -3.5985839e-01
  1.9345088e-01
  6.3414993e-03
  2.5942080e+00
  5.2757865e-01
  3.3598137e-01
 -4.7836098e-01
  5.5948541e-02
  1.7837326e-01
  5.7868697e-02
  1.0293266e+00
  2.2160266e-02
  9.6274756e-02
 -4.2213485e-01
 -3.3207066e-02
  2.0970099e-02
 -8.5940827e-03
  1.4340245e+00
  1.1729878e+00
  5.0910521e+00
  1.7183977e-01
 -1.7518817e+00
 -3.4104037e+00
 -8.6353324e-02
  2.5292131e-01
 -9.3968701e-01
 -8.7727100e-01
  2.3855463e-01
  1.4811354e-03
 -4.3572564e-02
 -1.1146420e-01
 -4.2110538e-01
 -6.7500845e-02
 -4.7467378e-01
  3.0900756e-02
 -9.6380821e-04
  7.5391661e-03
  2.7209345e-02
 -1.2433458e-02
  3.9830024e-04
  9.6736230e-02
  1.9605279e-02
  1.4602257e+00
  5.8125653e+00
  1.9220801e-02
 -1.9151994e-03
  8.6080867e-01
 -1.5979053e+00
 -1.9955623e+00
 -1.5735055e+00
  6.4079994e-01
 -3.4504774e-01
  3.5551784e+00
 -8.8677293e-01
 -5.2471221e-03
 -2.6230764e-02
 -2.6376797e-03
 -6.8582725e-03
  6.5030390e-03
  1.0604233e-02
  1.0572658e-03
  2.5106242e-03
 -2.2488390e-03
 -4.7401229e-01
 -1.3073520e-03
 -2.5456911e-01
 -1.0075365e-02
 -9.7350060e-04
  9.1256726e-01
  2.6902375e-01
  2.8308626e-02
  8.1718359e-03
  4.3450445e-03
  7.4853678e-04
  5.7155609e-02
 -1.4981572e-04
  1.1294555e-02
  6.7435410e-03
 -3.4065204e+00
  1.1693997e-01
 -8.9005195e-03
 -7.4600033e-02
 -2.2381011e-03
  1.6869519e-02
  3.4503983e-03
  8.6873705e-03
 -3.5084982e-04
  6.4559469e+00
  1.6624907e-03
  1.8085180e-01
  7.3059001e-03
  9.4770286e-03
 -3.2812771e-03
  3.9450456e-03
  9.3125179e-03
  1.3070694e-02
  6.6122301e-02
 -3.8806007e-03
  3.3061288e-03
  3.7100381e-01
  1.4060520e-04
 -8.4378421e-03
  1.0308330e-03
  2.0254692e-02
 -5.0545400e-03
 -6.3392199e-03
  6.1376235e-03
  2.5392601e-03
 -2.2282766e-04
 -1.8277779e-03
 -5.2019055e-03
  7.9101613e-03
  5.8475006e-03
  1.1071539e-03
 -1.2584242e-02
  2.7095149e-03
 -8.7436298e-03
  9.7189797e-04
  2.1013380e-03
 -8.6070932e-03
  4.3498818e-05
 -7.0143247e-04
 -9.8089045e-03
 -1.2534916e-03
  1.6672106e-03
  2.5828166e-03
 -7.4612442e-03
  2.8948742e-04
 -1.3536203e-02
 -3.9525080e-04
  4.1641863e-03
  3.2373753e-03
 -1.4977337e+00
  1.8589399e-03
 -1.4206805e-02
 -3.6600970e-03
 -5.7938020e-03
 -3.7243746e-02
  1.0490089e-02
  3.5530147e-03
 -5.1718261e-03
 -8.3809209e-01
  1.1050394e-02
 -1.4154308e-02
  5.2191480e-03
  6.7036229e-01
 -4.8640167e-04
  1.2122928e-03
  6.0206524e-04
 -9.1392556e-03
 -1.7659035e-02
  4.9505504e-03
  4.2845882e-03
 -1.6418720e-02
  1.6933762e+00
  9.9097565e-02
  5.6990391e-01
  3.9283508e-01
  2.1503892e+00
  3.0067629e-01
 -1.4462054e+00
 -2.1523721e+00
  1.4775637e+00
  3.2695144e-02
 -7.5993226e-03
  1.6892685e-02
  2.1010416e-04
  4.4654867e-01
  6.3362412e-02
 -4.0979232e-04
 -1.4210972e-02
  7.0014930e-01
  2.5082408e-03
 -1.4019076e+00
 -7.2284057e-03
 -1.0279675e+00
 -2.3857445e-01
 -1.6807389e-01
 -1.6509201e-01
  8.7494865e-02
 -3.9154790e-02
 -9.7670746e-01
  1.0087322e-02
 -1.7424801e-02
 -1.6447861e+00
 -4.5714560e-01
 -3.1506884e-01
 -1.6570644e-01
 -2.1900931e-02
 -6.3738056e-02
 -5.5887927e-03
  1.1188209e+00
  5.2385932e-01
 -7.2794590e+00
  1.0921640e-03
 -3.8424587e-01
  3.0744052e-03
  5.4353273e-01
 -8.2092661e-01
  3.3729193e-01
 -1.9380443e-03
  1.0303465e-04
 -3.9223609e-03
  3.6133525e-03
 -8.6518341e-01
 -2.7461441e-02
 -3.2542199e-03
 -3.8910618e+00
  1.2510047e+00
 -5.2650106e-01
 -2.5469512e-01
  5.3658819e-01
  9.5146710e-01
 -2.4148740e-02
 -2.8080446e-01
 -1.2762514e-01
 -2.7273592e-01
  2.7119026e-01
 -2.3870808e-01
  9.4877116e-02
 -1.8960910e-02
 -1.1768340e+00
 -7.4238873e-01
  4.4450145e-03
 -1.2065327e-01
 -9.2524037e-02
 -2.3582573e-01
 -7.6194592e-02
 -3.3112928e-02
 -4.2312704e-02
  3.6890080e+00
  3.2016551e-01
  7.0418984e-01
  6.6645128e-01
  8.4888833e-03
  2.5076997e+00
  3.8844936e-03
  3.2976866e-01
  1.6718307e+00
 -1.2538068e+00
 -1.9989300e+00
 -1.3205831e-01
 -1.7692190e-01
 -6.6258430e-01
  2.3157048e-01
 -1.0191832e-01
  8.7815952e-01
 -7.0634234e-01
  6.3430679e-01
  6.0058609e-02
  1.6035335e-01
 -5.9125757e-01
  3.6395374e-03
 -8.6166216e-03
 -4.8447471e-02
 -5.6354874e-01
  1.5696789e+00
 -1.1042384e-02
 -2.7313745e+00
 -2.1924013e-03
  3.4811684e-01
 -5.2519947e-01
 -3.9700110e-02
  5.0517160e-02
  3.6689845e-01
 -4.3218425e-03
 -8.1578606e-01
 -5.8929939e+00
  5.4823050e+00
  4.5095606e+00
 -2.7276186e-04
 -1.5418953e-02
  9.9879445e-04
 -5.2657223e-04
  2.3979440e-02
  8.0612267e-04
 -6.1176852e-03
 -6.5479283e-03
 -1.9489979e-02
 -6.3157002e-03
 -1.9046901e-02
 -3.5941623e-05
 -1.3767923e-01
 -5.2374377e+00
 -8.7028239e-03
 -2.1901944e+00
 -1.0971792e-02
  3.3679316e-03
  2.4819920e-02
 -3.8424849e-03
 -1.1449706e-02
 -2.8186424e-03
 -2.5923597e-03
  5.7278080e-03
  1.2905670e+00
 -2.6782215e-01
 -2.4602441e-02
  3.5428684e-02
 -8.3653843e-03
 -3.0025938e-03
  1.0102626e-04
 -1.2316436e+00
 -4.0883853e-04
 -2.1221349e+00
 -8.4700221e-03
 -7.3660898e-04
 -4.2154152e-02
  7.7936170e-04
  1.9758055e-02
 -1.3494752e-02
 -1.6707419e-03
 -6.5651577e-04
  4.1569724e+00
  6.1106309e-04
  9.0204086e-03
 -2.2746092e-03
  1.9612652e-03
 -8.5261610e-04
  9.2690950e-03
 -4.1033030e-03
 -1.0123225e-02
  3.1833216e-03
  6.5259859e-03
 -7.3238052e-03
  5.5058138e-03
  4.3385141e-03
 -1.3451261e-02
 -3.3186242e-04
 -1.9198940e-03
  7.4721659e-03
  3.5888571e-04
  4.8673307e-03
  1.7266948e-02
  1.7410326e-03
 -6.8032946e-03
 -4.5189252e-03
 -1.3516921e-02
  7.3697837e-03
 -4.8117506e-04
  1.1803904e-02
  5.9823040e-03
  7.1676825e-03
 -5.0521013e-03
  4.7715446e-03
  7.0358178e-04
 -3.0264966e-03
  1.7055777e-03
 -2.7576735e-04
  1.2371298e+00
  9.4029034e-04
 -6.3806996e-03
 -1.4401583e-02
 -4.9425417e-04
 -5.1502697e-02
  2.1645231e-02
  1.9267350e-02
 -1.5881484e-03
  7.7442206e-02
  4.8414906e-03
 -3.6768056e-03
 -1.9902261e-02
  1.0649280e-02
 -7.4940687e-03
  8.2250405e-03
  1.0993563e-03
 -8.6715650e-03
  6.0371533e-03
  5.3286105e-03
  3.0468099e-03
 -2.8060002e-03
  3.5644203e-01
 -2.5149977e-01
 -1.6777858e-01
 -1.4290749e+00
  4.4807824e-01
 -3.4735033e-01
  3.1010211e+00
 -3.8918540e-02
 -1.4850514e+00
  1.5224859e+00
  1.3354049e-02
  4.1639906e-01
  5.3340632e-02
 -5.3980937e+00
  1.6088259e-01
 -6.9310347e-04
 -7.1107066e-01
  1.0146201e+00
  6.8485104e-02
  4.7968662e-01
  8.9473963e-01
  2.9856239e-02
  2.2874446e+00
  1.0786857e-01
  1.8634098e-02
 -5.0912476e+00
 -2.6686645e-01
  2.6124384e-02
 -3.9431271e-01
  1.5406872e+00
 -9.9527508e-01
  1.1422160e+00
 -5.9689671e-01
  2.7168864e-01
  6.4642763e-01
  1.1060512e+00
  9.4392672e-03
 -1.6401560e+00
  1.6517111e+00
 -5.9409076e-01
  3.6266750e-01
  4.1120392e-01
  3.6805082e-02
  7.6252133e-01
  2.4376653e-02
 -1.6285644e-01
  1.1094385e-02
 -5.5852002e-01
  9.0254009e-01
  3.3185520e-04
 -9.6239932e-02
  1.0919632e-02
  8.6608654e-01
 -4.5566788e-01
  2.8691208e-01
 -1.4690836e-01
  8.7076619e-02
 -1.4527588e-01
  3.0159581e-01
  9.6357775e-01
  1.9437613e+00
  9.0687767e-02
  7.6215260e-02
  3.4247439e+00
 -2.3979340e+00
  9.9161977e-01
  9.2668533e-01
  5.9015507e-01
  8.8010103e-01
  2.1871185e+00
 -1.5004498e+00
 -7.7989203e-01
  4.5239055e-01
 -2.9055731e+00
 -4.6525795e-02
 -4.3491774e+00
 -1.8874917e+00
  6.4993066e-01
 -5.5154687e-01
 -1.3633837e+00
  7.8797680e-01
 -6.2958604e-01
 -1.2431716e+00
  5.5114990e-01
 -1.1309185e+00
 -1.5405270e+00
  2.6203302e-01
 -5.8026928e-01
 -1.7012322e+00
 -9.9414311e-02
 -1.3314561e+00
  5.1105080e+00
 -7.6719350e-01
 -1.4318651e+00
 -7.5221933e-02
 -1.8712883e+00
 -2.3972942e-01
 -5.3533912e+00
  9.4856817e-01
  4.1672126e-03
  5.5166215e-01
 -3.2623181e-01
  4.2398847e-03
  9.6607404e-03
 -4.7973588e-01
  4.5049796e-03
 -1.5471635e-02
 -1.0115028e-01
 -3.3921046e+00
 -2.8035758e+00
  1.4183483e+00
 -1.1798621e+00
 -2.2552826e+00
 -1.7123789e+00
 -8.6228424e-01
  2.8283451e+00
  7.9038167e-01
  6.3904472e-02
  9.6467465e-01
  3.2408619e+00
 -1.4938638e+00
  1.7501937e+00
 -1.5769794e+00
  2.6940255e+00
 -1.6133494e+00
  3.7988093e-01
 -4.6421967e+00
 -2.7973266e+00
  2.7565572e+00
  3.4327819e+00
  2.6456311e+00
  2.3032565e+00
 -3.8730688e+00
  3.1115627e-01
  7.6968324e-01
 -1.6780748e+00
 -1.6773605e+00
  1.5070219e+00
  1.2417967e-01
 -1.1231866e+00
  1.3567243e+00
 -7.1350317e+00
 -1.9041906e-01
  3.8908106e-01
  9.5660746e-01
 -5.6437874e+00
  8.8389224e-01
 -1.1990230e+00
  1.3280051e-02
 -2.3485849e+00
  7.4187779e+00
 -1.5721691e+00
  2.6287525e+00
  3.5396247e-04
 -1.9284911e+00
  1.0816052e+00
  1.1850033e+00
 -1.0369830e-02
  3.2762468e+00
 -2.6930597e+00
 -3.8190527e+00
  7.8035545e-01
  2.7528789e+00
  5.5360489e+00
 -1.1336826e+00
 -1.1545540e+00
 -1.5722847e-01
  1.2620975e+00
 -2.1682801e+00
  1.2434294e+00
 -6.0827832e+00
  2.2814630e-01
 -1.4910557e+00
  9.8124996e-02
  5.9311817e-05
  6.4097606e-02
  9.8841220e-01
 -4.4331141e-04
  8.1785607e-01
 -1.7824819e-02
  1.9018684e-01
  2.2421823e-01
  2.8784664e-02
  1.7436051e+00
 -7.1988482e-04
  3.1344683e+00
  8.1540579e-03
  2.5392845e-01
  5.6219810e-01
  3.3475601e-03
 -9.5515259e-02
 -2.8350706e+00
  3.8938080e-03
  1.7517852e+00
 -3.3029982e-01
 -3.5619073e+00
  1.0141230e+00
  5.7939267e-01
  1.2172245e-01
  1.4776859e+00
  2.0970312e-01
  1.2912174e-01
 -4.4930327e-01
  9.3259037e-01
 -5.4225051e-01
  4.1717401e+00
 -2.1616995e-01
 -8.4530227e-03
  1.3438325e-02
  6.0654908e-02
 -1.7996170e-02
 -5.0239349e-03
  2.9997568e+00
 -3.9091255e-03
  1.1368601e-02
  9.3276724e-03
  1.5077481e-01
 -2.3603642e-01
 -9.3070544e-02
 -9.3034941e-01
 -6.4938784e-01
 -1.8138859e+00
 -1.5768598e+00
  6.2569171e-01
 -7.0368550e-03
 -4.8312008e-01
 -1.0683939e-02
 -2.3502100e-05
  1.9958053e-02
 -6.6038906e-03
  3.4977202e+00
  5.3813601e-01
 -2.5295740e-02
  4.4979987e-01
  1.4246738e+00
 -8.3714072e-03
  4.9332433e+00
  1.2146420e-01
  2.3987914e-02
  8.1218368e-01
 -1.1772169e-01
  1.7364216e-03
 -3.4078173e-03
  9.1424277e-03
 -9.2333378e-03
 -1.1630236e-01
  1.5752809e-01
  5.9003448e-01
 -2.2198784e+00
  1.4133507e-02
  1.1808296e-02
  1.0069000e+00
 -2.3660848e-01
 -6.6351467e-01
 -9.6961493e-03
 -3.4331223e-03
 -9.0820286e-03
 -2.6037006e+00
 -1.4345394e-02
 -6.5663154e-03
 -7.4523510e-03
  7.0301886e-04
 -2.9959935e-03
  2.5951068e-03
  6.2811193e-03
  5.3217104e-03
 -1.1716729e+00
 -2.4962754e-03
 -1.3319823e-02
 -4.0910151e-03
 -3.1505909e+00
 -3.9639335e+00
  4.2680449e+00
 -3.4522212e+00
 -6.4373589e-01
  2.5251719e-01
  2.6988099e+00
  6.3493466e+00
 -1.3042438e+00
 -1.9880502e+00
  2.0960266e-02
 -2.3228352e+00
  5.3408951e-01
  3.2586342e-01
  1.3383803e+00
 -1.6265829e+00
  5.5762196e-01
 -7.6951486e-01
 -2.5543413e+00
  6.9554901e-01
  1.6181263e-04
  2.0896019e-03
  1.6864291e-01
  4.6986465e+00
 -3.8635641e-02
  1.5949636e+00
 -2.2045447e-02
 -2.5206751e-03
  1.5158010e+00
  4.8835727e-04
  3.2983468e+00
 -8.4845906e-01
 -3.6405389e+00
  8.4013042e+00
  5.3122910e-03
 -3.9076412e+00
 -1.4654821e+00
  3.3057449e+00
 -1.7771293e-01
 -2.4771436e-01
 -1.3098974e+00
 -3.1733260e-01
 -1.9729401e+00
  2.2192454e-01
 -2.6541548e+00
  3.1610427e-03
  1.3362925e-02
  1.5007229e-01
 -2.5641789e+00
  1.5008592e-03
  2.0710998e+00
 -1.1680678e-02
 -2.6905690e-03
  7.7484228e-02
 -3.6018686e+00
 -1.4932355e+00
  9.9307811e-01
 -4.1866417e+00
  2.8613997e+00
 -2.5972843e+00
 -3.1414194e+00
  2.4718802e+00
  4.8838592e+00
 -7.9860443e-01
  4.8767391e-01
  1.0939106e-01
  2.9586885e+00
 -6.3666493e-01
 -4.5839648e+00
 -2.5972772e+00
 -1.4160600e-01
 -1.5161183e+00
  4.7624497e+00
  1.8887893e+00
  5.1829809e-01
 -1.1538643e+00
  3.3887768e-01
  2.8234005e+00
 -1.6164823e+00
 -7.6136428e-01
 -3.6520679e+00
  1.8139274e-01
 -4.1241598e-01
 -2.0609588e-04
  1.0609515e+00
  2.7368815e+00
  1.2215105e+00
  2.2323925e+00
 -3.7501401e-01
 -6.9161797e-01
  5.5200934e+00
  1.2305258e-01
  2.8925841e+00
 -1.3342721e+00
  4.3387440e-01
 -1.3937122e+00
  1.3424599e+00
 -5.0396709e+00
 -3.7311870e-03
 -5.5060228e-03
  5.0790329e-03
  1.2362379e+00
 -1.6267766e-01
 -3.9707509e-01
 -1.9037660e+00
 -1.1247849e-02
  5.4729511e-03
  7.4190445e-02
 -1.1248469e+01
 -9.4973356e-01
  6.6248065e-01
 -4.5269389e+00
  9.6618468e-03
 -2.6460117e-01
  9.1434008e-01
  1.0791329e+00
  7.0188498e-01
 -3.3836705e-03
 -4.0905210e-04
 -1.0984198e-02
 -1.4162767e-03
  1.3315387e-03
 -9.2249438e-03
 -1.0167488e-01
 -3.5661829e-03
  5.8309346e-01
 -3.8403114e-03
  7.2083245e-03
  3.9995667e-03
  1.0633143e-02
  1.3493773e-03
  8.6455221e+00
 -1.5367597e-04
  4.9962150e-03
 -2.5973627e-02
  1.6915953e-01
 -9.6454620e-03
  3.2987390e-04
 -1.6470090e-04
  8.4154308e-03
 -6.2928879e-01
  1.0167314e+00
  3.0539045e-03
  1.3371591e-02
 -2.3499710e-02
  2.6422660e-03
  1.1027367e-02
  3.3962163e-03
 -1.1447554e-03
  1.0130092e-02
 -2.1727566e-02
  1.0982999e-02
  9.1259358e-03
  6.5733830e-04
  7.4379714e-03
  1.6043279e-02
 -6.9331808e-04
  3.1447724e-01
  1.7085573e-02
 -2.9916105e-01
  1.1604040e-02
  6.5967999e-03
 -8.1418073e-03
 -2.2095906e-02
 -3.8287712e-03
 -4.2639854e-03
  7.7134804e-03
 -1.1336658e-04
  1.0660303e-02
  1.2403904e-02
  5.2143433e-03
 -4.3501090e-03
 -3.2055588e-03
 -1.3981669e-03
 -1.0193886e-02
 -2.6778078e-02
 -7.8676539e-03
  1.1786114e-03
 -9.8065995e-03
 -1.1709046e-03
  2.9625705e-02
 -1.8216426e-02
 -6.7874203e-03
  3.4362464e-03
  2.0746025e-04
 -1.2198613e-02
 -1.7099246e-02
 -3.4452353e-03
 -9.3358206e-03
 -1.1980770e-03
 -8.5436152e-03
  1.5154690e-02
 -3.9963648e-03
  1.5647484e-02
 -7.1791947e-01
  1.2895849e-02
 -5.2830959e-03
 -5.6128972e-03
  2.9233927e-03
 -7.3510194e-03
 -2.4407546e-03
 -1.1517636e-02
  8.5800625e-03
 -7.3599130e-01
  1.3475772e-02
 -2.3060981e-03
 -4.2166477e-03
 -2.5341271e-03
 -1.1345255e-03
 -1.8298668e-03
 -6.3539008e-03
  1.3854149e-03
  9.5454063e-03
 -1.3867385e-02
  1.1197352e-02
  1.7233042e-02
 -6.6953125e+00
 -1.0086554e+00
  3.6584694e-02
 -2.0166741e-01
 -1.9014373e-03
  6.9720203e-01
 -1.7731971e-01
 -1.0223234e+00
 -4.5130965e-03
 -6.1516943e-03
 -1.0186168e-02
  1.7293182e-03
  6.9667026e-03
  8.2786866e-03
  9.4959270e-03
  3.7769366e-03
  1.0277272e-02
 -7.9620946e-03
  2.3410791e-03
 -8.3080376e-04
  5.5247485e-03
 -3.4418015e-04
  1.6797571e-02
  7.9991125e-02
  4.4065458e-03
  1.2869482e-03
 -3.8115035e-03
  4.1571138e-03
  3.6161385e-02
 -1.7222178e-03
 -2.9782850e-02
  2.5945826e-04
  6.3020909e-01
  1.9663586e-01
 -2.2921760e-03
 -3.1042352e-02
 -4.1253469e-03
  2.7346622e-02
  1.1138434e-02
 -6.7540668e-02
 -6.0141589e-03
  2.9897213e+00
 -5.4466794e-04
  3.5007004e-04
  1.6406551e-03
 -4.6331561e-03
  1.2581683e-03
  3.6640230e-03
  1.6847302e-03
  9.1147078e-03
  2.3282361e-03
  7.7455975e-03
 -3.1373277e-03
 -1.2824209e+00
  5.2140653e-02
  3.5697901e+00
 -3.9113921e-01
 -3.7059417e+00
 -2.6461244e+00
  4.7679763e+00
  3.7646716e+00
  1.1216770e+00
  1.9212987e+00
  1.4235615e+00
 -2.0592887e+00
  4.7775973e-02
 -1.2837199e+00
 -2.0881548e+00
  2.4119487e+00
  5.1017410e-01
  7.7976859e-01
  9.8800510e-01
  2.7440214e+00
  2.3323119e+00
 -1.4028490e-03
 -3.5390419e-01
 -1.6645217e+00
 -7.7987278e-01
  9.6861881e-01
  1.8417689e+00
 -1.7678475e+00
 -1.4954471e-02
  9.3843532e-01
 -1.7756398e+00
  2.9202750e+00
 -1.0730602e+00
  5.0454789e-01
 -2.5165732e+00
 -2.5978584e+00
 -5.4289279e+00
  5.6229682e+00
  5.7857420e-02
 -2.3866943e-01
 -1.3514130e+00
  1.2942380e+00
 -1.0271825e+00
  2.1273735e-01
 -2.6633415e+00
  3.0057533e+00
 -3.2884419e-02
 -2.8764737e+00
 -1.5078663e+00
 -3.6037743e-01
  8.3960247e-01
 -2.6705475e+00
  2.7740600e-02
  1.3274559e+00
 -2.2098967e-03
 -1.3020691e-02
  4.2501842e-03
  5.6953628e-02
 -2.8412773e-03
  3.5466875e-03
 -1.5882943e-03
  6.0007004e-03
 -1.4062636e-02
  4.5522507e-03
 -1.5546684e-04
 -7.7010421e-03
  3.9241917e+00
  1.9247016e-02
 -1.1496250e-02
  9.8454051e-02
  2.3635142e-03
 -1.2458102e-02
  1.3767839e-03
 -1.4848069e-03
  1.1669483e-02
 -3.6178611e-04
  4.1531506e-03
 -1.3566895e-03
 -4.3079318e-03
 -4.4872575e-03
 -4.7934791e-03
 -1.4802617e-03
  3.3891806e-04
  3.4949405e-03
 -7.1316343e-03
 -4.2987983e-03
  2.7833425e-03
 -2.7503161e+00
 -6.3121873e-03
 -4.8363264e-04
 -3.4895362e-03
  8.9170408e+00
  1.2131502e-02
 -8.5684448e-04
  4.6821265e-03
 -2.1919243e-01
  4.3419693e-04
 -1.1585355e-01
 -1.0869368e-03
 -3.8717119e-03
  9.7965933e-03
 -5.4630176e-03
  9.3687270e-03
  4.7301316e-01
 -1.2707251e-02
 -1.5604438e+00
 -6.8753292e-03
 -2.6760395e-03
  3.2661874e-03
  4.0265871e-03
 -4.8520891e-03
  1.3591661e-02
 -1.2866785e-03
  1.3991494e+00
  1.2353238e-02
 -1.2575941e-03
  2.6992399e-03
  4.0568607e-03
 -2.6545827e-03
  1.2170291e-04
 -1.4057737e-02
  4.1400455e-03
  2.4017310e+00
 -7.9632958e-04
 -4.2612571e-03
  3.5602353e-03
 -1.1826498e-02
  3.6963383e-03
 -2.8081946e-02
  5.3870096e-03
 -1.1270127e-02
 -2.0577246e-03
 -1.4528432e-02
 -1.3076901e-02
  4.0485320e-05
 -2.6598051e-03
  1.0331337e-02
  1.2348623e-02
 -1.0963680e-03
 -8.7198969e-03
  9.3721831e-03
 -1.7054429e+00
 -1.8684397e-02
 -7.0921779e-03
  5.6731459e-03
 -3.0918363e-03
  6.7671612e-03
  3.2621089e-03
  1.6811641e-02
 -1.0413341e-02
 -9.6915131e-03
  1.0575250e-02
 -2.0994172e-03
  1.4621821e-02
  1.6596424e-03
  4.4660013e-02
 -1.4702888e-03
 -7.4721710e-03
  1.1137435e-03
 -2.1780180e-02
 -8.7388437e-03
 -9.2438962e-03
  5.8087502e-03
  4.0275702e+00
  1.5847274e+00
  3.3897144e-01
  7.4899340e+00
 -2.3174605e+00
  7.9623642e+00
 -2.6265337e+00
 -4.7812872e+00
  5.0871487e+00
 -2.6601422e-01
 -4.4021487e+00
  2.6024616e+00
  9.4342852e-01
  1.6598035e+00
  6.7056072e-01
  4.2661572e+00
  3.6301951e+00
  1.9724219e+00
 -1.1963851e+00
  4.2439232e+00
 -3.1013205e+00
 -4.6219730e+00
 -2.3015091e+00
  3.3940036e+00
 -1.8306347e+00
  1.6428846e+00
  7.8084791e-01
  7.8903847e+00
  9.3075037e+00
 -5.0838218e+00
  2.7070165e+00
  3.5040684e+00
  8.0324018e-01
 -1.2899097e+00
 -6.4230232e+00
 -1.1373621e+00
  1.5871297e+00
  6.9306173e+00
 -6.3003144e+00
 -3.0725200e+00
 -1.6001339e+00
 -1.3132844e+00
 -1.8857414e+00
 -3.3282609e+00
  1.5046806e+00
  5.1271760e-01
 -4.1940765e+00
  1.0795147e+00
 -1.7343602e+00
  8.6344955e-03
 -1.9367555e+00
 -4.0106443e-03
  2.4723865e-02
  2.2228849e+00
  2.4711411e+00
 -5.4836756e-01
  3.0563984e-03
  5.3125024e-01
 -3.2810741e-03
  1.3958435e-02
  3.8241813e+00
 -1.7209796e+00
  1.3708118e-02
  2.8983897e-03
  2.6453193e-03
 -1.2731238e-02
 -8.0623536e-04
 -4.5298897e-03
  2.6959741e-02
  3.3662930e-02
  2.8536387e-03
 -1.0577240e-02
  4.6469886e-03
 -1.9260671e-04
 -8.1259403e+00
 -4.2602695e-03
 -2.7607756e-02
  5.0298080e-02
  1.8563064e-02
  5.8402252e+00
  1.5392306e-03
  1.4696050e-03
  6.2964102e-03
  4.3441132e-03
 -2.1065830e-03
 -1.8484622e-03
 -3.9249355e-01
 -4.2017284e-03
  2.1385362e-04
  4.2582909e-03
  2.2492779e-03
  4.2888732e-03
  2.0274987e-02
 -1.1470045e-03
  1.8882096e-03
  6.3158903e+00
  5.5881348e-03
 -1.4292639e-02
 -5.4298402e-03
 -1.4037292e-03
  5.6141904e-03
  5.3476240e-03
  3.3455882e-03
 -1.6797267e-02
  1.3192732e-02
  9.6233352e-04
 -1.3999930e-02
 -2.6533424e-03
  2.5437763e-03
  6.0625450e-04
 -1.2899700e-02
 -1.3599746e-03
  3.2357048e-04
 -9.6135819e-04
 -5.0929300e-03
 -1.3865948e-02
  7.4793086e-03
  5.4669581e-06
 -4.1912319e-03
  1.4606267e-02
  7.1774409e-03
  9.1550201e-03
 -1.6741298e-02
 -1.2192945e-01
 -1.9610032e-02
 -5.3429008e-03
 -1.4866159e-02
 -1.4102217e-03
 -3.4605844e-03
  6.3210223e-03
  7.9028343e-04
 -1.0323968e-03
  2.1413185e-03
 -1.0217331e-02
  1.2435268e-03
 -1.5303746e-03
  1.1430350e-03
 -1.3219519e-02
 -1.3773611e-03
  4.0457954e-04
  1.5113428e+00
 -1.5671689e-02
  3.8631479e-03
  6.8443650e-03
  1.6121183e-03
 -3.6057439e-03
 -1.4201035e-02
 -2.5653995e-03
  5.5937306e-03
  2.5708577e-02
  1.4339684e-03
 -1.4808437e-02
 -4.1123908e-03
 -6.6174525e-03
  4.2756848e+00
 -2.1098517e-03
 -1.1518110e-02
 -8.1166830e-03
  3.5269819e-03
  4.7554625e-03
  1.4063994e-02
 -1.2043688e-02
 -5.7482995e-02
  2.0361401e-01
  5.9123229e-02
  1.1212124e-01
  2.5950855e-04
 -1.7474594e+00
  7.7667326e-01
  5.0891221e-01
 -8.3057152e-04
 -4.0952051e-01
  2.2481105e-03
 -5.2281725e-01
 -3.8132858e-01
 -1.3882647e-02
 -2.8272030e-01
 -2.2733625e-02
 -1.4641738e-01
  1.6230783e-01
  4.0531442e-01
 -4.3254226e-02
 -1.2087877e-03
 -6.3374126e-03
 -1.1885779e+00
  2.9083437e-01
 -2.0251734e-02
  5.5362605e-02
 -1.0402826e-02
 -5.2071400e-03
 -3.9352462e-01
 -2.5366176e-02
 -2.1969344e-01
 -1.2887795e-03
  1.1284209e+00
 -9.6022278e-02
 -3.8842005e-01
  9.0251642e-01
 -3.8177050e-03
 -9.2139429e-01
 -4.3246057e-02
 -3.2565977e-02
 -9.1278218e-03
  3.0490289e+00
 -3.1096619e-03
  4.9313292e-02
 -1.2745447e-02
  1.0777824e-03
  5.3631876e-02
  5.7143485e-03
 -7.9378271e-03
 -4.3480950e-03
 -5.0982469e-01
 -6.4378260e-03
 -1.1674055e-01
  1.5676083e-03
 -1.6955100e+00
 -1.4317805e-01
  1.3522516e-01
 -1.0462721e-01
 -8.7034088e-01
  9.2711890e-01
 -4.2153960e-01
 -3.3551350e-01
 -2.7420928e+00
  1.5772419e-02
 -1.8712780e-01
 -1.1271018e-01
 -3.3275607e+00
 -1.1028877e-01
  1.2237736e-01
 -3.3332058e-03
 -5.3797998e-02
  7.3552120e-01
 -7.8769290e-01
  1.2411754e+00
 -6.0153357e-04
 -6.9730908e-02
  3.7798834e+00
 -1.3098903e+00
 -1.8572478e-02
  4.9644350e-03
  2.0116897e-01
  3.1534269e+00
  2.3748202e+00
 -6.9791949e-01
 -2.6565975e-01
 -2.7277356e-01
  4.2265916e-01
 -6.6879892e-01
  3.0597088e+00
 -2.0230196e+00
 -8.9178532e-03
  3.0257460e-01
  1.1340125e+00
 -1.2024674e+00
  1.6602529e-02
 -3.8976705e-01
 -5.4410601e-01
  8.1166762e-01
  2.5253966e-03
 -2.3361593e-02
  7.9246275e-03
  2.5722855e-03
 -1.8386090e-03
 -8.8889967e-05
 -1.4904387e+00
  1.0339750e-03
  5.5917790e-03
 -1.5101407e-02
  3.6866073e-03
  1.9056924e-02
  8.4179215e-04
  9.8812440e-03
 -5.9444987e-04
  7.6322176e-04
  7.4319430e-03
 -3.0517974e-04
  1.2769813e-02
 -4.2522931e-03
  8.2239062e-03
  1.0524188e-01
  5.0976574e-03
  6.4962739e-03
 -3.5530659e-03
 -1.6321662e-03
 -8.7307030e-03
  4.8013926e-03
  3.0197112e-02
 -9.6750837e-03
 -1.6560925e-03
 -1.2857405e-03
 -2.0784322e-02
 -7.4715288e-03
  1.7112702e-03
  3.2136035e-03
 -2.6759688e-02
 -9.1175437e-03
 -1.8542815e-03
 -5.7577868e-03
  8.5996836e-03
 -1.9332541e-02
 -1.5829515e+00
  5.0288700e-03
  6.9615399e-03
  8.7086838e-03
  7.7441125e-04
  3.6972382e-03
  1.3928387e-03
 -1.2820421e-03
  6.1482769e-03
 -2.3627614e-03
  1.3255958e-02
 -7.0990772e+00
 -1.2045028e-02
  2.4361436e-03
  7.3329369e-03
 -2.0379769e-02
 -1.4548887e-02
 -2.6503576e-03
  2.9549890e-04
 -1.0388580e-02
  2.4158973e-05
 -4.3369438e-03
 -2.6758683e+00
 -1.8714443e+00
 -2.9666114e-01
  7.2841978e-01
 -8.7303489e-01
 -2.7161663e+00
 -3.6655314e+00
  2.5562737e+00
 -2.6710639e+00
  3.6284125e-01
 -7.5001717e-01
  2.0126686e-02
  4.2970958e+00
  4.2296672e-01
  2.2950914e+00
 -9.6417797e-01
 -1.0745889e+00
 -2.5719205e-01
  1.9457904e+00
 -7.5174385e-01
  7.4137729e-01
 -2.6550586e+00
  1.1080455e+00
  2.0874693e+00
  7.6616418e-01
  2.0406799e+00
  4.3217868e-01
  6.0069621e-01
 -1.3999912e+00
  1.1906303e+00
 -5.9639066e-01
 -1.9373627e+00
 -1.9398485e+00
  3.3078616e+00
  7.0399964e-01
  3.6199398e+00
  7.3931277e-01
 -4.3827443e+00
 -1.5377463e+00
  1.4669142e+00
  2.4914984e-01
 -1.9941568e+00
  9.7617501e-01
  2.1141341e+00
  5.8449507e-01
 -2.5605521e-01
 -5.1057849e-02
 -4.2568275e-01
  6.4630876e+00
  1.3217427e-01
  1.3086824e+00
  5.7657734e-03
  2.2711320e+00
 -2.5059240e+00
  1.6896345e-05
 -3.9613759e-03
 -7.1670610e-04
 -3.7446476e-03
 -5.3980239e-03
  1.6722899e-02
 -3.8037421e-03
 -1.4164859e-03
 -1.4507370e+00
  2.3605535e-03
  4.1135275e-03
 -1.7481816e-03
  4.2110649e-03
  5.5477142e-02
 -2.7720192e-03
  2.4831635e-03
 -1.5534949e-02
  4.0194113e-03
 -5.9986552e-03
  1.1434869e-03
  1.0363425e-02
 -2.4766871e-04
  5.4690219e-04
 -1.1904854e-02
  4.9952646e-03
  1.4796739e-03
 -3.8791706e-03
 -1.9571446e-03
  1.7819959e-01
 -7.1701780e-03
 -8.0065923e-03
  3.2107830e-03
  5.5997026e-01
 -1.5214499e-03
 -1.8638442e-03
 -4.1520759e-03
  1.5635056e-02
 -8.7158997e-03
  1.8546401e-03
  1.6231010e-03
  3.9509669e-04
 -1.0036041e-03
 -9.9178497e-03
  7.0694268e-01
 -4.5450735e-03
  3.8079240e-03
  5.6601700e-04
 -1.4487795e-03
  3.1988393e-03
  4.5554922e-03
 -1.9472479e-03
 -1.1255234e-02
 -2.5008346e-03
  3.0442183e-03
 -2.2317372e-01
 -1.1355926e-02
  1.3530150e-04
  1.2906712e-02
 -5.4016043e-03
 -3.3632643e-03
  4.4038880e-01
  4.1528638e-03
 -1.1501294e-01
 -1.1733027e-02
 -3.3766828e-03
  1.4996357e+00
 -2.2337544e-03
 -1.7555077e-01
 -1.7369704e-01
  2.5371797e-03
  6.4187601e-02
  1.5749462e-02
 -4.0306570e-04
  2.2990396e-02
  2.7206331e-04
  5.7172317e-02
 -4.7318935e-03
  3.2001019e-01
  3.0598787e-03
 -1.0767654e-02
  1.5492260e-03
 -1.8709386e-03
  7.2675897e-04
  1.0082712e-03
  1.2125383e-01
 -2.4680542e-03
 -3.6700599e-02
 -4.5766652e-04
  4.4663687e-04
  1.2006488e-02
 -1.0588261e-02
 -2.0470403e-03
  5.4185628e-03
 -5.4151862e-04
 -5.0259046e-03
 -1.2560775e-02
 -2.0015193e-04
  2.3929941e-02
  2.5187873e-03
 -1.5841169e-02
 -9.7431028e-03
 -1.3585546e-03
 -5.6482800e-03
  2.4778736e-03
 -1.4089637e-02
  8.2568347e-04
 -1.5491149e+00
  3.5953375e-03
 -1.9648650e+00
 -4.4399915e+00
  4.4258981e+00
  8.9711046e-01
  6.4420223e-04
 -1.1648775e+00
  4.2279549e+00
  5.9767944e-01
 -6.8768597e-01
 -1.1770133e+00
 -9.2369708e-05
  2.4055480e-03
 -8.8006882e-03
 -2.2125330e+00
 -1.2023297e-01
  1.0551219e-02
 -6.2657043e-02
 -1.4006046e+00
 -1.0618299e-02
  3.3178548e-03
  2.9204977e-03
  2.3410976e-01
  3.3157878e-02
 -1.8919700e+00
  1.2008893e-02
  5.4486380e-03
  9.1161029e-03
  6.9656069e-03
 -8.6283321e-03
 -1.3670716e-03
  1.7516021e-02
  7.1788234e-01
  2.5646322e+00
  2.4916613e-02
 -2.3381559e-02
  2.2369573e-02
 -2.3251099e-03
  1.3778812e-03
 -1.2663133e-03
 -9.9776542e-01
  1.8194591e-01
 -2.3361681e+00
 -2.4095317e-02
  5.9370223e-02
  1.3375658e-02
  6.3035619e-03
  1.6454531e-02
 -1.3386500e-03
 -3.8260850e-03
 -7.7998219e-03
 -9.8844999e-01
  7.2416156e-03
 -1.2777764e-02
  1.9927157e-02
  5.9206307e-01
  1.8451132e+00
 -9.7241354e-01
 -1.7133558e-01
  1.0702436e-02
 -5.9828553e+00
 -7.6319370e-04
 -3.6613846e-01
  1.2198033e+00
  1.2356104e+00
  1.7013530e-01
  6.4750528e-01
  2.4253926e+00
  7.9693550e-01
  8.5697907e-01
  3.2686883e-01
  9.2283213e-01
  7.0866451e-02
  4.6047964e-03
 -9.3682734e-03
 -1.4990885e-02
  5.7677651e-04
  2.6832981e-04
 -1.1271009e+01
 -2.8287079e-03
 -1.9932898e-02
 -6.4146901e-03
  2.0029651e-01
 -7.6943487e-02
  1.2119613e-03
 -4.2669624e-01
 -4.0192204e+00
  2.1158130e+00
 -6.7551084e-02
  8.3260756e-04
  7.7939839e-03
  5.8456975e-01
  1.8644912e-02
  1.7115155e-02
  7.1667577e-03
  9.6388878e-03
 -3.4394495e+00
 -1.8411595e-01
 -1.2439915e-03
 -2.1083556e-01
 -3.7772525e-03
 -9.6634580e-03
 -7.9991538e-03
 -1.1281733e-02
  6.6965418e-03
 -5.9263867e-01
 -6.1230981e-03
 -4.8681530e-03
  5.2900766e-03
  2.2911919e-02
  6.6146028e-01
  5.4840643e-02
  6.0547209e-01
  1.8321997e-01
  6.9735982e-02
 -8.8564056e-01
  1.1767365e+00
 -1.7780889e+00
  1.6624993e+00
 -4.2784385e-02
  5.8225337e-03
  2.7309779e-02
 -3.5759695e-02
  7.2983134e-04
  1.9431170e-02
  1.7549706e-01
  1.9028034e+00
  3.1301302e-03
 -1.0487065e-01
  1.8779362e-02
 -5.3433883e-01
  3.8355510e-04
 -5.0588924e-01
 -3.6416221e-01
 -5.2838898e-01
  2.5009683e-03
  5.4842478e-01
  5.4414492e+00
  1.6174776e-02
 -3.9950049e-01
  1.0682277e-01
 -1.1992244e-02
 -1.2195611e-01
 -2.1289410e-02
 -2.2103464e-02
  3.4316532e-02
  2.1557869e-02
 -2.9587048e-01
 -2.1132045e+00
  2.8312349e-01
 -3.8051721e-01
  1.4679669e-03
 -1.6438971e-01
  3.2720804e-01
  1.3620107e-03
  2.8196162e-02
 -4.4721728e-03
  1.7275639e-03
  1.2155133e-02
 -2.8099105e-01
  1.7055515e-02
 -1.1276443e-02
 -1.2074631e-02
  1.9768053e-01
 -1.7663107e+00
 -1.7092438e+00
  1.1929970e+00
 -5.2902508e-01
 -1.1749158e+00
 -6.2937841e-02
  5.5646653e+00
  1.6590114e+00
 -1.8421637e-01
 -1.7331103e+00
  4.9379339e+00
 -1.9616936e+00
  1.9545732e+00
 -2.5750318e+00
  2.7128232e+00
  1.8168631e+00
 -2.2044318e+00
 -2.3443437e+00
 -5.5843606e+00
  1.7793059e+00
 -4.2978506e+00
 -3.3053124e-01
  7.1087611e-01
 -1.6952707e+00
  1.1355880e+00
 -4.1420517e+00
  7.0394760e-01
  2.6127827e+00
  6.5821052e-01
 -5.9912962e-01
  2.6496077e+00
 -4.1782856e+00
  1.6799499e+00
 -3.1087713e+00
 -1.5379778e+00
  4.5902106e-01
  1.6857702e+00
 -4.6349132e-01
  7.1975904e+00
 -1.6537408e+00
 -6.2594664e-01
 -2.2274375e+00
  1.5705098e+00
 -5.1948166e-01
 -3.1068246e+00
  2.4877579e+00
  1.7377893e+00
  2.0879643e+00
 -3.1672254e+00
  2.0559964e-01
 -1.8158507e-01
  4.5745125e+00
 -6.3822782e-01
  6.3331318e-01
 -2.3001635e+00
  2.6614749e-01
  1.0541214e-01
 -1.3160471e-02
 -2.7216992e+00
  3.1243455e-01
 -9.2732304e-01
  1.7049912e-01
 -7.2837073e-01
  1.0874813e+00
 -8.7464795e-02
  1.0272434e-01
  2.9655194e+00
  2.6138670e+00
  1.2698532e+00
 -1.6294734e+00
  4.1454296e+00
  4.3372273e-01
  1.5725462e-02
  5.6259131e-01
  9.1378212e-01
  4.8480825e+00
 -3.0712107e-01
 -1.0557997e+00
  4.9227700e-01
 -1.8750298e+00
 -6.7593195e-02
 -1.3958669e-01
 -5.2812111e-01
  4.5761080e+00
  1.4231740e-01
 -4.4284068e-02
 -5.3157151e-01
 -5.2388030e-01
  1.2128839e-01
  7.4824083e-01
 -1.9098850e+00
  3.4031802e-01
 -9.4073886e-01
  2.8805369e-01
  2.4518960e+00
 -5.4834890e-01
 -2.0116255e-02
  1.6640352e+00
  1.1548589e+00
 -5.2514668e-03
 -1.5165206e-04
  4.2296280e-03
  9.0560783e-03
  2.5157437e-02
 -8.3010644e-03
  2.1698291e-03
 -3.3921548e-03
  1.1494497e-03
  4.9212715e-03
  3.9324234e-03
 -8.8442452e-03
 -1.3255137e-01
 -1.4822077e-03
  2.1002002e-03
 -8.6264766e-04
  1.5403141e-03
 -9.2254272e-03
 -8.1089418e-03
  3.0114147e-04
 -2.0754936e-03
  2.4522929e+00
  4.0606172e-03
  1.2854993e-04
  9.1610178e-03
  8.7976484e-03
  6.8537132e-03
 -4.3474864e-03
  6.8490342e-03
 -3.2116000e-03
  1.0558163e-02
 -8.6484170e-03
  5.1967931e-01
  7.2366727e-04
  4.4004046e-03
 -1.4124935e-03
 -5.6820083e-03
  1.6170477e-02
  6.3497352e-04
  5.5172015e-04
 -5.2929879e-03
 -5.9421319e-03
 -4.3851947e-03
  6.1158864e-03
  7.9991561e-01
 -4.5696055e-03
  8.4229223e-03
  4.0698086e-04
 -6.7495368e-03
 -3.2143106e-03
 -4.2817062e-03
 -5.9342952e-03
  7.1974071e-03
 -1.5131047e-03
  2.7775863e-01
 -1.6317616e+00
 -2.1143138e-02
 -1.7548411e-01
  8.1159389e-01
 -3.1312415e-01
 -2.9192519e-01
 -5.8188438e-01
 -2.0328677e-01
 -4.1497484e-02
  7.5594276e-02
 -1.1594579e+00
 -4.0139052e-01
 -1.7017309e-01
 -2.9649072e+00
  7.2753775e-01
 -2.2406576e+00
  4.2994556e-01
 -3.2698190e-01
 -2.5029658e-04
  1.0587351e-01
 -3.9165446e-01
 -8.8329584e-04
 -6.8839961e-01
 -7.6319242e-01
 -2.9494030e+00
  1.1110030e+00
  2.7479848e-01
 -5.1848018e-01
  1.0713648e+00
  1.4144105e+00
 -6.8047923e-01
 -5.9856611e-01
  1.7970500e+00
 -3.6642442e+00
  5.8421052e-01
  2.0172300e+00
  4.1863987e-01
  3.5296792e-01
 -1.5387367e+00
  2.3918867e-02
 -4.8053408e-01
 -2.2969045e-01
  6.0268950e-02
 -8.1913561e-02
 -4.4962552e-01
  3.0324096e-03
  1.8702441e+00
 -4.5040274e+00
 -5.1471032e-03
 -4.4108361e-01
  1.8121068e-04
 -8.2140332e-03
 -6.5363606e-04
 -2.4645392e-02
 -2.9087639e-03
  7.9802878e-04
  1.3649849e-03
  9.0669018e-01
  7.9555903e-05
 -2.2500979e-03
 -1.6685395e-04
  1.7742997e-02
 -3.0180607e-03
  3.6813086e-04
 -1.0717229e-02
 -1.7232489e-02
  4.8497524e-03
  2.2018710e-02
 -9.3242042e-03
 -1.9981579e-03
  2.6957612e-03
  1.4254196e-02
 -2.6139526e-03
 -3.5116775e-04
  1.1261852e-02
  2.9076494e-03
  4.9138125e-03
 -4.8106243e-03
 -7.0443917e-03
  6.0077175e-05
  7.1806097e-01
  2.1895576e+00
  3.9635366e-03
 -6.9045690e-03
  2.5427314e-03
  1.1882427e-01
  9.5863454e-02
 -3.2223742e-03
 -5.3753927e-03
 -6.3419784e-04
 -9.7366488e-03
  1.2006459e-03
  2.3325849e-03
 -5.2357279e-04
 -1.1542785e-03
  1.6342130e-02
 -4.1248957e-03
 -6.6907303e-03
  6.6788900e-03
  2.1102348e-02
  2.1833230e-03
 -3.6639068e-02
 -2.2771633e-03
 -2.5882637e-03
  1.6719095e-02
 -1.2365755e-02
 -6.8459013e-03
  5.8808184e-01
 -2.7432045e-02
 -8.5458410e-01
 -8.7531343e-02
  8.9683658e-01
  4.6047509e-01
 -1.6536927e+00
 -3.0783236e-01
  2.3545069e-01
  6.8909729e-01
 -2.5449858e+00
  1.1184313e+00
  1.4315243e-01
 -4.6095893e-01
  1.6822612e-01
  1.1490744e+00
 -4.7879928e-01
 -3.1660822e-01
 -1.0913291e+00
 -9.7929740e-01
 -1.4813132e+00
 -1.0188807e-01
  5.5294328e+00
  4.8836008e-01
 -4.1008157e-01
  2.2323911e+00
  1.8413965e+00
  1.6679230e+00
 -4.7854701e-01
 -1.3764291e+00
  2.4522672e+00
 -4.1245251e+00
 -3.8580897e+00
  3.5449607e+00
  2.3750129e-01
 -1.5836974e+00
 -4.2253027e+00
 -6.0597777e-01
 -9.3100421e-02
 -9.9481827e-01
  2.0781887e+00
  1.1267068e+00
 -4.5356460e+00
  4.8614511e-01
  3.6724136e+00
  5.1448154e-01
 -1.8260214e-02
 -9.2849964e-01
  6.2874323e-01
  1.1090755e-02
 -1.2045203e+00
 -1.0215525e-02
  1.9740623e+00
  2.5012944e+00
 -1.9867992e-01
  1.0280675e+00
  2.0546243e+00
  2.6024961e-01
  8.8696712e-01
  1.0349957e+00
  5.2343726e-01
 -2.1915178e-01
  6.7674220e-01
 -1.2792149e-03
  5.7361495e-01
  2.7112219e-01
  5.1296841e-02
  1.9153519e-02
  4.5746069e+00
 -1.7271969e+00
  6.2064350e-01
 -1.3084437e-01
  7.8484029e-01
 -2.2169092e+00
 -4.8960301e-01
  4.7124833e-02
  1.5732325e+00
 -5.8390635e-01
  1.6392930e+00
  4.3061070e+00
 -4.0160761e+00
  1.1117885e+00
 -4.8174042e-02
 -1.4965992e+00
 -9.2444885e-01
 -1.5305670e-01
  2.1135929e+00
 -1.9055959e+00
  1.0903364e+00
 -2.1579430e+00
 -1.5357369e+00
  2.6478899e+00
 -5.7711387e-01
  5.5159241e-01
  1.4083369e+00
 -2.3931844e+00
  2.9450735e-01
 -5.5925665e+00
  2.1748643e+00
  1.7644774e+00
 -9.4392949e-01
 -3.5248919e+00
  5.9092426e+00
  7.1521521e-01
  2.3206542e+00
 -6.6981670e-03
 -2.0208096e-03
 -5.8463910e-03
  6.1766874e-02
 -1.6808908e+00
  6.6738850e-01
 -2.0652902e+00
  2.9161158e+00
 -7.0973492e-01
  3.4229705e-01
  1.0518112e-01
 -3.8641324e+00
 -1.0496919e+00
  2.8229485e+00
  1.4520542e-01
 -4.5796852e+00
  1.9452317e-01
 -3.7738478e-01
 -3.9469916e-01
 -1.5116341e+00
  1.6956329e+00
  4.5505980e-01
 -3.2634589e-01
 -1.9531274e+00
 -3.4463525e-01
 -9.5801073e-01
  5.4618497e+00
 -6.0618460e-01
  5.2794702e-02
  5.4750795e-04
 -1.8072253e+00
 -1.3969921e+00
 -3.1790502e+00
 -1.6916627e+00
  3.1199062e+00
  3.2981420e+00
  4.6208060e-01
  2.9321197e-01
 -3.2809770e-01
  1.0522077e+00
  7.1003199e-01
  4.4443045e+00
  2.9646518e+00
 -3.0948141e-01
 -1.9510098e-01
 -7.3634583e-01
 -3.1512120e+00
  4.0481817e-03
  1.3501159e+01
 -4.7171414e-03
  2.9201725e-01
 -1.4533037e-01
 -5.8399867e-03
  4.6765346e-02
 -2.7323563e-03
  8.8101057e-03
 -8.4873922e-02
  1.4022219e-03
 -3.4494027e-03
 -1.8377008e-03
 -2.9529416e-04
  6.4966780e-01
  2.0442102e-03
  4.2013330e-03
 -1.4163336e-02
  1.0286927e-02
 -2.7469883e-03
 -4.3509156e-03
  3.5977068e-03
  2.1727129e-03
  2.7520161e-03
 -5.5992126e-04
 -1.0981336e-02
  3.8750525e-04
  1.2981912e-02
  1.0960924e-02
 -5.1207063e-03
  1.7887155e-02
  3.3413962e-02
  1.2049058e-03
  5.1509729e-03
  2.4730939e-04
 -2.3159278e-03
 -4.0989146e-03
  2.0528695e-02
  1.0885612e+00
 -1.1257487e-03
 -5.4115881e-06
 -1.1898235e-03
  1.0330958e+00
  3.0771222e-02
  1.3897181e-03
  5.4816986e-03
 -1.5400067e-03
 -7.7972497e-04
  5.6123496e-03
  6.8994989e-03
  2.6267024e-03
  3.1390302e-02
  9.9289548e-03
 -9.7857863e-03
 -1.5797850e-04
 -3.2499002e-03
  8.0576930e-03
 -4.7134787e-02
  2.6266281e-02
  8.2086591e-04
  3.6540958e-03
 -2.9464650e-03
 -4.0765226e-02
 -1.5605881e-03
  2.6956522e-01
 -2.0113790e+00
  1.8724234e-01
 -8.8539384e-02
  1.4944642e+00
 -1.2905988e+00
 -8.4852481e-01
  3.0232456e-01
  4.7014865e-01
  2.3871274e+00
 -6.6236310e-02
 -3.6251053e-01
  2.1640253e-01
  9.8386508e-01
  2.1915195e+00
 -8.0670077e-01
  3.5412178e+00
 -8.8511097e-01
  1.9261143e+00
 -2.9014027e+00
 -2.1574831e+00
  4.0050969e+00
 -1.1149563e+00
  3.0701177e+00
  4.8224983e+00
 -4.3473716e+00
 -3.4351492e+00
  9.0639311e-01
 -1.3162761e+00
  1.2074714e+00
 -9.0949386e-01
 -9.1983396e-01
  3.0233160e-01
 -7.7758008e-01
  8.0858558e-01
  1.7774973e+00
 -4.2398766e-01
 -1.5073853e+00
 -1.1203650e+00
  3.8854966e+00
  5.7840936e-02
  1.6229345e+00
  1.2878785e+00
 -3.1826198e+00
  1.6966910e+00
 -8.5605450e+00
 -3.9891717e+00
 -3.1167037e+00
  1.0088352e-02
  2.4906997e-01
  3.7659454e+00
  1.3839911e+00
  4.5472693e+00
  8.8567066e+00
  3.7333560e-01
 -2.8755202e+00
  2.7760668e+00
  2.3691816e+00
  1.4261098e+00
  1.1953471e-02
  1.3430470e+00
 -7.1929455e+00
 -6.5850892e+00
 -2.3622997e+00
 -3.4278703e+00
 -2.6748037e+00
 -7.5963125e+00
  2.4111214e+00
 -4.7322094e-01
 -2.3238251e+00
  2.2827601e-04
 -5.6808311e-03
  2.2441158e+00
 -1.1117389e-01
  5.0507407e+00
  1.5897192e-01
  7.9811668e-01
  1.9635620e+00
  6.5404871e-03
  5.6352257e-03
  2.0286343e+00
  1.6110227e+00
  6.2811136e-01
 -8.6209589e-01
  1.2862875e+00
  1.5800217e+00
 -2.2123861e+00
 -4.8388425e-01
 -3.2241412e-02
 -7.1634850e-03
  8.5688601e+00
  1.6861209e-01
 -1.6563171e+00
  3.9261868e+00
 -1.0913414e+00
  8.4081101e-01
  1.8782996e-02
  2.8004805e-02
  1.0087323e+00
 -1.0228870e-01
  2.4848492e-03
 -3.5494349e-03
 -3.0593045e-02
 -1.6563308e-03
 -2.5279615e-03
  4.1685151e-03
  4.5883274e+00
  1.3404875e-03
  3.9878665e-03
  1.3592253e-02
  1.9806186e-03
 -2.9576465e-03
  1.6347004e-01
 -2.3290208e-03
  3.0864207e-03
  2.7470393e-03
  1.4110196e-02
  3.8265039e-03
 -2.3838230e-03
 -3.2616165e-04
  1.1239928e-02
 -7.7862870e-03
 -1.2622431e-02
 -6.8538599e-03
  9.6887269e-04
 -6.5206522e-03
  1.8463358e-02
 -1.1575200e-02
 -3.2785942e-03
  9.8074619e-03
 -1.2902535e-02
 -3.6809708e-03
 -1.0887979e-02
  1.9857131e-03
 -1.1140920e-03
  1.2775650e-02
 -2.4461201e-03
  1.6828340e-02
  1.0124819e-02
  1.0762343e-02
  8.3091044e-01
 -5.7280259e-03
  7.3111122e-03
  3.9585866e-03
 -3.6828844e-03
 -9.5703332e-03
  2.5896023e-03
  2.2349018e-04
  6.6776271e-03
  6.3389959e-03
  1.3068520e-03
  2.8742568e-03
 -1.0708334e-02
  7.1767438e-03
  4.0512579e-03
 -2.0498600e-02
 -2.1974416e-02
 -1.1765876e-02
  1.0299159e-03
 -4.9725454e-03
  6.6209398e-03
  1.0645157e-03
  3.8745478e-03
 -3.0559979e-02
  2.2444131e-03
 -2.0297324e-02
  1.2274743e-03
  8.1329448e-03
 -5.7290904e-03
  3.0843206e-04
 -6.5505862e-02
  3.0660077e-03
  3.9323973e-03
  6.7737559e-03
  7.0480411e-03
 -2.3053321e-03
 -2.7733878e-03
  1.8781720e-03
 -1.7365781e-03
 -3.4570415e-03
  3.7190150e-03
 -2.9121835e-03
 -2.7466798e-02
 -1.1115147e+00
  2.0005977e-02
 -1.3386875e-02
  1.5126908e-02
 -2.5117814e-03
  1.0116210e-03
 -3.3803165e-03
 -1.5611857e-02
 -7.9354830e-03
 -2.1957848e-04
 -2.4513422e-02
 -1.2719132e-01
 -5.3343312e-03
 -9.2266290e-04
 -5.6975908e-03
 -6.5788347e-03
  1.6526103e-02
 -2.8494049e-03
  2.2150732e-03
  4.1988976e-03
 -2.3355733e-03
  1.2293308e-02
 -3.1517250e-03
 -1.8481766e-03
  1.5741657e-02
 -1.4508743e-03
  1.3622835e-03
  1.7202841e-03
 -1.4875467e-04
  1.1841394e-02
  4.9421284e-03
  1.1101387e-02
 -1.0217573e-02
 -2.4014366e+00
 -8.7875925e-02
 -8.9547849e-01
 -1.5396473e+00
 -2.1019061e+00
  5.3391361e-01
  1.0572118e+00
  2.5155585e+00
 -5.2859364e+00
  4.2423663e+00
 -2.3270588e+00
 -4.6549935e+00
  9.7359681e-01
  7.9499055e-03
 -4.3141541e+00
  3.1196966e+00
  2.1979711e+00
 -4.3775983e+00
 -1.9531940e+00
  2.4153490e+00
  2.0835361e+00
 -4.6220446e+00
  8.0768356e+00
  9.0752850e+00
  1.3117009e+00
 -1.6971470e+00
 -1.4213459e+01
  1.4827776e+00
  3.1537776e+00
  2.2773883e+00
 -7.2279954e+00
  4.3974385e+00
  1.6519932e+00
 -7.2214913e+00
 -1.6551008e+00
 -5.0235028e+00
  2.0687089e+00
  6.4865637e-01
  2.9910076e+00
 -2.2453599e+00
  2.7249324e+00
 -5.9692150e-01
 -3.3089156e+00
  4.9445968e+00
 -1.6557007e+00
 -2.5276978e+00
  1.6353637e+00
 -8.1777582e+00
  7.8662720e+00
 -9.9093616e-01
 -1.9641861e+00
 -1.2520106e-02
 -5.6206062e-03
  1.2964379e+00
 -2.2850638e-02
  5.8879601e-03
  1.2461887e-03
  8.4721454e-04
  6.4519973e-04
  2.8854900e-04
  1.3294369e-02
 -4.4513377e-03
  6.1637764e-03
 -9.0090772e-03
  7.4977954e-03
 -1.5863407e-04
  7.5517604e-03
 -7.3485081e-03
  1.8449698e-02
 -2.5821023e-03
  5.8834055e-03
  2.1078555e-02
  4.0881536e-03
 -5.6197832e-04
  7.0206951e-03
 -1.0405770e-03
  2.5791625e-02
 -2.5051699e-03
  2.4855584e-03
  2.9674338e-03
  6.0752680e-04
 -3.6699122e-03
  1.7118413e-02
 -1.9172251e-03
 -3.2737127e-03
  8.6846221e-03
  1.1331544e+00
  1.2879203e-02
  9.6172336e-03
  3.1277305e-03
  1.7341375e-02
 -4.2317866e-04
  2.1241181e-02
  3.3717267e-03
 -1.2319291e-03
  4.6877977e-03
 -1.4485548e-02
 -3.1986870e-03
  2.0102974e-02
 -1.5794073e-04
 -1.8692745e-03
  5.5860868e-03
  3.6990221e-03
 -7.8063281e-03
  1.6640233e-03
  8.8598179e-03
  5.7136064e-04
 -1.4650440e-02
  1.4225903e+00
 -4.5500422e+00
  3.8277712e-01
 -1.2644387e+00
  1.8276694e+00
  2.0292490e+00
  3.4206057e-01
 -2.2835371e+00
 -2.6368845e+00
  4.1257817e-01
  1.3344641e+00
  1.0030637e+00
 -1.4047668e+00
  1.5463470e-01
 -1.5765475e+00
  1.0935434e+00
  3.7580501e-02
  1.2605162e+00
  5.6123424e+00
  1.4180881e+00
 -4.0707278e+00
 -2.0180893e+00
  2.7266843e+00
  1.7383771e+00
  2.2543700e+00
 -1.0804945e+00
 -1.4138615e+00
  2.9067659e+00
 -6.3599706e-01
  1.6296782e+00
 -1.5866965e-01
 -3.6079845e+00
  4.1731973e+00
 -2.4037139e+00
  2.4104679e+00
 -3.8180764e+00
  2.7082975e+00
 -2.5255316e-01
  8.4919345e-01
  1.3638109e+00
 -3.5334935e+00
 -2.9920340e+00
  1.2299755e+00
 -9.4633751e+00
 -7.4178600e-01
 -4.3046613e+00
 -1.6349057e-02
  2.8314745e-02
 -1.6222608e+00
 -4.3880141e-01
  4.2713991e-01
 -5.9891307e-01
 -1.2227517e+00
  7.1073985e-01
  2.2197995e-01
 -1.1271289e-01
 -1.2175893e-01
 -6.4015281e-01
  3.6535576e-01
 -7.2544712e-01
  2.0017423e-01
 -9.7528823e-02
 -5.5555444e+00
 -5.9169221e-01
 -1.9149151e-02
  1.5176601e+00
 -1.5880127e-01
 -2.1823156e+00
 -1.3025719e+00
  3.0688457e-02
 -2.5637608e-02
 -6.5184355e-02
 -1.4332420e+00
  1.8129401e-01
  1.9076154e-02
 -3.1355184e-02
  5.3600505e-02
 -1.0288279e-02
 -7.8769493e-01
 -1.1293133e+00
  3.4412447e-01
  7.4816692e-01
  6.5582955e-01
 -3.7826270e-02
  2.3379469e+00
 -1.0088214e-01
  7.9774491e-02
  6.4960605e-01
 -1.3335899e-02
 -4.2018164e-03
  5.0601554e-01
  5.0301016e-03
  1.2840018e-02
  7.2134249e-03
 -2.1319407e-01
 -1.7197872e+00
  1.4352656e-03
  1.3255010e-03
  5.0201409e-02
  3.2818065e+00
 -2.3358301e-03
  7.8843659e-01
  7.6665342e-01
  1.6958456e-03
 -9.9253291e-03
  2.1822540e-02
 -1.7405732e-04
  1.5149053e-02
  2.0459173e-03
 -6.2334989e-03
 -9.2584360e-03
  1.2716658e-03
  1.3905261e-01
 -1.6501959e-02
  1.9307816e-02
 -1.5435496e-03
  1.0768452e-03
  1.7204866e-02
  1.2414137e-02
  1.6464993e-02
  2.6144767e-03
 -4.7633359e-03
 -5.3755182e-04
  9.4865437e-04
  2.4971734e-03
 -5.8565778e-03
  4.3560285e-03
 -4.3898220e-03
  3.6361925e-03
  1.3118726e-02
  5.1462161e-03
  1.1424959e-02
  5.5734953e-03
 -1.3921242e-03
  2.0885146e-03
 -1.2582808e-04
 -5.0898059e-03
  8.5631376e-03
 -1.1320912e-03
  3.2399915e-02
  2.7104074e-01
  6.8796342e-03
  1.4743652e-03
 -1.9398203e-02
 -7.3376098e-03
  9.6912187e-01
  1.8967122e-02
  6.9878250e-03
 -2.3030420e-03
  4.0448071e-03
 -3.7970063e-03
 -1.5690662e-03
 -4.1786074e-03
  6.6944561e-03
 -3.3166339e-03
  1.4945726e-02
  4.7321338e-03
  1.0953318e-02
  5.8095963e-03
 -1.3074996e-03
 -2.0653205e-02
  5.8254129e-03
  1.6095461e-02
  3.8871733e-03
 -9.2886221e-03
  4.2418512e-03
  5.3760105e-01
  2.3175559e+00
  2.9014516e-01
 -1.5455748e-02
  3.3995420e-02
 -2.5785735e-03
 -9.7742965e-03
  1.9581087e-02
 -2.5255969e-03
  3.4986809e-03
 -4.9704080e-03
  4.0577403e-03
 -3.0472184e-02
  5.6621549e-03
 -3.3829727e-03
 -2.5546059e-02
 -1.1111271e-02
 -4.4365334e-03
 -2.6324183e-01
  1.4332684e-03
  1.1773797e-02
 -8.3358167e-04
 -4.1298208e+00
 -1.1579707e-02
  1.5112641e-01
  5.2249590e-03
  6.9664461e-03
  8.1323106e-03
  2.8624484e-01
  2.0731501e-03
 -1.2203101e-02
 -7.1575660e-03
  5.3501837e-03
 -8.8570867e-04
 -7.8808367e-03
  2.6299783e-03
 -4.9265423e-03
 -1.4486462e-03
 -3.4338692e-03
  8.2976492e-03
 -1.3334835e-03
  5.9251918e-04
  2.4671629e-03
 -1.8068436e-03
 -7.2524310e-03
 -3.4397328e-03
  2.2238279e-03
  9.2671998e-03
 -6.8768337e-03
 -1.0603784e-03
 -5.9255436e-03
  3.5649016e-03
 -7.0574298e-04
 -4.0565329e-03
 -1.8214113e-01
  2.2429079e-03
  1.2479868e-03
  1.2389099e-02
  1.7258782e-03
 -1.2464380e-03
 -5.0129155e-03
  3.8885642e-03
  5.5548856e-03
  3.3186430e-03
  1.4016828e-02
 -5.0894171e-03
  2.1193118e-03
  1.5498621e-03
  6.2457490e-04
 -1.5639579e-01
  3.4425063e-03
 -5.4727909e-03
 -3.6356666e-03
  6.7364983e-03
 -9.2086401e-03
 -6.4745680e-03
 -2.8348644e-03
 -2.1047425e-03
 -5.8888067e-02
 -5.7648988e-03
  1.9539047e-02
 -2.9218279e-02
 -7.7512658e-01
 -1.1055032e-02
 -3.0426953e-03
  7.3512425e-03
  2.9561704e-03
  2.2249497e-03
 -1.4552327e-02
 -1.4016654e-02
  4.8338152e-03
  4.3418342e-03
  1.5037691e-02
  4.9026767e-03
 -2.4218503e-03
  1.0594906e-02
  1.2250984e-02
 -7.6226150e-03
  3.0518998e-04
  2.5248740e+00
 -9.4402894e-05
 -5.7295780e-05
 -1.3658342e-02
 -2.6431095e-03
 -1.7393990e+00
  5.5252397e-01
 -2.4631579e+00
 -1.4230530e+00
  7.3680586e-01
  8.6706805e-01
 -9.3434376e-01
  1.3209687e+01
  2.5805223e-01
 -3.8233346e-01
  4.4651036e+00
 -3.3650866e+00
  1.0295854e+00
 -3.1619665e-01
  3.8683207e+00
  3.2414576e-01
 -3.1644523e-02
  4.7822523e-01
  2.1921597e+00
  2.2889340e+00
 -6.2257540e-01
 -3.5751324e+00
  1.9556799e+00
 -5.1856714e-01
 -1.9342562e+00
 -1.1335877e-03
 -4.2314892e+00
  2.0337615e+00
 -7.3164147e-01
 -4.2745667e+00
  1.3514014e+00
  6.5231462e+00
 -3.7013900e+00
  5.5969939e+00
 -4.8361061e-04
  8.3482780e+00
  3.5951526e+00
 -1.3519504e+00
 -5.2660713e-03
  2.0910800e+00
 -6.3390059e+00
 -2.2569139e+00
 -4.6814592e-03
  4.7916127e-03
 -1.1385059e+00
 -8.5488997e-02
 -1.0268847e-02
 -6.4547099e-03
 -1.6632276e-02
  3.1330378e-03
  2.6940398e+00
 -4.0377853e-03
  1.7161774e-03
 -3.1654523e-03
  7.8244781e-01
 -3.6302204e+00
  2.1918520e-01
  6.3279472e-02
  1.7825989e+00
 -5.3413630e+00
 -9.8771495e-01
  3.2098114e+00
 -1.4378569e+00
 -2.5207741e+00
  1.1827306e-01
 -5.0294834e-01
 -2.0194559e+00
  3.3307999e-01
  2.8589287e-01
  7.8117471e+00
 -6.6849846e-01
  5.0633664e+00
 -3.6750982e+00
  1.3524226e+00
  4.4291315e+00
  2.1521696e-03
 -1.1396533e+00
  9.3779331e-01
  5.9245980e-01
 -2.9224193e-01
 -2.6776077e-04
 -4.9580116e+00
 -2.8143907e+00
 -5.6748247e-01
  2.2890379e+00
 -3.0798073e+00
  5.5933344e-01
 -1.0823046e+00
 -3.1788106e+00
  2.8354239e+00
  1.5270153e+00
  3.6565149e+00
 -2.2655001e+00
 -3.8986740e+00
  1.8915536e+00
  1.0801960e+00
  4.8231879e-01
 -2.1343865e+00
 -8.4710616e-01
  6.5621991e+00
  9.8652858e-03
 -2.3403707e+00
 -3.3554845e+00
 -1.2235863e-02
  1.9087674e-02
  3.2754268e-03
 -2.1990249e-03
 -4.6560239e-02
  1.0729340e-02
  5.6782584e-03
 -1.3907485e-02
  2.9415942e-03
  7.8996867e-03
 -3.7606120e+00
 -5.2674375e-03
  5.4395762e-03
 -1.1168331e-03
 -8.5931015e-04
  1.5177629e-03
 -2.9619895e-02
  1.3812955e-02
  4.6026404e-03
  1.2437489e-03
  4.2768237e-03
 -5.6923092e-03
  5.1530926e-03
 -1.0834429e-03
  1.5620941e-03
  1.9918779e-02
 -3.6130394e-03
 -6.2819361e-03
 -6.0063978e-03
  6.4010997e-03
 -1.1303003e-04
 -6.8224021e-03
 -1.2131317e-02
  1.9929904e-02
  1.3146113e-02
  1.6266736e-03
  2.7985447e-03
  1.3080444e+00
  2.4843819e-02
  4.8700132e-04
  1.2296407e-02
  3.4065761e-02
  3.6287466e-03
  5.5325930e-03
  1.0799407e-02
  1.0127795e-03
 -8.5247809e-04
  7.9227181e-04
 -1.6248506e-03
 -3.6061637e-03
  3.8136034e-03
 -2.4352502e-03
  4.1843634e-03
  1.4938314e-02
  6.3154497e-04
 -6.1100144e-03
  1.3483220e-02
  2.8100342e-02
 -1.1050466e-02
  3.0453193e-01
 -1.0526391e-01
 -7.1450239e-01
  6.2461275e-01
  2.7188234e+00
 -9.8534960e-01
 -1.3727536e+00
  6.7330101e-03
 -3.1406302e+00
  2.2543890e-02
  2.4001374e+00
  9.5912986e-02
 -2.4339495e+00
  2.0788199e-01
  2.6818168e+00
  1.8866915e+00
  7.8760153e-01
 -5.5446297e-01
  3.9786953e-02
 -2.3880687e+00
 -6.1541214e+00
 -9.4950283e-01
 -1.3129101e+00
  6.4813417e-01
  1.2037537e+00
  4.9553728e+00
 -2.6724473e-02
 -3.1548033e+00
 -2.0880711e+00
 -5.8660568e-03
  3.9068165e+00
  6.6075735e+00
  2.0369487e+00
 -4.1079183e+00
  1.4657018e+00
  5.8253533e-01
  2.9934452e+00
 -1.4485964e-01
 -1.2279311e+00
 -1.5339515e+00
  5.5699735e-03
 -1.7478507e+00
  2.3362358e+00
 -8.8807684e-01
 -2.7349532e-01
 -2.1592808e+00
  1.1186582e+00
  1.8000634e+00
 -1.4816758e-01
  1.4199440e-03
  6.7999649e-01
  2.9680504e-02
 -7.7736331e-05
 -1.9083874e-01
 -2.9163018e-01
 -1.1320310e+00
  3.2577713e+00
  8.9684248e-01
  3.8528502e+00
  2.4835427e-01
 -5.3732866e-01
 -3.9897845e+00
  5.7245007e+00
  1.4222667e+00
  1.4525981e+00
 -1.8644453e+00
  3.0692117e+00
 -1.9209843e+00
 -7.1807461e+00
  1.9151706e+00
 -1.3039012e+00
 -1.0654551e+00
  2.7443776e+00
  1.0343356e+00
 -5.0188184e+00
  1.9073075e-01
 -1.8308233e+00
 -3.4032912e+00
 -1.2545329e+00
 -6.8609605e+00
 -1.4740294e-03
 -3.8771063e-01
 -2.3561471e+00
  2.5642729e-01
 -7.5899920e+00
 -3.1439736e+00
  2.6714995e+00
 -8.0151072e+00
  2.5683911e+00
  1.2730400e-01
  3.5273201e+00
 -1.0061398e+00
  8.2325622e-02
 -1.0210466e+00
 -1.3930374e-01
  1.8241854e+00
 -1.6310335e+00
 -7.9317790e-01
 -2.2375987e-01
  3.0405467e+00
  2.4786042e-02
  4.2248168e+00
  2.4989572e+00
 -1.1912917e-01
  8.3957338e-01
  4.4670817e-03
 -2.6260366e+00
 -7.8639084e-01
 -6.4334432e-03
  1.0578791e-02
 -1.0482011e-02
  6.3314405e-03
  2.9255414e-01
  8.8064175e-04
  4.0216755e-02
 -1.8575722e-01
  3.5649204e-01
  1.2386337e-04
 -3.1112216e-03
  3.1140303e-02
  2.9630620e-02
  1.2056001e-02
  5.1192683e-04
  1.3257802e-02
  3.9193174e-03
  8.1530083e-03
  7.7238651e-03
  1.6008748e-02
  2.3224426e-02
  1.5992103e-02
  8.7688463e-03
  2.3541918e-02
 -5.4612826e-04
  1.9304818e-02
 -1.7673884e-02
  9.4514191e-03
  4.9772489e-01
  1.6499351e-04
  1.1199638e-02
  6.8514460e-01
 -1.0819844e-01
  1.3682081e-01
 -2.8747257e-03
  4.9087247e-03
 -5.8062775e-03
 -1.2629787e-02
  2.1740908e-02
 -4.5991861e-03
 -1.2220627e-03
  1.1007152e-02
  1.3433151e-03
  2.3065597e-02
  2.3387405e-03
  6.3337567e-03
 -1.0687956e-02
  1.2592485e-02
  3.1628371e-03
 -2.0695124e-03
  8.4500844e-03
 -5.5359735e-04
  1.0285911e-03
  1.2280014e-03
  2.1949747e+00
 -1.6417620e+00
  2.3689971e+00
  4.7299466e-01
 -4.2079577e+00
 -1.9765211e+00
  8.5679245e-01
  7.1265465e-01
  3.4595852e+00
  1.0163332e+00
  4.7757766e-01
 -2.1280794e-01
 -3.2669396e+00
 -2.8715137e-01
 -1.3202244e+00
 -1.1200995e+00
  4.2975717e+00
 -2.9973218e+00
  3.5665655e+00
  9.4916932e-02
 -2.9716446e+00
  1.1960752e+00
 -1.7215972e+00
  2.9308083e+00
  2.8179523e-02
  2.8655776e-01
  1.3989981e+00
  1.9629211e+00
 -1.6067210e+00
 -4.1905065e+00
  6.2818378e-01
  1.8529490e+00
  3.5703878e+00
  2.1032088e+00
  3.2237275e+00
 -4.1075797e+00
 -6.3081288e+00
 -6.1632013e-01
  1.2290472e+00
  3.0835500e-02
  9.3399048e-01
  2.0116932e+00
 -4.0726685e-03
  8.6986941e-01
 -1.2487854e+00
  8.9707357e-01
 -3.5956442e-01
  6.7205149e-01
  2.1454668e+00
 -4.7136303e-03
  7.9490578e-01
  8.8301208e-03
  2.6375293e-03
  6.0871285e-03
 -9.4444659e-03
 -8.4928628e-03
  4.0619895e-03
  1.9791293e-01
  3.3742258e-01
  9.4222249e-03
 -6.1990600e-02
  6.5020155e-03
 -2.4746088e-02
 -3.7151787e-03
 -4.3575512e-03
 -7.9425558e-04
 -3.0754127e-02
 -3.3788817e-04
 -9.3506277e-03
  2.8713627e+00
  1.2353203e-03
  6.6274812e-04
 -2.1453315e-02
 -1.2357760e-02
  9.5264558e-03
  6.1134160e-03
 -1.4561696e-03
 -4.8851070e-05
  1.6850336e-02
  1.7251344e-02
 -1.7374497e-02
  1.1707625e+00
 -6.7023449e-03
 -1.4809620e-02
 -7.5916917e-04
 -5.2557816e-03
 -2.3641169e-02
  6.5888329e-03
 -2.5954228e-03
 -2.1346451e-03
  1.5822589e-02
  1.4753605e-04
  5.8882032e-03
 -9.6083088e-03
 -2.6937284e-02
 -6.0528396e-03
 -9.1635687e-03
 -2.8111776e-02
  2.2146567e-03
  7.6095806e-03
  1.1391413e-02
 -6.8934807e-03
  1.4176997e-02
 -5.2903257e-03
  2.1405614e-03
  1.7308664e-02
 -4.9995002e-03
  2.4535547e-03
 -1.5061595e+00
 -1.6633166e-01
 -1.2093236e+00
 -1.5159097e+00
 -1.9632916e+00
  5.4410672e-01
 -1.2772628e+00
 -7.5140719e+00
  2.1437426e+00
  1.4531729e-01
 -2.6210748e-02
 -6.6142905e-01
  1.0021892e+00
 -1.8203841e-01
 -3.7690163e-01
  9.3446200e-04
 -7.0506859e-01
 -6.6770978e-02
 -8.0753207e-01
 -2.1944351e-01
 -1.1907146e-01
 -6.6961354e-01
 -6.4351654e-01
 -1.0259695e+00
 -3.5670327e-03
  5.5084184e-02
  1.6464937e-02
 -3.3267679e+00
 -3.3407670e-01
 -1.8192909e+00
  1.0195402e-01
  2.4116852e+00
  4.1851645e+00
  1.3651967e+00
 -8.2176551e-04
  5.2279395e-01
 -2.9577680e+00
 -4.3042237e-06
 -4.0476966e+00
 -1.2042190e-01
 -6.9680832e-02
  8.5080266e-01
 -2.8935135e-03
  1.3523128e+00
 -7.4300459e-03
  3.9124522e-02
 -2.9888306e-02
  3.1332641e+00
 -3.8070375e-01
 -1.0079983e-02
 -7.2356160e-03
 -1.3383254e-02
  1.3056621e-02
  2.0184720e+00
  4.2504244e+00
 -2.3492775e+00
 -3.5094544e-01
  4.3451562e+00
  7.1719462e-01
  5.3200402e+00
  4.5283027e+00
 -3.6656651e+00
  3.1094034e+00
  2.6605232e+00
  2.4523834e-02
  1.8077115e+00
  1.7513007e-01
  2.0615267e-02
  2.0557175e+00
  4.3769425e-01
  1.4716382e+00
 -1.8588055e-02
  2.1620839e+00
 -1.2295529e+00
  3.1283244e-01
  4.2928162e+00
  8.0540314e-02
 -4.5376163e+00
  4.4950109e+00
  2.5307248e+00
  2.3664371e-03
  4.5209231e+00
 -1.6200054e-01
  2.8468208e+00
  1.7379154e-01
 -6.9724102e+00
 -1.6043480e-01
 -1.1337869e+00
  1.9399840e+00
  3.0318904e+00
 -1.2886088e+01
  1.3283292e+00
 -5.7617337e-01
  6.4775681e+00
 -3.2174530e+00
  1.8441100e-01
  1.4814378e+00
  4.9456015e-01
  4.8483717e-01
  1.0234788e-02
 -6.2305708e-03
 -3.5795288e-03
 -2.8519826e-02
 -6.8146939e-05
 -1.1201842e+00
  1.2110933e-02
  3.7532744e-03
  5.8060477e-04
 -2.4047360e+00
  3.8966858e-01
  1.8891485e+00
 -5.6630582e-01
  6.9411623e-01
 -1.1556612e+00
 -2.3293860e+00
 -5.7669550e-01
 -1.0378747e+00
 -1.2856378e-02
 -7.2732377e-01
  4.6876666e-01
 -4.5525566e-02
  1.5319356e-02
 -2.9347315e+00
  1.0461286e-02
 -3.9983889e-01
  4.1370732e-03
 -1.1837653e-01
 -1.6340673e-01
  3.8924369e-01
 -2.6895735e+00
 -2.3528694e-01
  8.8734441e-02
 -2.5650857e-03
 -1.0959613e+00
  3.4966013e-01
  2.4066983e-01
 -2.0375128e+00
  7.0538759e-01
  5.7576547e+00
 -1.2836523e+00
  8.2215436e-02
 -6.3596135e-01
 -7.1340352e-01
  1.1611036e+00
 -2.6387082e-02
 -2.4705580e-02
 -3.7915438e-01
 -2.2970452e+00
  1.1944287e-01
 -5.1812690e-01
 -2.5778422e-02
  1.6630718e-01
  1.4686742e-03
  4.4887704e-01
 -3.8771721e-04
 -3.0910213e-02
  6.6726410e-01
 -1.8862298e-02
 -6.1041821e-05
 -6.2662257e-05
 -2.6120020e-03
  3.9709532e-03
  2.7479880e-02
 -1.9007492e-03
  6.7715966e-03
 -3.4236375e-03
 -3.0127062e-02
  1.0636657e-03
 -2.9407253e-02
  7.4338913e-03
 -1.4259267e-02
 -2.3407429e-03
  1.2920796e-03
 -2.8191786e-02
 -7.4518789e-03
  9.5179863e-03
 -1.2193780e-03
  5.9342803e-03
  3.2836078e-03
 -8.5307220e-03
 -8.3606970e-03
 -2.1156298e-03
 -1.4746874e-02
 -4.1455897e-03
 -3.1306040e-03
  1.8162839e-03
  8.9012729e-03
 -5.8156662e-03
 -2.3218868e-03
 -6.0705701e-03
 -2.8049435e-02
  1.2580557e-03
  4.0288707e-03
 -4.4540931e-03
 -1.0238495e-01
  2.1029711e-03
 -4.5867506e-04
  1.5108701e-02
  3.0157124e-03
  1.0922143e-02
 -1.9403360e-03
  3.5784361e-03
 -3.5486408e-04
  4.9237921e-03
 -8.1471686e-04
  7.1233795e-03
 -2.4692588e-02
  1.2335236e-02
 -3.6641741e-03
  4.3190792e-03
 -2.2469296e-03
  2.2864880e-03
  9.2343939e-03
 -1.8320011e-02
 -5.8951159e-04
 -9.0031661e-03
 -1.4262503e-03
  1.6553781e-03
  2.4607576e-02
 -6.2627224e-03
 -1.0396640e-01
  2.8489130e-02
 -1.2384111e-03
  1.3001202e-01
 -2.5233794e-02
 -2.5975985e-02
 -5.0836969e-03
  4.2631361e-03
 -3.4040278e-03
 -1.1789657e-02
  3.5879710e-03
  1.5815009e-03
  2.5369609e-03
  8.1353718e-03
 -2.4482438e-02
  7.3321369e-03
 -8.2760665e-04
  3.5788151e-03
  2.1576479e-03
 -5.0463453e-03
  5.2886689e-04
  3.8714251e-03
 -1.0351440e-02
 -3.3016230e-03
 -2.5353625e+00
 -5.5392967e-03
 -2.4486394e-03
 -2.1903174e-02
 -2.6734304e+00
 -1.0252214e-02
 -1.7910292e-02
 -2.8526062e-02
 -1.7485480e+00
 -2.7305093e-03
 -4.6955063e-03
 -2.2135559e-04
  1.9936932e-03
 -4.6509184e-04
 -6.1523514e-03
 -1.3564480e-03
 -1.3678651e+01
 -2.4619219e-03
  6.2092405e-04
  3.7145857e-03
  2.6634941e-03
  2.4963012e-03
  6.4766225e-03
  1.9681279e-03
 -1.0040282e-02
 -5.1074857e-03
 -5.2907788e-03
  8.0328966e-03
  2.5326877e-03
  1.1941220e-03
  1.8477123e-02
  3.7668208e-03
  8.9741049e+00
 -4.6905181e-03
 -7.5201220e-03
 -7.5050481e-03
  4.2339680e-03
 -9.4152801e-03
 -9.8501029e-04
 -1.5460313e-03
  2.3641543e-01
  6.2519652e-03
 -2.5796904e-03
  6.0103573e-03
  3.9902660e-03
 -1.0121104e-02
 -2.6396771e-03
  1.9747566e-02
 -5.6253327e-03
 -1.1992384e-03
 -1.8945906e-03
  3.2945415e-03
 -1.2874728e-02
 -4.6503893e-04
  2.2946875e-01
 -4.0711011e-03
  1.1097065e-02
  4.7072722e-04
  2.6835032e-02
  1.7773110e-02
  1.6904587e-03
  2.9269753e-03
 -8.0810273e-03
  3.4065723e+00
 -4.0249801e-03
  4.1547231e-03
  2.8365761e-02
 -1.5930829e-03
 -6.3909865e-03
 -5.0907726e-03
  1.4633903e-02
  6.6112923e-03
 -2.5294113e-03
 -1.7642691e-03
 -1.1422850e-02
  8.8307504e-03
  5.6243013e-04
  5.7176701e-03
  1.1117536e-03
  6.1909612e-03
 -2.7579693e-03
 -6.6428254e-03
  1.6491949e-03
 -1.4752093e-03
 -9.7563557e-02
  1.4901881e-03
 -2.1883594e-02
  5.1654102e-03
 -1.0592401e-02
 -5.2867159e-03
  3.1216186e-03
 -5.9601315e-04
  9.3827961e-04
 -2.4123496e-04
 -2.6405705e-03
 -3.4184004e-03
 -6.0682027e-03
 -4.1064280e-03
 -5.7499930e-03
 -9.9358167e-03
 -3.7743959e-03
 -6.0690416e-04
 -6.4513618e-03
 -1.0620379e-02
  7.9441443e-04
 -6.1741499e-03
  4.8549904e-05
  1.2143196e-03
 -1.2910828e-03
 -2.1648018e-02
  1.4338648e-02
 -2.8479453e-03
 -8.9720929e-01
  7.4125436e-04
  9.5997155e-03
  4.4641267e-03
  1.1659433e-03
 -1.5086482e-02
 -2.5976513e-04
 -2.7493393e-04
  7.1480284e-03
 -1.8629251e-02
  4.5267893e-03
 -7.1936594e-03
 -2.5327317e-04
  4.0106429e-03
 -1.0109105e-02
 -8.6889608e-04
 -5.3029163e-03
 -1.8042487e-03
  2.1928023e-03
 -7.8310957e-03
  9.7657815e-03
 -3.2897252e-03
  2.6810924e-03
  1.0742337e-04
  2.0970432e-02
 -1.7291976e-02
 -8.0801374e-01
  5.0733425e-03
  3.1203276e-03
  3.4182778e-01
 -6.4585116e-03
 -1.7311446e-02
  4.0738677e-04
  5.9576766e-03
 -1.9418256e+00
  1.9482804e-02
 -1.9743165e-02
  2.0677047e-03
  2.5383817e-02
  9.2425257e-01
 -9.5986519e-03
 -9.2230516e-04
  5.3294115e-03
 -4.8894617e-03
 -2.0497930e-04
  6.8280060e-05
 -1.2887254e-02
  9.6396133e-03
 -4.0582573e-04
  4.8877769e-03
 -3.9624324e-01
  3.4370986e-03
 -3.0578630e-02
  4.4109934e-04
 -5.7819095e+00
  2.0033833e-04
  9.3645239e-03
 -2.3448861e-03
 -1.6182592e-02
 -1.0457131e-03
  3.6430699e-03
 -2.4241244e-04
  5.6779692e-03
  4.2109890e-03
  1.8731089e+00
  8.9144632e-03
 -4.3282536e-04
  2.9574381e-03
 -2.5639805e-05
  1.1509592e-03
 -8.7638563e-03
 -6.4656837e-03
  6.3071316e-03
  7.1203951e-03
  1.2677795e-02
  8.0571966e-03
 -3.2259700e+00
 -7.3977727e-01
 -2.4096701e+00
 -4.3625669e+00
 -6.8307662e+00
  6.1506256e-02
  1.1526017e+00
 -3.8157554e+00
 -2.0022595e+00
  2.0320413e+00
  3.6123570e-02
  2.5808699e+00
 -6.7077547e-01
 -4.2432981e+00
  6.2668819e+00
  2.2908227e+00
  1.8202385e+00
 -1.7547592e+00
 -5.0181875e+00
  8.9124620e-01
 -3.7095332e+00
 -2.9032235e-04
  3.0502385e-01
  2.1051815e+00
  3.1920767e-01
  3.2274637e+00
  3.2473063e+00
  7.2706044e-01
 -1.6332164e+00
  2.2550995e+00
 -1.0440569e+00
 -2.9438657e-01
 -2.2598653e-01
 -4.6621108e+00
  1.0975480e+00
  3.8046744e-01
 -1.4973487e+00
  4.3737084e-01
  5.9096837e+00
 -2.5946090e+00
  1.4343414e+00
 -2.0248957e+00
  5.4106468e-01
 -3.7329872e-03
  3.4312522e-03
 -8.7240832e-03
 -4.3750405e-03
 -2.2170000e+00
  3.3870859e+00
 -1.4665368e-03
 -2.2968652e-03
  1.8773135e-05
 -1.5703046e-03
 -2.0185389e-02
  2.6124278e-01
  2.0037510e+00
 -6.4311194e-01
  4.1699043e-01
 -1.4236215e+00
  1.9155055e+00
  1.0705912e+00
  1.4996029e+00
  1.1704917e+00
 -2.8094941e-01
  6.2671906e-01
  3.9561349e-01
 -7.5349665e-01
  1.8173456e-02
  3.3005470e-01
 -1.1527604e-01
 -2.0113022e+00
 -4.2691689e-05
  4.5378703e-01
  6.6066146e-01
  8.0157936e-01
  1.7470900e+00
 -1.6067712e+00
 -1.9509748e+00
 -1.1385139e+00
 -9.2879289e-01
  3.8170695e+00
  1.2876951e+00
  2.2822216e+00
  4.2237277e+00
 -1.5958613e+00
  1.5852088e+00
  4.8613882e+00
 -1.2373177e+00
 -1.0941654e+00
 -1.0745041e-01
  4.0007148e+00
  1.9506763e+00
 -1.6061078e-01
  3.4357216e+00
 -2.5586307e-01
  9.5847523e-01
  1.0080593e+00
 -9.8147231e-01
 -2.6997174e-03
 -6.7089909e-01
  2.3397754e-01
  4.5852576e-04
 -3.4244945e+00
 -2.7407821e-02
  4.8213769e-02
 -2.4090051e-03
  9.3026504e-02
 -1.8766329e-03
  1.2013084e+00
 -1.7048303e+00
  4.1690717e+00
 -1.4819593e+00
  7.8773212e-01
  7.8794861e+00
  3.4736338e+00
 -2.1844890e+00
 -4.2440166e+00
  1.7664734e-01
  1.9682961e+00
  4.5222960e+00
 -3.7560361e-03
 -1.4255922e+00
 -1.9662743e+00
 -3.4965494e-01
  1.4720634e+00
  6.8112314e-01
 -5.1955771e+00
  1.5679258e-01
 -3.7273560e+00
 -1.2581638e+00
  1.8877437e+00
 -2.0380170e+00
 -2.4942012e+00
 -1.2429869e-02
  4.5691711e-01
 -2.3127289e+00
  7.4057493e+00
  9.3298370e-01
  1.5169257e+00
 -2.6544616e-01
 -5.1894708e+00
 -1.6444248e+00
 -2.4748102e-03
  4.9502221e-01
 -4.0914779e+00
 -3.6105505e-01
  4.7486992e+00
  5.0954080e-01
 -3.7853080e-01
 -4.8431673e+00
 -3.0653020e-03
  1.5978326e+00
  1.1117356e+00
  2.5499928e+00
 -3.0112922e-02
  3.3735631e+00
  2.7494161e+00
 -6.9982442e-03
  1.7752205e-03
 -6.0153729e-03
 -1.4849136e-02
 -3.0234521e-03
  1.0126160e+00
  2.4228592e+00
 -2.6378682e-01
 -8.6008191e-02
 -4.8490839e+00
 -1.9493307e+00
  5.3158522e-01
 -9.0035212e-01
  9.2915869e+00
 -4.3280163e+00
  5.5528026e+00
  2.3333396e-01
 -2.3778348e+00
  1.7183915e+00
 -1.6932608e+00
  2.0836616e+00
 -7.6953270e-03
  2.8215210e+00
 -3.0910568e+00
  2.2698376e+00
  3.6491592e+00
  2.4319348e+00
 -4.1189498e-01
 -8.9826584e+00
 -9.9861294e-01
 -4.1525750e+00
  5.3221023e-01
 -5.2006311e+00
  2.3741965e+00
 -6.0443621e+00
  1.3245462e+00
 -9.2644176e+00
 -1.1383517e+00
  1.2346483e+00
 -3.9439576e+00
 -6.6965657e-01
 -9.9574322e-01
 -3.7619576e+00
  1.4053564e-01
 -9.4387956e-02
 -1.8260791e+00
 -2.7493346e+00
  2.7975087e+00
 -2.0112584e+00
  2.4418230e+00
 -2.5212662e+00
 -2.7081710e-03
  1.2337410e+00
 -3.1963642e+00
  1.4771997e+00
 -1.7535122e-04
  5.0389250e-03
 -9.1627234e-01
  4.4691265e-03
  6.9659189e-05
  1.4624437e-02
 -3.3577920e-03
 -4.9881608e-04
 -1.9382229e-01
  8.8825030e-03
 -1.1493149e-02
  9.9671297e-03
 -3.6611997e-02
  4.2944807e-03
 -2.0872602e-02
  3.0443752e-03
 -1.8474901e-02
  3.5994698e-03
 -2.8560432e-03
 -1.9717249e-04
 -1.8707213e-03
  5.4822783e-03
 -2.9513968e-02
  1.2664483e-03
  1.7905464e-02
 -2.1473737e-03
  2.0384043e-03
  1.3731816e-02
 -2.4545656e-03
  8.9330086e-03
 -1.1911063e-02
 -5.9124973e-02
 -4.6656397e-01
  7.3517361e-03
  7.6727713e-03
 -2.2464085e-02
 -1.0707382e+00
 -4.3708578e-02
 -2.7093224e-02
  2.9320343e-05
 -5.7009188e-03
 -2.3394725e-03
 -4.4146650e-03
  2.1496606e-05
 -1.2861752e-02
 -2.1190476e-03
  3.4570815e-03
  4.5517082e-03
 -1.1616120e-02
 -1.4034104e-02
 -1.8406690e-03
  5.5259401e-03
 -6.8713618e-03
 -4.9761538e-03
  5.1082587e-03
 -5.7084062e-03
 -2.5483463e-03
 -1.1700911e-03
  1.1294376e+00
  6.6293484e-01
  2.8991787e+00
  3.2385555e-01
  2.4628844e+00
  5.1194143e+00
  1.7594681e+00
  1.0576549e+00
 -6.3745890e+00
  6.5737504e-01
  5.1415227e-02
  1.7506903e+00
 -5.0752480e-02
  3.7289181e-01
  2.0478433e-01
  5.0193968e+00
  1.7907389e+00
 -2.2414551e+00
  8.8462746e-01
 -3.7724081e-01
  3.6869855e+00
  1.0370861e+01
  4.9757271e+00
  3.1271827e+00
 -3.5760620e+00
 -1.2519053e+00
 -1.0289531e+01
  1.0224534e+00
  2.5233252e+00
  5.4729471e+00
  4.5775113e-01
  9.6087134e-01
 -1.3205453e+00
 -5.1074901e+00
  3.1408114e+00
 -6.1262238e-01
  1.2635403e+00
  7.6689136e-01
 -1.2772541e-02
 -4.4384832e+00
  1.2151620e+00
 -8.0911767e-01
 -4.3553572e+00
 -9.8484272e-01
  3.4852254e-01
 -1.6100962e+00
  2.9535769e-02
  8.8494785e-02
  8.8540214e-01
 -1.7953005e+00
  9.8643094e-01
  2.0895230e-03
  1.4924201e+00
  8.6146444e-03
  7.8881564e+00
 -1.8848485e+00
 -3.2926149e+00
 -7.7036537e-02
  1.6181893e+00
 -7.4118261e+00
 -1.1762037e+00
  9.4208169e-01
  3.3277565e-01
 -2.0543777e-03
 -3.5358727e-01
  9.8899491e-02
 -6.1707771e-01
 -2.0183786e-03
 -2.9917161e+00
 -2.0109172e+00
 -1.3317820e+00
 -3.6314414e+00
 -2.8970261e+00
 -2.0645326e-01
 -4.1458651e-02
 -2.5105938e-01
  1.8199958e-04
 -2.4447547e-01
 -3.4140303e+00
 -6.0707102e+00
  9.8089296e-01
 -3.6387265e+00
  4.2451698e-02
  1.4223589e+00
 -8.7887359e-01
 -2.4100957e+00
 -3.0164695e-01
 -5.5476123e-01
 -8.1807983e-01
 -5.7140088e-01
  2.2548990e+00
 -4.3204371e-04
  1.5481278e-01
  2.5805349e+00
 -9.5352173e-01
 -4.6482798e-01
 -1.6482814e-01
  1.5560515e+00
 -3.7624366e+00
 -1.8125008e-01
  2.7321891e-03
  3.4330182e+00
 -8.3445603e-01
 -2.9902018e-04
 -5.0139081e-02
 -3.1311221e-03
  8.0767293e-03
  4.7309776e-03
  1.4839302e-02
 -1.3581465e-02
 -5.2465037e-02
 -5.5912876e-04
  3.3925912e-01
 -3.0369502e-03
  2.3420000e-02
 -3.3979699e-02
  1.0952828e-01
 -1.3945090e-02
  3.7350564e-03
  6.7903264e-03
  1.3917888e-02
 -1.2376858e-03
  1.6780818e-02
 -3.6724128e-02
  5.8089406e-03
  4.8422106e-04
  1.4486283e-04
  2.2718012e-03
  1.1393019e-03
  4.1502058e-03
  2.7439313e-02
 -5.7283426e-03
 -7.2221942e-03
  9.1800569e-03
 -3.0091483e-04
  2.6537418e-02
  1.1735984e-02
 -7.0940709e-04
  2.1512329e-03
  2.1147160e-03
  1.5812993e+00
 -1.1620490e-02
  7.0944745e-03
  1.4489249e-03
 -3.5638936e-04
 -9.4776787e-04
 -3.9964858e-03
  4.3393829e-01
  1.5703827e-02
  9.2357723e-03
  2.5087858e-03
  9.3247034e-03
 -5.1117656e-03
  2.6360946e-04
 -3.7715980e-03
  2.6875278e-03
 -3.7543825e-03
 -5.9651928e-03
 -2.0058905e-03
  2.8824059e-03
  1.6293174e-02
 -3.9497372e-03
  1.9989790e-02
 -1.3004312e-03
 -2.3851838e-02
  1.3209593e-03
 -1.4759985e-01
  8.8809840e-03
  4.0382147e-03
  1.9468330e-02
 -1.4595730e+00
  1.7832559e-02
 -1.6409472e-02
  1.2157653e-02
  5.7680337e-03
 -2.2554758e-03
 -1.5529174e-03
 -1.7642414e-02
  2.5401369e-03
  7.4353712e-03
 -2.2128312e-02
  1.3664661e-03
 -1.5821193e-03
  1.1008390e-04
 -5.5118304e-01
  1.2553489e-02
  2.9678168e-03
  1.2294336e-02
  6.7432323e-03
 -2.7293708e-02
 -6.3697971e-02
 -9.1275276e-04
  2.1826414e-02
 -1.9482400e-02
 -1.2686127e+00
 -3.7042070e-02
 -3.8091342e-03
 -4.5862528e-03
 -1.0623376e-02
 -1.7684530e-02
 -5.0814787e-04
 -1.9519964e-02
 -6.0896128e-03
 -2.7330939e-03
  8.8885790e-03
 -8.8339290e-03
  1.0770177e-02
 -2.2848276e-03
  3.6425162e-03
 -4.6363333e-03
 -3.4632086e-04
  1.7489986e-02
  1.2977316e-02
  1.0905735e-03
 -6.2775491e-03
  2.5315222e-03
 -2.2216728e+00
 -5.9238702e-01
 -4.8381963e-01
 -3.7604532e+00
 -3.0034339e-01
  4.1712108e+00
 -5.2750621e+00
  6.9806975e-01
  8.3040466e+00
 -1.5736783e+00
  1.6517483e+00
  2.3407032e-01
  2.5905449e+00
  1.4709988e-02
  2.4717906e+00
  1.7904507e+00
 -3.8779900e+00
  2.1436610e+00
 -3.2342270e-01
 -4.1590367e-02
 -1.6209702e+00
  8.1213075e-01
  4.1353162e-02
  5.5005221e+00
 -3.9192983e-03
 -3.6515439e-01
 -7.9983994e-02
 -3.2428000e+00
  7.6845441e+00
  3.9581766e+00
  2.6329567e+00
 -1.3551295e+00
 -5.2801752e+00
  1.9594908e-01
  2.3075977e-02
  1.2741086e-01
 -8.8482227e+00
 -4.0883616e-02
  1.7599510e+00
 -2.3353944e+00
 -3.5859561e+00
 -1.4261677e+00
 -1.3291058e-03
 -2.9645687e-01
 -2.1277111e-02
 -2.0066401e-01
 -2.8952695e-03
  6.3726962e-02
  3.1170840e-03
 -2.1963036e-02
 -7.5442708e-01
  5.4079089e-03
  1.9790925e-02
  4.8029255e-03
  1.2111819e+00
  6.2351692e-01
  4.2055833e-01
  2.3572633e+00
  2.0024102e+00
  9.3048793e-01
 -1.4760588e+00
 -1.0084555e+00
  6.7396933e-01
  3.0609851e+00
  3.9412504e-01
 -1.1240970e+00
  2.0935764e+00
  1.2907135e+00
  5.7266860e+00
  2.2044220e+00
  1.9973084e+00
 -4.3801851e+00
  2.1461458e+00
 -2.0511205e+00
 -6.5635872e+00
 -2.8763447e+00
 -2.6807296e+00
  7.0279326e+00
  6.7037620e-02
 -2.8372386e-01
 -1.9759567e-01
 -5.1755857e+00
 -5.5066504e+00
 -1.6075778e+00
 -1.2270081e+00
  3.9899225e+00
 -5.1731133e-01
 -3.3186276e+00
  5.6807411e-01
  9.7577057e+00
 -2.1179943e+00
 -1.7589384e+00
 -8.0017920e+00
  2.6954651e+00
  1.6296107e-01
  3.3238044e+00
  5.6421771e+00
  1.5795870e+00
  4.7916098e+00
 -1.9694896e+00
  8.0973101e+00
  3.0221038e+00
 -1.3073237e+00
 -1.4991872e-01
  3.2738025e+00
 -2.2979306e-02
 -1.4835295e-02
  2.9971895e+00
 -4.0325046e-02
 -2.6051560e-03
  1.3539668e+00
  4.8492141e-03
 -3.8136396e-01
  4.4833357e-03
  1.8237914e-01
  4.6144594e-02
  2.9061129e+00
 -5.4896567e-02
 -1.3460997e-02
 -1.6723840e-03
 -9.6985819e-03
 -3.2746214e-03
  7.9635577e-04
 -1.2791374e-03
 -3.2534242e-02
 -1.1655211e-02
 -4.7206797e-02
 -1.3786512e-02
  1.8302746e-03
  1.2147575e-02
  3.1253051e-03
 -5.6963461e-03
  1.3575795e+00
 -5.0590290e-03
 -4.0978743e-03
 -2.7065135e-03
 -7.3903453e-01
  3.7046706e-03
  8.2421685e-03
 -2.6618825e-02
 -1.3412818e+00
 -8.3915918e-04
 -7.4019688e-03
  1.2751764e-03
 -1.4253936e-02
  5.0488336e-04
 -1.1404670e-03
 -1.3310677e-02
 -9.2678089e-03
 -8.8602388e-03
 -5.4117683e-03
 -1.7535924e-03
 -4.2472268e-03
  4.3326039e-03
  7.9502454e-03
  1.1403252e-02
 -6.9188648e-03
  1.4817354e-02
  5.8581133e-04
  1.7718215e-02
  1.0545871e-02
 -1.7657956e-03
 -1.1710524e-01
 -5.5123619e-03
 -1.5910687e-03
 -8.6701058e-02
  1.4721811e-02
 -6.0596494e-03
  3.5194394e-01
  2.1396809e+00
  2.8414172e-01
 -8.0241952e-03
 -5.3680260e-03
 -1.2539206e-02
 -5.0274748e-03
  1.7849460e-02
 -1.3009559e-02
  9.9705076e-03
 -4.6179169e-03
 -7.6727569e-04
  5.6217001e-03
 -1.3166538e-02
  3.9141312e-02
  8.2200402e-01
  4.7295440e-02
  9.7981878e-02
 -1.2536037e-03
  6.6838348e-03
  6.3620023e-03
  7.5799096e-03
 -6.4445579e-01
  2.4692682e-03
 -2.0512576e+00
  7.3038828e-01
 -5.7836595e+00
 -2.9884204e-02
  1.2499390e-02
 -4.7086142e-03
 -3.1884048e-02
  3.4335570e-03
  2.1408061e-03
  1.3000724e-01
  2.5881082e-02
  7.4457087e-02
  2.5374878e-03
  4.3361174e-04
  4.3845102e-03
  2.4056784e-03
 -2.6909811e-03
 -1.4163203e-03
 -1.6668745e-03
 -1.3043657e-02
 -5.7043061e-03
  8.2122311e-03
  1.2618297e+00
 -3.7441554e-03
  1.2082809e+00
  1.4094403e-02
  1.4030942e+00
  1.7603834e-01
 -7.2314566e-01
 -1.4708828e+00
 -1.2728891e+00
 -6.9396524e+00
  2.3772914e+00
  4.7261887e+00
 -2.1607058e+00
 -3.3278568e+00
  2.7553887e+00
 -6.9919866e-01
  3.1389248e-01
  6.1643047e+00
 -7.2904551e-01
  3.7519259e+00
  1.0145468e+00
  2.5068371e+00
 -2.5119774e+00
 -2.4325712e+00
 -1.6604293e-02
  1.3614925e+00
  1.6733943e+00
  2.9090159e+00
  5.4784408e+00
 -3.3633485e+00
 -9.6945748e-02
  1.2266225e+00
 -1.4768032e+00
  2.2179630e-02
  2.3650257e-01
 -9.7027302e-01
  3.2864404e+00
 -2.5622530e+00
 -7.4770093e-01
  1.0871553e+00
  5.9572905e-01
 -1.0235703e+00
  2.5443199e+00
 -3.0577288e+00
 -8.6150157e-01
 -2.5775185e-01
 -1.4135109e+00
 -3.3270166e+00
 -9.9240392e-02
  6.7213303e-01
 -4.9299026e+00
 -2.0741601e-03
 -3.0563155e-01
  3.2903142e-03
  1.2171972e-01
 -2.6773976e-03
 -4.1350108e-02
 -5.6041235e-01
  5.4323852e-01
 -4.6696740e-01
  3.5075787e-02
 -1.3559208e+00
  1.5462220e-01
 -1.6142644e-01
  3.2241082e+00
  3.9014276e-03
 -7.7815992e-03
 -9.3891546e-03
 -1.6888160e-01
 -6.8362714e-03
 -2.0188426e-03
  5.0898124e-03
 -3.1746991e-02
 -3.0120674e-03
 -4.3955155e-02
  3.8916175e-03
 -4.1540984e-02
  6.8664369e-03
 -2.2392913e-03
  8.2904303e-01
  5.6589846e-02
  7.1220275e-04
  1.4114795e-03
 -9.3967043e-02
 -6.4697593e-01
 -1.6679318e-01
  2.5573280e+00
 -4.3859489e-02
  7.4740104e-02
 -7.8064293e-02
 -1.3442770e-02
 -2.8758790e-02
 -1.6966164e-03
 -4.3632347e-02
 -3.3645082e-02
  5.5664319e-01
  9.9009737e-02
 -2.4212388e-02
 -9.0180874e-02
  5.2110028e-01
 -4.5405813e-03
  3.8143285e-03
 -8.0826954e-04
  6.0327481e-03
  1.5546654e-03
  4.1370792e-03
  1.3713266e-02
 -2.2016750e-03
  2.4003768e-03
 -5.3692870e-03
 -1.8163975e+00
 -6.2032992e-01
 -7.6782519e-01
  4.8476070e-02
 -7.1419227e-01
 -7.6916808e-01
 -3.5033917e+00
 -5.8253831e-01
  2.1762800e-01
  5.9365504e-03
  1.1684613e+00
 -1.4901743e+00
  3.3370481e+00
  4.2473849e-02
 -1.0002053e+00
 -3.4846881e-01
 -7.3933911e-01
  4.7389145e+00
 -2.3768921e+00
 -2.8204387e-03
 -2.0394707e-01
 -3.5347817e+00
 -7.6546425e-01
  1.8809797e+00
 -6.0206158e-03
 -1.6246617e+00
  2.6914629e-03
 -6.2705317e+00
 -1.0784086e+00
  2.4799775e-02
 -2.3943487e-01
 -2.0870888e+00
 -1.3068278e+00
  1.9570888e+00
 -1.0470577e+00
 -1.3097119e+00
 -7.3319441e-01
  1.1675624e-02
 -3.1558540e-01
 -1.4126959e+00
 -1.2750664e+00
  1.6523632e+00
 -4.3972406e-01
  2.2091747e-04
 -3.2636949e-01
 -7.3580458e-03
  6.7677372e-03
 -2.5152832e-02
 -6.7139363e-01
 -3.2280239e-01
 -7.6346129e-01
 -1.5597065e-03
  1.3570404e-03
  2.0847304e+00
 -2.1212528e+00
  2.3480442e+00
 -2.7805061e+00
  5.1443338e-01
 -9.8144877e-01
 -1.5092263e-01
 -2.9550688e+00
  4.5334873e-01
 -8.6936826e-01
 -3.6353648e+00
  3.9154029e+00
 -1.3752732e+00
 -2.6708405e+00
  6.4480269e-01
  1.9450271e+00
 -3.8152792e+00
 -3.2823198e+00
  3.2956669e+00
  8.3468580e-01
 -3.8810170e+00
 -3.4015732e+00
 -1.9463309e+00
 -8.0007178e-01
 -1.1129190e-01
 -2.3415749e+00
  3.0377400e+00
  6.0680705e-01
  4.9559526e+00
  1.5275385e+00
  3.2700772e+00
  1.9878055e+00
 -3.6812842e+00
  3.4515004e+00
  2.7152184e-01
 -2.6556978e+00
  7.9814076e+00
 -2.3632909e-01
 -2.9910860e+00
  3.3201880e+00
  3.3605281e-01
  1.7698610e-02
 -2.9044485e+00
  2.6779583e+00
  2.8149796e+00
 -4.6703262e+00
  3.6375036e+00
 -1.9304633e-01
 -8.9989257e-01
  5.2428136e+00
  1.2682714e-01
  4.9332753e-02
 -1.4815733e+00
  4.7621310e-01
 -4.1938634e+00
  2.1994233e+00
 -1.2130445e+00
  1.4467640e+00
  5.9384084e-01
 -2.5113545e-02
  1.9554553e+00
 -1.1804844e+00
 -9.2838548e-02
  3.1632161e-01
 -4.7699559e-01
 -6.2819558e-01
  1.5810758e+00
  3.6616561e-01
 -9.1536039e-01
 -6.9045353e-01
  3.5154581e-01
  2.3715596e+00
  2.2609789e+00
 -1.1566914e+00
  4.9711778e-03
  3.7503486e+00
 -2.5615293e-01
 -1.3108612e+00
  4.8140350e-01
 -1.5808553e+00
 -3.5267025e-01
 -2.2821801e+00
  1.4022733e+00
 -1.2036153e+00
 -3.1647580e+00
  5.5346441e-02
 -1.0150156e+00
 -1.1096907e+00
 -8.2587309e-02
 -1.2746009e+00
  1.2469658e-01
 -5.6148723e-02
  1.1376815e+00
 -8.3347589e-01
 -7.0709693e-01
  4.1746163e-01
 -1.6880580e+00
 -3.5256453e+00
  2.0319207e-01
 -2.9235566e+00
 -1.4004927e+00
 -4.1662231e-03
  4.2155087e-01
  2.5414419e-01
  6.1440922e-02
 -6.6597646e-01
 -1.4838124e-02
  2.7659127e-01
  8.2821799e-03
  2.9930905e-01
 -1.6361859e-03
  5.6543713e-04
  5.8824278e-04
 -2.7648639e-03
 -7.2162657e-05
  2.1891226e-03
 -6.1701215e-03
  6.9332663e-03
 -2.8956768e-03
  1.9836597e-02
 -5.7706039e-04
 -1.2024776e-03
  6.0951049e-03
  1.5175892e-02
 -4.4474096e-04
 -2.5285995e-03
 -2.7367314e-02
  2.5685644e-03
  7.3252255e-01
  1.6270351e-04
 -3.6739684e-03
 -1.5457536e-02
 -1.8714252e-04
  2.1335691e-02
  3.9695804e-03
  4.6697900e-01
 -6.7470111e-03
  5.8148564e-03
 -2.0076823e-03
 -3.4966033e-03
  4.6993210e-03
  3.0666711e-02
 -3.2626824e-03
  5.8113984e-03
  1.2659539e-02
  5.6260703e-03
 -2.9502274e-03
  5.8875000e-03
  7.4483380e-03
  9.0050483e-03
  6.1530131e-03
 -2.0453173e-03
  8.4510341e-04
 -8.2067924e-04
 -7.6628220e-03
 -8.6885625e-03
 -3.9579463e-01
  3.6841203e-03
 -5.1814699e-01
  1.3944951e+00
 -1.7236394e-01
  2.2853596e-02
  3.5643596e-03
 -3.5187626e-01
 -1.6714107e-02
 -6.9541467e-04
 -1.4904290e-03
 -1.3448053e-02
  2.4999073e-03
 -4.9845758e-03
 -1.2310698e-02
  2.9963790e-04
 -2.0323267e-04
  9.9666836e-03
  3.9763218e-03
  1.3810704e-02
  3.6691464e-02
 -1.8293418e-03
 -1.7441792e-03
 -2.8426459e-03
  6.7548966e-03
  9.2885253e-04
 -3.3984509e-01
 -8.3326129e-05
 -6.9681914e-03
 -1.0454785e-02
 -2.0202534e-02
  5.2802311e-03
  5.7211518e-03
  1.8372169e+00
 -1.2299410e-02
  7.6370512e-04
  4.0737172e-03
 -5.6223874e-04
  8.5193329e-03
  1.2321603e-03
 -2.5054658e-02
 -6.8549365e-05
 -9.9475321e-04
  2.0018539e+00
  1.5093219e-02
  1.5491633e-03
 -1.6130222e-03
  1.9415794e-03
 -6.3830666e-04
 -6.0413606e-03
  7.4947765e-04
 -1.1697705e-02
 -1.1008501e-02
 -8.0760801e-03
 -1.2984197e+00
 -5.4560388e-03
 -7.5052708e-04
  1.2201336e-02
 -4.4997078e-03
 -1.2514823e-02
 -4.4481400e-02
 -2.0138209e+00
 -1.1139534e-02
  3.4874247e-03
 -4.0337564e-03
 -8.9746788e-03
  1.9438235e-02
  1.5703907e-03
 -1.1071366e-02
 -9.2844639e-05
  2.3438681e-02
  7.1605043e-03
 -3.7170479e-03
  2.4518626e-02
 -4.1524200e-03
 -1.9120325e-03
 -3.9480999e-04
 -1.3802530e-02
 -1.5997024e-02
  2.2845466e-03
 -1.4225456e-02
 -4.1992231e-03
  8.0141312e-01
 -6.9527025e-04
  2.0471727e-02
  3.0085128e-03
 -4.7177001e-04
 -3.3581609e-01
 -3.3096783e-03
 -1.0012050e-02
  1.0737333e-02
  1.3012428e-02
  1.0675889e-02
  2.6850209e-03
 -6.3069334e-04
  1.0923581e-02
 -7.2488012e-03
  1.4468147e-03
 -6.7086783e-03
 -3.1253120e-03
 -8.7463288e-03
  3.1460999e-03
 -7.5322175e-03
  4.0824679e-03
 -2.6117959e-03
  2.9189188e-03
  1.0527891e-02
  9.3401084e-04
 -6.3979882e-01
  1.1989225e-02
 -5.9520318e-03
 -1.1162221e-02
  1.4654535e+00
 -4.2341332e-04
 -6.4269654e-03
 -1.2011811e+00
 -1.2430999e-02
 -3.5732458e-03
 -3.4574728e-04
  1.2895763e-03
 -4.4302363e-03
 -7.9813348e-03
 -1.0224381e-02
  4.0139961e-03
 -3.2392570e-03
 -4.2179741e-02
  1.3405341e-02
 -2.0386823e-03
 -3.4964617e-04
  1.7931279e-04
  5.4448629e-03
 -8.3246897e-04
 -8.4392971e-04
  1.3578464e-02
 -5.3277924e-03
 -8.1228074e-03
  2.6569089e-03
  2.9469042e-03
 -7.5903204e-03
  8.5666459e-03
  3.4600869e-03
 -4.3518046e-01
 -3.3722881e-03
  6.8553665e-04
  1.0067475e-02
 -1.9158671e-03
 -5.9587806e-03
  6.1343359e-03
 -3.6812327e-03
  1.0629059e-02
 -1.5838057e-02
 -1.6578985e-04
  6.9479928e-03
  6.5965357e-04
 -2.8732354e-03
  8.5208043e-03
  7.5205471e-03
 -3.5097522e-03
 -4.0995697e-03
  1.1496821e-02
 -5.3821285e-03
  2.1773623e-03
  4.1336086e-01
 -6.4060494e-02
 -3.5666589e-02
  8.4495652e-05
  7.8589612e-01
  3.7187421e-01
  3.4000620e-01
  1.0421168e-01
 -4.1943006e-03
  3.6448857e-04
 -7.1373681e-04
 -1.8235520e-02
  8.6010270e-02
  1.9381434e-03
  4.7149695e-03
  1.5849003e-04
  6.1339554e-03
 -4.6783192e-03
  1.7036296e-03
 -2.2034493e-01
  2.2837921e-05
  4.1635777e-03
  2.0806764e-03
 -6.5149986e-03
  9.4805313e-03
  3.8217325e+00
 -2.7688066e-03
  2.3336979e-02
  9.9187177e-03
 -6.9175507e-03
  4.4657844e-03
  5.5164457e-03
 -2.8835729e-02
  1.5353053e+00
 -6.5021981e-03
  1.0368632e+00
 -9.7928077e-02
 -1.7141519e-02
 -1.1091407e-03
  2.2748506e-02
  6.6304198e-03
  2.2320369e-02
  5.9858531e-01
 -7.7762902e-03
  8.9741303e-03
 -2.0216904e-03
  1.3984758e-02
 -1.4268297e-02
  1.1677401e-02
 -9.1267424e-03
 -1.7702591e-02
 -1.5783876e-02
  5.8127320e-03
 -4.8549795e-01
 -4.8040774e-02
  3.1016037e-01
 -2.6504546e-01
  3.5903174e-01
  1.4459178e+00
  1.3858870e-01
  9.0906936e-01
  1.3763266e+00
 -1.1738890e-02
 -8.0161816e-01
  1.0318506e+00
  4.1753489e-01
 -7.0555128e-02
 -7.9450274e-01
 -2.9718372e-01
 -7.1663335e-02
  1.0778093e-03
 -1.5821116e-01
 -1.9123508e-01
 -3.1117177e-01
 -8.2065843e-02
 -8.5394001e-03
  8.3832569e-02
  1.4743905e-03
  2.6858382e+00
  5.8719528e-01
 -9.8080295e-01
 -5.6323916e-01
  6.9821045e-02
  1.9755917e+00
 -2.0712073e+00
 -1.6780509e+00
 -1.0461614e+00
  2.2304785e+00
 -4.2974374e-01
  8.3933151e-01
  9.8382515e-01
  2.4956495e-02
 -1.0373535e+00
  1.9038233e+00
  3.5820608e-03
 -1.2663450e+00
 -2.3151037e-01
  6.6435134e-01
 -5.6464922e-01
  1.6000775e+00
  9.0153468e-01
 -4.3102756e-02
 -1.8088105e-01
  2.9640947e-03
  1.4584912e-03
 -2.3159834e-02
  3.3962430e-04
 -2.2472187e-03
 -1.8432245e-02
 -4.7755437e-03
  1.1995062e-03
 -2.9683471e+00
  1.3798462e-02
  2.3166873e-04
  2.0278315e-03
  1.0442219e+00
  6.8738456e-03
 -4.4368873e-03
  1.3049612e-02
 -5.1677991e-03
  5.0602383e-03
 -6.4597500e-04
  6.2405057e-03
 -5.5941287e-05
 -2.1133272e-03
 -3.2840786e-04
 -1.0190592e-02
  1.3666469e-02
 -1.0127397e-02
  1.0526161e-02
 -1.2943510e-02
 -3.7494260e-03
  2.2121646e-02
 -5.2636014e-03
  1.3075886e-02
  2.6092033e-03
 -3.4755096e-03
  9.0903975e-04
  1.1597136e-02
  8.0790389e-03
  3.5669936e-03
  2.5927486e-02
 -2.3646083e-02
 -4.1972927e-04
 -5.2928589e-03
  7.5828149e-03
 -5.7532014e-03
 -7.2025792e-03
 -1.7798385e-02
  6.3453168e-03
  9.3420502e-04
 -1.5490849e-02
  1.5791418e-02
 -5.9909695e-03
  5.6911068e+00
 -3.5973720e-03
  1.7981043e-03
 -1.6634364e-02
 -1.5698194e-03
 -3.3399332e-02
  6.7353593e-03
  3.5101447e+00
 -5.2142876e-01
 -8.5057783e-01
  2.7048677e-01
 -1.1457802e-01
 -1.0177144e-01
 -1.3481876e-01
 -3.2904959e-01
  7.8604877e-02
  3.7518780e+00
 -1.8010159e+00
 -3.0049175e-04
 -6.0496468e-02
  1.0987898e+00
  1.8011207e-02
 -7.4690050e-01
  5.8052335e+00
  4.4565864e+00
 -9.0099311e-01
 -1.8620533e+00
  2.4851766e+00
  2.2478933e+00
 -6.0463071e-01
 -4.4587636e-05
  1.1552773e-02
  2.9651151e+00
 -9.8436745e-04
 -2.5082479e+00
 -7.5885385e-02
  1.5168662e+00
 -1.7256038e-01
  1.3794895e+00
  4.3630061e+00
  1.7356426e+00
 -3.1005046e+00
  4.8731272e-03
  2.2147328e-03
  2.9325492e+00
  4.1299229e+00
  9.9166286e-01
  1.7395711e-01
 -1.0627273e-03
 -2.0487554e-02
  1.4319392e+00
  1.9283394e-03
 -2.0207923e-02
 -5.7019398e-04
 -1.9738076e-03
 -4.3513518e-02
  3.5026452e-01
 -2.9406846e-03
 -8.1342837e-04
  8.5680205e-03
 -2.1216003e-03
 -4.4097360e-03
  4.1701058e-01
  1.8514652e-02
  1.6473358e-03
 -1.8245372e+00
  8.4873280e-03
  1.4632696e-03
 -1.6901191e-02
  9.7467130e-01
 -4.6550799e-03
  2.0024054e-04
  3.3844253e-03
 -2.8513367e-03
  2.2498106e-03
  2.5532534e+00
  1.4839320e-02
 -2.8584393e-02
  3.7006300e-03
  1.5445831e-03
  1.5388018e-02
 -9.0358434e-03
  9.7912941e-03
 -1.5123650e-02
 -2.3336196e-03
  1.5114779e-03
  1.1012366e-02
 -1.9414834e-03
  5.4110265e-03
  1.6861693e-03
 -1.9640424e-03
 -2.8082994e-03
  2.6816179e-03
  1.4258264e-02
 -2.0061472e-02
  6.3734627e-01
  1.4709609e-02
 -9.4132759e-03
  8.6842626e-01
  1.3887440e-04
 -4.8265504e-03
 -4.5720469e-03
  1.9277619e-02
  9.9941045e-03
 -1.8028407e-03
  1.3101501e-03
  9.7052712e-04
  9.5155777e-04
 -1.1230060e-02
  5.3462284e-03
 -6.0452363e-03
  6.7280866e-03
  4.0036067e-04
  4.7945711e-03
 -1.5337999e-02
  4.0526293e-02
 -1.8867766e+00
  1.2529571e-01
  3.1305439e+00
 -8.3020127e-01
  1.0057120e+00
  5.5741686e-01
  4.0981622e+00
  1.1481754e+00
  3.2017469e-01
 -3.8266060e-01
  2.4944872e-02
  6.7295702e-03
  1.6510375e-01
 -3.5054507e-04
  1.3788162e-01
 -5.5067171e-03
  3.1022465e-02
  3.1416374e-03
 -1.8651680e+00
  5.1135063e-04
 -7.4923933e-03
  1.5361474e-03
  9.9886907e-04
  2.3903342e-02
  5.1585838e-02
  1.0647420e-02
 -1.5915574e-01
 -3.1711999e-01
  2.0115958e-03
  9.9248365e-03
 -6.1079878e-01
  1.3196030e-02
 -1.2547698e-02
  1.2727944e+00
 -1.2780224e+00
 -2.7922250e-02
 -1.5505943e+00
 -1.2089060e-01
  5.5101328e+00
 -1.9272733e-01
  2.5226639e-04
 -8.3058551e-03
 -1.0095403e+00
  7.0656971e-03
 -5.2699419e-03
  4.9614552e-03
  2.3069935e-02
  4.5183720e-03
 -5.2674864e-03
  3.2167800e-03
  1.4803303e-02
 -3.3215247e-03
 -1.0754179e-03
 -3.5771400e-02
  5.8639864e-03
 -7.0254304e-03
  1.0408483e-02
 -9.3554484e-04
  1.3765761e-02
 -1.1037331e-03
  4.2317472e-03
 -4.6738586e+00
 -3.7151393e-03
 -6.5164571e-03
  5.3919898e-03
 -2.1982964e-02
 -4.1283639e-03
  7.3133758e-03
  6.6699842e-03
 -7.9807071e-03
 -7.2349883e-03
 -2.7733441e-03
  1.5293385e-02
 -2.4321009e-03
 -4.9743615e-03
  9.7538661e-03
  1.3874653e-03
  4.9089119e-03
  5.4288367e-03
  1.4654003e-03
  5.8952468e-03
  1.5255844e-04
 -8.5135305e-04
  3.7849331e-03
  1.8857892e-04
  1.1098620e-03
 -1.4171470e-04
  1.4643762e-02
  8.7463120e-03
  1.0756393e-02
  1.6987602e-03
  1.1673165e-03
 -1.8458362e-03
 -3.0239434e-03
  6.5725632e-03
  9.6566370e-03
  3.8523488e-03
 -2.4228590e-03
  1.7855378e-02
 -2.1696077e-03
 -9.4842864e-04
  1.1115920e-02
 -4.1209352e-03
 -1.5673619e-03
 -7.0377616e-03
 -1.9353863e-02
 -1.2776758e-02
 -8.4581625e-01
 -1.0198288e+00
 -2.0011351e+00
  2.3695657e+00
 -4.0371796e-01
 -9.2306477e-01
  6.7768410e-02
 -4.0258255e+00
 -5.7682073e-01
 -1.1854028e+00
 -1.0783870e+00
 -6.3274658e-01
 -6.9467926e-01
 -3.1742661e+00
 -2.0680876e+00
  1.1916865e+00
 -3.4531837e+00
  4.5053941e-01
 -5.2942190e+00
 -1.8288274e+00
 -8.7777086e-02
  1.1491801e+00
  3.8586996e+00
  7.0016229e-01
 -5.1289287e+00
 -1.4137437e+00
 -1.3933347e+00
  7.8864408e-01
  2.5471559e+00
 -3.6210400e-01
 -8.6408478e-01
 -2.5041187e+00
  4.4330749e-01
  3.2372959e-02
  6.7482066e-01
 -3.5399179e+00
 -9.9514544e-01
 -1.6101034e+00
 -1.1358956e+00
 -2.7654368e-01
 -1.8444941e+00
  1.0133867e-02
 -1.4661039e+00
 -2.4920812e-01
  1.4425272e+00
  1.6116172e-01
 -4.1740422e+00
  7.0212239e-01
 -1.3566831e+00
 -3.8323081e+00
 -7.9187471e-03
