nep4 5 O Si S Se Mo 
cutoff 5 5 83 83
n_max 8 8
basis_size 8 8
l_max 4 2 0
ANN 50 0
 -2.2691657e-01
 -3.9645177e-01
 -7.4023283e-01
 -1.1873025e-01
 -7.8813033e-03
 -1.3198057e+00
 -1.8782772e-01
 -3.0767903e-01
  1.9576249e-01
  1.0265403e-01
  4.2654546e-03
  4.1667289e-01
 -3.0155580e-03
 -7.3296890e-02
 -9.4986171e-02
  8.3920759e-01
  1.5703636e-01
 -9.7922015e-01
  2.4313127e-01
  2.3051713e-01
  1.2152580e+00
 -1.4680727e-01
  6.8412448e-04
  6.2130636e-01
  5.9056389e-01
 -6.2169116e-02
  2.7189878e-01
  4.5989585e-01
  9.2721313e-01
  3.3967289e-01
  5.5371173e-02
 -3.6220714e-03
  2.6525332e-02
  1.9844091e+00
  8.1332281e-02
  2.1544924e-01
  6.2425204e-02
  1.7430907e-01
  5.2999884e-01
  2.8446445e-01
  7.4897063e-01
  2.2342596e-02
  4.3471980e+00
  4.5857251e-02
 -9.4596572e-02
 -3.5038704e-01
  4.9825206e-02
 -2.7110111e-02
 -6.4904556e-02
  7.7869939e-03
 -1.2073511e-01
 -4.8339102e-02
 -2.8044034e-02
  1.1993004e-03
  2.3453222e-01
 -3.9290752e-02
 -1.2485936e-01
 -3.6261713e-03
  2.4616279e-02
 -9.6825659e-01
 -5.3533111e-02
 -9.4529293e-02
  1.0348183e-02
  7.3536739e-02
  4.5349784e-02
 -1.1092019e-01
 -2.4312147e-01
  9.0485858e-03
  1.8126937e-02
  2.3474035e-01
 -6.9957301e-02
 -1.1319499e-02
 -2.3692606e-01
 -1.4154041e-01
  5.2549947e-02
 -1.7275864e-01
  3.2732192e-02
  5.4793157e-02
 -5.4813486e-02
 -7.2386585e-02
  4.3453898e-02
 -6.1518708e-03
  1.7076570e-01
  1.6481897e-01
 -1.0325114e+00
  3.6525693e-02
  1.0495077e-02
  8.0005042e-03
  5.5529494e-02
 -7.9499863e-02
 -6.0593288e-02
 -5.4972671e-02
 -1.9074005e-01
 -3.6713216e-02
 -1.3485542e-02
  4.8564564e-02
 -2.2998373e-03
  1.0210539e-02
  3.9847679e-02
 -1.1936010e-01
 -8.1847198e-03
  7.6480769e-02
  3.4913354e-02
 -1.4317108e-02
 -3.9800557e-01
  2.2270156e-02
  6.2529534e-02
 -9.0184480e-02
 -1.1359724e-01
  1.3698409e-02
  2.0316956e+00
 -1.1873460e+00
  6.9933042e-02
 -2.3240793e+00
  1.3025343e+00
  2.0970635e-01
  2.8766388e-02
 -2.9571983e-03
  5.2753276e-01
  1.1147323e-02
  5.3247437e-02
 -4.1753152e-01
  1.4072533e-01
  3.3130386e-01
 -2.6694044e-01
 -1.2428858e+00
  3.6969566e-01
 -1.3697683e+00
  4.8925596e-01
  4.5681188e-01
  3.0392694e-01
 -1.9395003e-01
  1.1041845e+00
 -1.9326851e-02
 -5.0188458e-01
  2.1127079e-02
  1.3591842e-01
  3.8169062e-01
 -5.4779962e-02
 -1.8712348e-01
  1.8423541e-01
 -4.4870168e-01
 -5.3824252e-04
  7.5198776e-01
  6.7465317e-01
 -3.9376233e+00
 -3.1844142e-01
  2.1692967e-02
  9.5225044e-02
  1.4847434e-01
 -9.1005278e-01
 -9.5825136e-02
  4.0068427e-01
  2.1298042e-01
 -1.6482270e-01
  5.8421916e-03
 -2.7009333e-02
 -1.6473506e-01
 -2.1877905e-02
  5.6301747e-02
 -2.5884396e-01
 -3.7206963e-02
 -2.2000594e+00
 -1.3959478e+00
 -1.4298935e-01
  8.3389640e-01
 -5.3155869e-01
  4.2760733e-01
 -8.0894256e-01
 -2.7905574e+00
 -9.5658273e-01
 -3.4675959e-01
  5.6523466e-01
  7.4784958e-01
 -1.6831438e-01
 -1.4582680e+00
  1.1534835e-01
  1.8842106e-03
  2.4821568e-01
  1.0435197e-03
 -1.6731421e+00
 -2.5908509e-02
  1.8213688e+00
 -3.7172295e-02
  5.1713306e-01
  6.0438627e-01
 -2.1298581e-01
  1.2920873e-01
  7.0961845e-01
 -1.1087864e-01
 -3.5123700e-01
  9.4286644e-01
 -1.1437534e-01
  2.6089499e-02
  1.4311617e-02
 -2.2857216e-01
  1.2850435e-01
  2.9845127e-01
  5.9443402e-01
  4.0868923e-01
  2.1169804e-01
 -2.3093018e-01
 -1.3619915e-01
  4.6855889e-02
 -7.8581475e-02
 -7.8162216e-02
 -6.3686866e-01
  2.4902350e-03
 -1.1565603e-01
 -3.5765797e-02
 -1.0105448e-01
 -2.7327800e-02
 -1.1491823e-02
 -5.2780993e-02
  2.4810231e-03
 -3.6417108e-02
 -3.5115812e-02
 -4.2298604e-02
  4.1942656e-02
  1.8843716e-01
  1.8310269e-02
  8.9177743e-02
  1.0091819e-01
 -3.0107711e-02
  7.4827760e-02
  2.8612589e-02
  2.8679036e-02
  1.8311720e-01
  1.0029151e-01
 -1.3871482e-01
 -1.5863171e-02
  8.3368585e-02
  5.7530154e-02
 -1.1446904e-01
  2.7609807e-01
 -1.0157547e-01
  5.9051841e-01
 -1.2974156e-01
 -1.4061730e-02
  3.1856861e-02
 -5.9448272e-02
 -2.3757076e-02
 -1.8354689e-01
  4.4844388e-03
  8.9142114e-02
  7.9035461e-02
  4.9488820e-02
 -1.5793933e-01
 -1.0232390e-02
 -1.6352100e-02
 -4.5266371e-02
  4.2670961e-02
 -9.9313624e-02
 -1.3825846e-02
  1.7856333e-02
  4.6741873e-02
  2.7779954e-02
  2.8935064e-02
  2.4387183e-02
  7.8282252e-02
 -2.6221873e-02
  3.8637318e-02
 -1.4023621e-01
 -4.0616028e-02
 -4.3142060e-04
  9.3396500e-02
  9.8162428e-02
  6.0155820e-02
  9.1051105e-03
 -6.8198308e-02
  5.4854637e-01
 -1.0927536e-01
 -2.4597476e+00
 -4.0730026e-01
  1.3731364e+00
 -8.3798653e-01
  6.6510373e-01
  7.0334530e-01
  1.2757912e-01
 -1.9677511e-01
  3.6730945e-01
 -2.1058215e-01
 -8.8659275e-01
 -3.1914536e-02
  1.3392305e-01
 -4.7864143e-02
 -2.3695840e-01
 -9.4325848e-02
  6.5513688e-01
  3.6646768e-01
 -5.9379882e-01
 -2.9586098e-01
  5.4387403e-01
 -5.3622078e-02
 -1.6945339e+00
 -6.5264440e-01
 -2.9166010e-01
  1.6307676e-01
 -6.5580821e-01
  2.4234105e-02
 -1.7058535e-02
  3.5661751e-01
  1.7060487e-03
  4.4427910e-01
 -4.8397842e-01
 -4.8900700e-01
 -4.7195661e-01
  7.4646845e-02
 -3.6187440e-03
 -4.3305686e-01
  3.9917451e-01
  1.1458027e-01
  4.2685046e+00
 -1.2746269e-01
 -8.4917331e-01
 -2.3665692e-01
  1.3358627e-01
  1.1449973e-01
  6.6419333e-02
 -6.3014448e-02
 -4.5361291e-03
  1.7301030e-01
  1.8280962e-02
 -5.6506447e-02
 -4.9363885e-02
  1.0158738e-01
 -3.9841950e-02
  2.5509176e-01
 -1.0704705e-02
 -2.6052612e-01
 -5.0314322e-02
 -7.9798378e-02
 -1.7020030e-01
 -9.8502427e-02
 -1.4951237e-02
  3.4706816e-02
  1.6045973e-02
  1.2396881e-02
  8.0605060e-02
  2.3973382e-01
 -7.3724814e-02
 -1.4876094e-02
 -6.6457957e-02
 -3.5751730e-02
  3.9756079e-03
  7.2312042e-02
  2.8957671e-03
 -1.3624743e-02
  5.1997133e-02
  9.5013373e-02
  2.4901383e-02
 -1.7190002e-02
 -1.0851672e-01
 -5.8575902e-02
  1.1444034e-01
  2.3844998e-02
 -1.1561224e-01
 -1.3668938e-02
  6.2830644e-03
 -3.3041069e-03
 -6.2018204e-02
 -1.4357328e-02
 -1.9058404e-02
  8.0972090e-02
 -9.0210274e-02
 -7.6480992e-02
  1.1817609e-02
  1.3518517e-01
 -8.3390914e-02
  1.9184665e-01
 -3.1399280e-02
  6.5625147e-03
  1.7517990e-02
  5.5164952e-02
 -3.1487106e-03
  6.3152619e-02
 -2.1370189e+00
  1.2496223e-01
 -3.0757362e-01
  1.9791946e-03
  3.9741214e-02
  7.1794633e-03
 -6.9482043e-02
 -1.4773390e+00
 -3.6073843e-01
 -6.0661096e-02
  1.9587906e-01
 -3.3995536e-01
 -7.9477724e-04
  3.5116918e-02
 -7.8140065e-02
 -1.3729735e-01
  3.1174585e-01
 -6.0461726e-02
  1.0427881e-01
 -3.1228706e-02
  6.3546866e-02
 -2.5368866e-02
 -3.1077944e-02
  5.8280822e-02
 -6.8365023e-02
 -2.1179268e-02
  1.2891096e-01
  1.7774479e+00
  1.3302878e-01
 -4.3730207e-02
  2.8052507e-02
  1.4251271e-01
 -1.0310138e-01
 -4.4369742e-02
 -4.5726106e-02
 -6.1011844e-04
  7.2837226e-02
  1.3821396e-01
  1.5839264e-02
  2.5966020e-02
  2.3712264e-02
  1.0190111e-01
  5.7541583e-02
 -9.1504082e-02
 -9.7229879e-04
  5.6996886e-02
  6.1882794e-02
 -7.8648143e-02
 -4.3423828e-02
 -2.7033293e-01
  4.8468955e-02
  5.1399756e-02
 -8.8376448e-02
 -7.1937302e-03
  1.4436743e-02
  3.9127454e-02
  9.9724919e-02
 -1.4845122e-01
 -2.5854731e-01
 -6.3960530e-02
 -5.2586049e-02
 -3.2152735e-02
 -2.9433262e-01
 -4.4694401e-02
 -3.5591573e-02
  6.1646871e-02
 -2.1607770e-02
  4.1076332e-02
 -4.3169759e-02
 -4.7302725e-05
  4.5967372e-03
 -3.0335208e-02
 -2.0735577e-02
  3.7321243e-02
 -6.3162432e-03
 -9.9091634e-02
  4.8794601e-02
  2.8662864e-02
  5.4701483e-01
  6.1639575e-03
 -1.0945591e-01
  3.5197597e-02
  2.2438148e-02
 -1.3347988e-02
 -2.7148470e-02
 -3.0312454e-02
 -8.6223297e-02
 -1.0923523e-01
  4.1343439e-02
  2.2649227e-02
 -6.3517705e-02
 -7.5566977e-02
 -3.4485877e-02
 -2.9418303e-02
  1.3590122e-02
 -2.1677733e-04
 -5.2975859e-02
  5.0157208e-02
  9.6967043e-03
 -1.3146477e-02
 -1.4750980e-01
 -7.7458911e-02
  9.8201409e-03
 -8.6558521e-02
 -2.0370516e-03
 -4.2312168e-02
  1.4952311e-01
  3.1993224e-03
 -1.0520628e-01
 -3.5803653e-03
 -1.9095321e+00
  3.2890842e+00
 -2.2525374e-02
  8.6346936e-01
 -3.9462292e+00
 -1.7676167e-01
  3.3866928e+00
  3.5530429e-02
 -5.8843471e-02
 -1.7816687e+00
 -1.7966436e+00
 -1.7756826e+00
 -3.5718713e-02
  1.6347499e+00
  1.2633377e-01
  5.1723808e-01
  9.9443316e-01
 -7.3726922e-02
 -1.0870486e+00
 -2.2238932e+00
 -1.4360289e-01
  1.0008046e-02
 -5.0658461e-02
 -4.0600497e-02
 -1.5063069e+00
 -3.4832242e-01
 -6.3700682e-01
 -1.4787363e+00
 -2.5789510e-02
  2.4171139e-01
 -8.7007779e-01
 -3.8720503e-02
  9.7594805e-02
 -4.3136247e-02
  6.6722259e-02
 -1.7609953e+00
 -7.1969229e-01
 -3.1639955e+00
 -1.0810193e-01
 -9.6307343e-01
 -8.2633591e-01
  6.2226024e-02
  1.2533078e+00
 -4.6715161e-01
  2.2260910e-01
  1.9805141e-02
  5.7434624e-01
  5.2065706e-01
  1.1889627e-01
  4.6171885e-02
  1.5988469e-01
  2.6551831e-01
  4.1602515e-02
 -1.3675840e-02
 -9.7293578e-02
  3.6068175e-02
 -2.7827063e-01
 -2.6395771e-01
 -2.1582045e-01
  1.4106947e+00
 -1.8579928e+00
 -1.1512803e-01
 -4.7195178e-01
  3.5582425e-04
  9.6508771e-02
  4.6389401e-01
  7.1831591e-02
  1.1951883e-02
 -1.0524856e-02
 -4.9616057e-02
 -1.7314713e-02
  1.4222091e-01
  1.0171826e-01
  2.5211116e-02
  1.6905963e-01
 -6.9057584e-02
 -5.8961459e-03
  3.8271122e-02
  1.2823253e-02
 -6.1181508e-02
  1.4851096e-01
  2.2614868e-01
 -3.0874414e-02
  4.9355958e-02
 -3.3646509e-01
 -8.7225512e-03
 -7.6583009e-03
  2.6634870e-02
  6.2777311e-02
 -9.2922248e-02
  1.0037529e-01
  2.6743805e-01
 -3.6299951e-02
  2.1950269e-02
  1.0541043e-01
  3.4151308e-02
 -2.8681198e-02
 -2.6000684e-02
 -7.0657752e-02
  2.2214577e-02
  6.8198830e-01
 -1.0883939e-01
  9.3920596e-02
 -9.6899522e-03
  1.1023305e-01
  5.7484988e-02
 -6.8454078e-04
  2.4895650e-01
  9.8939007e-03
  7.3262299e-03
  2.2024609e-02
 -4.3274917e-02
  2.7981395e-01
 -5.9282549e-02
  7.7209440e-03
  4.8297819e-02
  5.5540316e-02
  2.1323791e-02
 -1.4553312e-02
 -4.1328039e-02
  3.4020137e-02
  9.6491240e-03
 -1.6900291e-01
  5.2401569e-02
 -1.7259251e-01
 -1.3344285e-01
  1.8641065e-01
  1.2037645e-01
  1.8108673e-02
 -5.3310178e-02
  2.8524939e-02
  4.6542831e-02
  1.0707532e-02
  1.0639316e-02
 -4.7429375e-02
 -1.2430157e-01
 -9.9287257e-02
 -1.1988857e-01
  7.0777731e-03
 -1.2836653e-01
 -8.1041809e-03
  7.1977824e-02
 -7.5242937e-02
 -4.3533687e-02
 -3.7245090e+00
 -1.5454078e-01
 -3.7880018e-02
  5.6432406e-03
  7.4258666e-03
  3.0561328e-02
  4.7592752e-02
 -1.8066749e-02
 -3.7240043e-02
 -5.3305943e-02
  3.8041742e-04
 -8.7525874e-02
 -1.0583329e-01
 -9.8199710e-02
 -1.3557036e-02
  1.2554836e-01
 -1.5239567e-01
  1.8439133e-02
 -8.1554061e-01
  1.6105959e-02
 -8.2220173e-01
  2.7814043e-01
 -1.2029663e+00
 -4.4495234e+00
 -1.0269017e+00
 -2.0260035e-01
  1.8791945e-01
 -1.0669866e-01
  4.6546462e-01
  4.4791996e-02
  3.9593548e-02
  3.4422729e-02
 -2.0958332e-02
 -2.7356964e-01
 -2.0931819e-01
  5.6044232e-02
 -3.1309009e-01
  9.3535513e-02
 -5.9591699e-01
  9.6024954e-01
  1.7896746e-01
 -1.3864875e-01
 -2.4466433e-02
  4.9399185e-01
  1.1450654e-01
 -8.5467324e-02
  1.3159350e-02
 -1.7562713e-01
  1.8811798e+00
 -2.4816599e-01
 -1.5052921e-01
 -1.7419815e-01
  5.9916967e-01
  2.2950318e-01
  4.5041409e-01
  2.7846092e-01
 -5.0873091e-03
  1.2991005e-01
 -9.0008778e-03
  1.9508641e-02
  3.0707235e-02
  1.0726533e-02
  1.2979585e-01
 -3.0248024e-02
 -1.4372961e-01
 -6.7525856e-02
  3.9402176e-02
 -2.4466487e-02
  2.2162065e-02
 -1.5243717e-01
 -4.6463381e-02
  8.1008933e-02
  4.9343348e+00
 -2.4226797e+00
  1.4985873e+00
  3.0505118e+00
 -3.5764380e+00
 -1.1338162e+00
  1.7144856e+00
  2.5500798e+00
  8.8527193e+00
  1.6748282e-01
  2.5519979e+00
 -3.6285830e+00
  5.9832603e-01
  3.5233824e+00
 -2.2356691e+00
 -2.1031425e+00
  1.9336935e+00
 -2.5569446e+00
 -1.7159786e+00
  1.9203701e+00
 -1.6026578e+00
  5.6371070e-03
  3.1728575e+00
 -1.7440504e+00
 -2.9618535e-03
  1.7937390e+00
  2.7187927e+00
 -1.6790336e+00
  7.0830965e-01
 -1.5874959e+00
 -1.2985345e+00
  2.7342834e+00
 -8.7689030e-01
  7.3214787e-01
  1.9682920e+00
  1.3366468e-01
 -8.5033250e-01
  9.5209613e-02
 -1.1719013e+00
 -6.1994016e-01
  1.2557200e+00
 -3.9338958e-01
 -4.5872870e-01
  1.5158521e-01
  1.3309233e+00
 -2.6731929e-01
  2.0181320e+00
  8.7780811e-02
  1.0116646e-01
  3.0670293e-02
  4.2692453e-02
  2.1983653e-01
  5.8727866e-01
 -2.9472327e-01
  3.5295878e-02
  9.0480453e-01
  7.5949758e-02
  3.2570291e-01
  2.9745841e-01
  4.2659795e-01
 -4.4655982e-01
  1.5470325e+00
  2.5385995e+00
 -3.8952557e-03
 -2.6778290e-01
  4.4246733e-02
 -1.3932620e-01
 -1.6975336e-01
 -5.0443005e-02
  1.2357400e-01
 -9.0398103e-02
  1.7043892e-01
 -1.0780624e+00
 -4.1592872e-01
 -8.8710356e-01
 -2.8687003e-01
  9.0979777e-02
  3.5554156e-02
 -2.5810489e-01
 -1.3701719e-01
 -4.6903022e-02
 -3.5614248e-02
  6.8221897e-02
 -8.5167021e-01
 -9.2713702e-03
  2.8637597e-02
 -2.9145548e-02
 -2.3360938e-01
 -3.8277347e-02
  1.5127124e-01
 -4.2781020e-03
 -1.1273272e+00
 -5.3518713e-02
  1.1670137e-02
 -6.3753277e-02
  8.4634952e-02
 -2.5584516e-01
 -7.0835659e-03
  2.2962639e-02
 -1.3591219e-01
  1.2824661e-02
  2.4084963e-02
  2.0357762e-01
 -4.4033088e-05
 -7.2321281e-02
  2.6236454e-01
 -3.6535993e-02
 -1.0619354e-02
  2.2572823e-01
  1.3096483e-01
  1.0145774e-01
 -6.4178145e-01
  3.1379092e-01
 -2.9975576e-02
  6.4415872e-01
  6.6970843e-01
 -6.0886718e-02
 -2.6314822e-01
  2.9878244e-02
  5.8101378e-02
 -1.2020312e-01
 -9.9427877e-03
 -4.6585914e-02
 -2.7749056e-01
  8.0764875e-02
 -2.1749847e-01
  8.9308119e-01
 -3.7329537e-01
 -1.6672160e-02
  2.6482365e-03
  2.7183093e-02
  2.7007706e-02
 -3.6735761e-01
 -5.5660546e-02
  9.6464045e-02
  2.4346676e-01
  3.3906719e-01
 -7.8695066e-02
  1.0435097e-02
 -9.2568062e-02
  1.5820795e-01
  3.8270123e-02
  1.0860474e-02
 -3.5745472e-01
 -8.5987806e-02
  2.7906694e-02
  1.5488936e-01
 -1.3063362e-02
 -4.2650159e-03
 -1.2983499e-01
  5.5248351e-03
  1.3981490e-02
 -6.0853891e-02
  8.2756482e-02
  2.3326511e-02
  2.4619412e-01
  1.0290137e-01
 -5.2562967e-02
 -1.2800405e-02
 -1.8034057e-01
 -1.0173857e-02
 -5.5347756e-03
 -1.9457289e+00
  1.2653580e-01
 -1.1198945e-01
 -8.1196427e-01
  1.7334955e+00
 -2.1285003e-01
 -5.2840829e-01
  5.3758007e-01
 -7.1541781e+00
  3.1491205e-01
  9.4809604e-01
  2.8496554e+00
  2.7141302e+00
  3.0782723e-01
 -1.1995313e+00
  2.9484191e+00
 -1.0181067e+00
  3.1001372e+00
  5.2466117e-02
 -1.4483680e-01
  1.7203873e-01
  1.9097863e+00
  5.2176893e-01
 -9.5147781e-02
  9.8661363e-01
 -3.8282767e-02
  4.8717424e-01
  4.7210744e-01
  5.1800680e-01
  1.4024580e+00
  2.8869736e+00
 -1.3488021e-01
 -1.3302771e-02
  2.6575124e+00
 -5.9451544e-01
 -1.6949813e+00
  2.8145298e-01
  8.5614812e-01
  3.2191125e-01
  1.5816024e-01
 -9.4238985e-01
 -6.6914314e-01
  2.2787340e+00
 -1.1034865e+00
  4.7985372e-01
  4.3277469e-01
  3.0158472e-01
 -4.6511105e-01
 -7.3206794e-01
  3.5508979e-02
 -1.5266017e-03
  5.2152634e-01
 -2.2812776e-01
  3.3890316e-01
 -9.6328378e-01
  3.9967960e-03
 -2.2872233e-01
  3.4001318e-01
 -2.5064409e-01
 -1.2739193e+00
 -4.6338841e-01
 -5.7749069e-01
 -1.7311620e+00
 -2.0617204e+00
 -1.8568289e-02
 -1.4665553e-02
 -2.7044244e-02
 -2.4696194e-01
  4.1149903e-02
  2.7026699e-03
 -1.4417748e-02
 -8.4444106e-02
  1.9481985e-01
 -1.4348394e-01
 -6.1546136e-02
 -2.4255750e-01
 -3.1339765e-01
 -5.4656833e-02
  4.3742806e-02
 -9.7314477e-01
 -1.3006741e-01
  2.1024622e-01
 -3.8452035e-01
  1.2753843e-01
  5.2530155e-02
  5.4394711e-02
  1.2785637e-01
 -6.2606744e-02
 -1.6518636e-01
 -5.9701599e-02
 -1.4883468e-01
 -8.5944228e-02
  8.0428100e-01
  2.4309916e-02
 -1.0531013e-01
 -4.5634456e-02
  1.0030845e-01
  1.7598767e-02
  6.4119853e-02
 -7.0519365e-02
 -8.9810520e-02
  8.9399599e-02
  1.5236646e-01
  1.3502693e-03
 -3.1399909e-02
 -2.1274310e-02
  2.2215891e-01
 -3.4404323e-01
 -5.2462393e-01
  1.3023694e-01
 -9.9433241e-03
  1.9708406e-02
 -8.3128221e-02
 -4.6258673e-01
  6.5162110e-01
 -2.0264807e-01
 -1.6425343e-01
  2.4669053e-01
 -4.6376485e-02
 -4.1458479e-01
 -5.8393359e-02
  4.4779055e-02
 -1.1202087e+00
 -5.8832727e-02
  2.9576976e-02
 -7.6877080e-02
  2.0007767e-02
 -8.5116796e-02
 -1.5903505e-02
  1.1672657e-01
 -1.3677195e-01
 -9.2965253e-02
 -6.3895875e-01
  2.6311752e-01
  1.4635387e-02
 -2.5829991e-02
  3.1800622e-01
  3.1003603e-01
 -5.4600827e-02
  1.8275077e-02
  2.9448032e-02
 -6.8714805e-03
  7.1613885e-02
  5.6523669e-01
  9.6489228e-03
 -3.4377214e-02
  3.7113214e-01
 -1.8629239e-01
 -1.6448820e-01
 -6.7041166e-02
  3.1681679e-02
  7.6555517e-03
 -2.8764587e-02
 -3.2952980e-03
  7.6790722e-03
 -2.3787264e-02
 -9.9702537e-02
 -1.6988710e-01
  1.6498336e+00
 -1.0463951e-04
  3.1498778e-01
 -7.4267007e-02
 -1.4432210e-02
  1.6321640e-02
 -1.2343311e-01
  2.6959825e-01
 -1.4262721e-01
 -1.1283076e+00
 -1.5607322e-02
 -4.4147846e-01
 -3.5941610e-01
  1.1568793e-01
  1.6525577e-01
  2.5746763e-01
  1.7004010e-01
 -1.4936543e-02
  1.0188609e-01
 -2.2470707e-02
 -4.2135239e-02
  1.0416158e-01
  2.2202069e-02
 -5.5346597e-02
  3.5875641e-02
  2.9099575e-01
  2.1300477e-01
 -5.9343521e-02
  6.0975516e-01
  7.4185751e-02
 -5.6745440e-02
 -8.6067338e-03
  7.3059753e-02
 -4.5328647e-02
  7.9787932e-02
 -3.3295646e-02
  5.1789299e-02
  2.1274574e-02
  8.8480674e-03
  4.8130083e-01
 -2.3766750e-02
  1.3399924e-02
  8.7222926e-02
 -2.2437122e-02
  2.5869390e-01
  4.2808942e-02
  2.0914546e-01
 -6.1315734e-02
 -2.1950352e-01
 -1.9173330e-02
 -3.6154985e-03
 -4.6304315e-02
  6.9238834e-02
  1.0424066e-01
 -8.0399148e-02
  8.1351079e-02
 -1.1223684e-01
 -4.3782700e-02
 -4.4336807e-04
 -9.7098323e-03
 -1.4287912e-03
  2.6905308e-02
 -8.5772403e-02
  6.6852115e-02
 -5.4355215e-02
  2.1861030e-02
 -7.0787080e-02
  6.3455023e-02
 -2.3542695e-01
 -3.0622420e-01
 -3.0996438e-02
 -9.9357687e-02
 -1.1186183e-02
  1.1596132e-02
 -4.9508903e-02
  5.0375428e-02
 -4.4920694e-02
  5.8737576e-02
 -3.3705315e-01
 -3.7985206e-02
  4.3667904e-01
 -6.2465185e-04
  4.9796298e-02
  5.8188951e-03
  7.7104364e-03
 -3.9744306e-02
  6.1397702e-02
 -6.8724588e-02
  2.1720064e-01
 -4.6700276e-02
 -2.1576519e-01
  1.1464280e-01
  1.9020230e-02
 -6.5070391e-02
  2.7002132e-01
  2.9077771e-01
  9.7869411e-03
  1.0216639e-01
 -2.4830325e-02
 -3.4266260e-02
  5.8646265e-02
 -3.2247184e-04
  4.7320351e-02
  2.5617775e-02
  1.6157096e-02
  7.8526244e-02
  6.7625150e-02
 -8.9568533e-02
  1.3724588e-01
 -6.3077100e-02
 -5.9380364e-03
  3.0028068e-02
 -1.1159431e+00
 -3.8940266e-02
 -2.2130305e-02
 -1.3330160e-03
  1.2188939e-01
  7.8209110e-02
  4.9792975e-03
  1.9073123e-01
 -5.2986953e-02
 -3.8155567e-02
 -9.3590319e-02
 -1.6619425e-01
  1.3079649e-03
 -5.6794580e-02
  3.5929218e-02
  1.0367149e-02
  1.8347261e-02
 -1.3788095e-01
 -1.3487953e-01
 -1.0823101e+00
 -1.2759861e-01
  6.3436918e-02
  9.9468511e-03
  6.7792393e-02
 -1.9105807e-01
  9.0841860e-02
  1.3751493e-01
  4.5002654e-02
  3.8256407e-02
  8.7048084e-02
  3.4262303e-02
 -1.0177803e-02
 -1.2424812e-01
  7.0794374e-02
 -7.5589634e-02
 -1.1297662e-01
  3.5396495e-03
 -1.3715380e-01
 -2.8159219e-01
 -5.6080140e-02
  4.4668610e-03
  2.3833980e-01
  9.9512443e-02
 -1.1624383e-02
  4.4101954e-02
 -9.5720906e-03
  7.5858422e-03
 -2.8282454e-02
  2.5842065e-02
 -1.2876432e-01
  2.6869973e-02
  2.3424868e-02
 -4.7180511e-02
  1.6747954e-01
  2.0671365e+00
 -1.5300775e-01
  1.0082439e+00
  2.3780594e+00
  1.6595098e-01
  1.6266458e-01
 -3.2119715e+00
 -1.5632780e-02
 -2.8183930e+00
  3.5648128e-01
 -7.2924338e-02
  2.2835381e+00
 -6.4857721e-01
  1.3097476e+00
 -1.2628808e+00
  3.8784239e-01
  5.3402799e-01
  6.1696750e-01
 -9.1276087e-02
 -3.4545714e-01
  2.7098658e+00
  3.6122909e-01
  1.6320203e-01
  1.2601475e-01
  1.5547587e-01
 -4.3726247e-02
  2.1989746e+00
  1.6564969e+00
  2.1095501e-01
  7.2948450e-01
  3.2534075e-01
  1.0909036e+00
  6.7381330e-02
 -4.3553870e-02
 -9.2955001e-02
 -2.6182511e-01
  1.2241629e+00
  3.4411243e-01
 -1.8982497e+00
  7.0247012e-01
  2.2905815e+00
 -4.1097555e-01
 -1.1772856e+00
  7.0190844e-03
  1.4739430e+00
  1.4332323e-01
  5.9078079e-01
 -1.2442641e+00
 -1.0840303e-01
  1.2211272e-02
 -1.2067804e-01
  2.0874649e-01
  6.2257588e-02
  6.4045900e-01
 -2.8611278e-02
 -4.7144046e-01
  2.1482679e-01
 -3.2723904e-02
  5.4593176e-02
 -5.6503528e-01
 -3.1178218e-01
 -6.6967055e-02
 -7.0365973e-02
  3.3269808e-01
  2.6690332e-02
  1.2624200e-01
 -3.7833400e-02
 -6.9050990e-02
 -2.3729219e-04
 -2.1261890e-01
  4.7989216e-02
 -1.1421503e-02
  4.9732439e-02
  5.4006368e-02
 -1.6690540e-01
 -3.6328066e-02
 -1.8562730e-04
 -2.7426052e-01
 -1.2181064e-02
 -3.0004092e-02
  5.6765459e-02
 -2.9930266e-02
 -5.8461301e-02
  6.3589297e-02
 -2.5623795e-03
 -7.9081938e-02
 -3.4414191e-02
 -7.8009196e-02
 -7.8190351e-05
  3.1230941e-02
  4.2799741e-02
  1.3360563e-01
  8.5503906e-02
 -5.1247597e-02
 -3.1596035e-02
  9.0148943e-03
  3.3429479e-03
  1.8477812e-02
  1.3653602e-01
  5.7884227e-03
 -5.1521096e-02
  1.4581201e-02
  2.6035544e-01
 -7.2417699e-02
  6.4576328e-02
  3.4755975e-02
  8.0101967e-01
 -2.3478344e-02
 -1.0723383e+00
 -4.3607807e-01
 -1.8820550e-02
  4.9116530e-02
 -9.9521130e-01
 -9.5917952e-01
 -8.4339052e-01
 -1.3821459e+00
 -1.1436699e-01
 -2.0910566e-01
  5.0759739e-01
  6.6714114e-01
  1.4124538e-01
 -1.2761256e-01
  3.3180140e-02
  6.1461282e-01
 -1.1388046e-01
  1.0741130e-02
  2.9282749e-01
  1.3864075e-02
  6.6955894e-02
  6.9647498e-02
 -1.4099293e-02
  9.6977437e-03
  1.4006761e-01
  4.8809163e-02
  1.0474507e+00
  2.3911472e-02
  4.3158364e-02
  5.0398362e-01
  1.8265568e-02
  6.9074400e-02
  2.8181773e-01
 -1.9535569e-02
  2.7450414e-02
  3.0964079e-01
  3.8043436e-01
  1.2548338e-01
  9.2613690e-02
  1.2997848e-02
  8.2578249e-02
 -7.9740994e-02
  1.9114170e-02
 -2.2894932e-01
  3.5811457e-01
 -4.3502876e-01
  1.1385988e-01
 -5.2671671e-02
  1.8775390e-02
 -1.0874660e-01
 -1.4585717e-01
 -3.4036576e-03
 -2.0319389e-02
 -1.7238976e-01
 -9.0799242e-02
  2.0295662e-01
 -3.6803296e-01
  2.0940425e+00
  1.3599273e+00
 -1.2941238e+00
 -1.7653035e-01
  7.9077810e-02
 -1.2661016e+00
  8.4886277e-01
  6.3830054e-01
  1.6197996e-01
  6.7122865e-01
 -2.7049866e-01
 -8.3313394e-01
 -3.9791358e-01
 -2.0163493e-01
 -1.6264726e+00
  2.0464916e-02
 -1.7822897e+00
  1.0937507e+00
  1.3181789e-01
 -4.9962202e-01
  4.1516331e-01
 -3.2765165e-02
 -2.7929300e-01
  1.7440400e-01
 -7.9017192e-01
  1.7881745e-01
  3.0941907e-01
 -1.7861362e+00
 -1.5217985e-02
 -4.0061572e-01
  1.3530725e+00
  6.5825772e-01
 -2.9589555e-01
  1.6858029e-01
 -3.7151334e-01
  3.8700110e-01
 -5.1247098e-02
 -3.2011442e-02
  4.8632748e-02
  1.1030279e+00
  1.1298446e-01
 -8.1339991e-01
 -4.5889950e-01
  1.5688294e-01
 -1.9659683e-01
 -7.2102475e-01
 -8.6120684e-03
  1.3014075e-01
  8.4287524e-01
  5.0853562e-02
 -1.4841268e-02
  2.0320024e-02
 -9.3155301e-01
  3.6114633e-02
 -5.4954511e-01
  8.0931606e-03
  1.3850375e+00
  1.0283272e+00
  1.6722070e+00
  1.6894588e+00
 -9.9983126e-01
 -7.9614806e-01
 -5.4662716e-01
 -5.5238999e-02
  1.3965379e-01
 -2.1252708e-01
  4.9891323e-02
 -8.5625134e-02
 -3.3811563e-01
  3.7486285e-03
 -1.2830263e-01
 -1.1189746e-01
 -6.6341656e-01
  3.1632725e-02
  7.4159747e-01
 -4.6929714e-01
 -5.3820664e-01
 -1.6227229e-02
  3.0820284e-02
  2.4423428e-02
 -4.9324553e-02
 -3.4410721e-01
 -5.3339247e-03
 -1.3685097e-01
  9.3290098e-02
  2.5014913e-02
 -4.0099120e-01
 -3.3517009e-01
  2.2480707e-01
 -6.4686888e-01
 -5.6602746e-02
 -5.7767410e-02
 -1.5109555e-01
 -9.0176958e-01
 -4.9311820e-02
  1.4159540e+00
  2.6081344e-01
 -2.4842443e-02
 -1.6603647e-02
 -2.1731120e-02
  1.5709352e-01
 -1.4032026e-01
 -7.9506986e-02
 -8.7789372e-03
 -1.6306190e-02
  2.3353953e+00
  5.0032234e-01
  2.9073879e-02
 -4.8123094e-01
 -1.4242783e+00
 -4.6920711e-01
  5.9322977e-01
  4.9516879e-02
 -7.3287755e-01
  3.5341740e-01
  3.8726440e-01
  9.6654659e-03
  2.0151022e-01
  2.6603440e-02
  6.8317596e-03
  1.2221641e-01
 -9.1479987e-02
 -1.6288583e-01
 -7.7651232e-03
  2.7007291e-01
 -7.3980492e-01
  5.9536405e-02
 -2.6368365e-01
  7.1109599e-01
 -8.6202765e-01
 -9.7130215e-01
 -1.8173802e+00
  1.4933547e-03
  3.7511222e-02
  3.4143079e-02
 -8.8012917e-03
  1.7392933e-02
 -5.7598580e-02
  5.6311566e-02
  3.1402391e-01
  1.2350951e-01
 -8.5527086e-01
 -7.1424386e-03
 -6.8032913e-02
 -1.0836242e-02
 -1.4344254e-01
  3.8481507e-01
  2.9882047e-02
 -2.0621476e-01
  3.3185143e-02
 -6.3111788e-01
 -8.7514833e-02
 -5.3533770e-02
 -4.2508692e-01
 -2.6886730e-02
  2.3458052e-02
 -1.2346014e-01
  9.4244489e-03
  5.4388976e-01
 -1.0554716e-01
  2.8784423e+00
 -1.7679135e+00
 -4.4559956e-01
  1.9147365e+00
  9.9865025e-01
 -1.3803868e-01
 -1.9097627e+00
 -1.9853325e+00
  6.2340919e-02
  1.3779725e+00
  2.1517575e+00
 -7.5195295e-01
 -2.9497442e+00
 -7.9069041e-02
  1.0833579e-01
 -4.0032610e-01
  2.3133302e-02
  2.3689482e+00
 -5.3581989e-01
 -9.0257037e-01
 -4.5595980e-01
 -1.0342752e+00
 -2.7203459e-01
 -4.5228410e-01
 -2.6395051e+00
 -9.9636406e-01
  1.3316648e-01
  2.0853609e-01
  1.5080486e-01
  5.5770326e-02
 -1.4916508e+00
  4.1760483e-01
 -1.1180867e-01
 -1.8971467e+00
  7.8273369e-03
  1.7341337e-01
 -2.8705922e-01
  1.8172514e-01
  1.5349494e-01
 -1.1735771e+00
  2.0573565e-01
  1.1150025e+00
 -2.1181346e-01
 -1.0193652e-01
  4.4213600e-02
  3.2468710e-02
 -9.8867156e-02
 -1.7160849e-01
 -1.1807295e-01
  6.2295314e-02
  9.4224624e-02
  1.2302411e-01
  9.9456189e-03
  3.7025423e-03
  5.0260764e-01
  1.3244662e-02
  1.0577837e+00
 -1.3572662e-01
 -5.5032843e-01
  8.9122987e-01
  1.4703491e-01
  1.5794739e+00
 -9.4541121e-01
 -5.9235662e-01
 -2.9507956e-01
  3.8921509e-02
  1.7191020e-01
  8.9418240e-02
 -1.0198146e+00
 -2.1419598e-02
  4.7900839e+00
  8.5778034e-01
  3.5413399e-02
  7.6623315e-01
 -1.7522989e-02
  7.8587264e-01
 -4.8453860e-02
  1.9583085e+00
 -1.2559596e-01
 -1.5613303e+00
 -2.5295174e-01
  1.0344609e+00
  1.3714145e-01
 -8.0939665e-02
 -1.2118576e+00
 -1.2812138e-01
  3.0827069e-01
  1.9279754e-02
  1.0183086e-02
  9.5394731e-01
 -2.3185930e+00
 -3.9095053e-01
  2.5446814e-01
  7.7414170e-02
  3.8016062e-02
 -8.3979982e-01
 -3.8006136e-01
 -3.8412800e-01
 -5.8460150e-02
 -1.3867099e-02
 -5.4333609e-02
  3.8948909e-03
 -7.3462999e-01
  3.8079355e-02
 -1.0262612e-02
  2.8877947e-01
  7.0857143e-01
 -3.2321557e-02
  1.8392362e-01
 -5.3108530e-03
 -4.9624130e-02
 -6.6506559e-01
  3.1507412e-01
  1.4550345e+00
  5.9441499e-02
  6.4218499e-02
  1.7588893e-02
 -2.0351268e-01
 -2.3528498e-02
  7.1638897e-02
 -2.7337512e-02
 -4.8072331e-02
  9.0366162e-02
  1.1855432e-01
  1.1349352e-01
 -9.1610797e-02
 -1.4974965e-02
 -1.4244542e-01
  1.0491989e-02
  7.7986449e-02
 -6.3496806e-02
 -2.5626731e-01
  3.2816727e-02
 -1.6587430e-01
 -2.2692956e-02
  5.2669328e-03
 -4.3383427e-02
 -1.0481720e-01
 -4.1358043e-02
 -5.8066271e-02
 -1.3777357e-01
 -5.2838970e-02
 -3.8791489e-02
  3.0643757e-02
 -3.0931823e-02
 -3.0134216e-02
 -1.4788922e+00
 -3.5740823e-02
  6.8497144e-02
  7.3276296e-02
  8.3571352e-02
  5.8080319e-02
  2.2712443e-02
 -2.0277600e-03
 -1.4113250e-01
  1.9431286e-02
  1.5163414e-01
  2.1952383e-01
  3.4265772e-02
  2.9982531e-02
 -6.5080591e-02
 -1.0882654e+00
 -1.5209562e+00
  6.0426193e-01
  1.4540823e-01
 -3.4734097e-01
  3.6732966e-01
 -7.8065747e-01
  5.3317958e-01
 -1.5338736e+00
  3.6460829e-01
  1.4002528e+00
  3.7172696e-01
 -2.9119760e-02
  3.6498071e-03
 -1.3827970e+00
 -8.2585715e-02
  1.8746790e-01
  9.6040016e-01
 -6.4105088e-01
  3.4325409e-01
  1.1510373e+00
  6.6154641e-01
  6.4476959e-02
 -1.3152954e-01
  2.0464079e-01
  1.1921701e-01
  5.6646925e-01
  3.4817955e-03
 -1.4031722e-01
  9.0133645e-02
  3.8677084e-01
 -2.7862424e-01
 -2.1769874e-01
  1.6070046e-02
  2.8859982e-01
  6.2043792e-01
  5.5167805e-02
  4.1715974e-01
  5.7599717e-01
  6.8135840e-01
  9.0120482e-01
  5.0258998e-02
  1.1726933e+00
  1.9572005e-01
 -3.6976290e-01
  3.6651245e-01
  1.1356513e-02
 -1.4618744e-01
 -7.2773248e-01
 -2.8053334e-02
  7.2903514e-02
 -1.1570319e-01
 -2.8154746e-02
  7.3185628e-03
  1.9716563e-02
 -3.6103052e-01
  5.7248373e-02
 -3.0201405e-01
 -1.5068207e+00
  8.2901651e-01
  7.8925210e-01
 -1.6256053e+00
  1.6727933e+00
  4.7037390e-01
 -1.6046793e+00
 -6.5882796e-01
  1.0812925e+00
 -3.3577129e-01
 -8.0247097e-02
  6.9193381e-01
  8.5615504e-01
 -4.1806236e-02
  3.4841076e-01
  1.9637471e+00
  9.0744354e-02
  1.5109489e+00
 -3.5111573e-01
 -5.6096572e-01
 -4.0692759e-01
  7.9326153e-02
 -1.8777953e+00
  8.7398104e-02
 -2.2252008e-01
 -5.5807692e-01
  2.4157479e+00
 -1.8161276e-01
  1.2168009e-01
 -5.2787846e-01
 -1.0945101e-01
  7.1734512e-01
  5.2278321e-02
 -6.4244217e-01
 -2.5990838e-01
  3.3272138e-01
 -1.0534368e-01
  1.0867322e-01
  1.2109895e-02
  2.1663159e-01
  3.8071066e-01
 -2.0536052e-01
 -2.9474947e-01
  8.5375512e-01
  1.7457427e-01
 -5.4601568e-01
  1.2540555e-01
 -2.6376793e-01
  3.3441875e-02
 -1.7847361e-01
 -2.5083663e-02
 -6.9154941e-02
  8.4705651e-03
 -1.4900003e-01
  1.7478490e-02
  1.0095330e-01
  2.6942542e-01
 -1.0183348e-02
 -4.9389198e-02
  3.5414889e-01
 -8.3422279e-03
 -1.9772865e-01
 -3.3774108e-02
  3.4957811e-02
  4.8353034e-04
 -2.1463200e-02
  4.5593180e-02
 -9.6764334e-02
  1.2532069e-02
  7.0916787e-02
 -1.3500708e-01
 -1.5034434e-02
 -3.1617060e-02
 -1.5550275e-01
 -6.0532745e-02
 -2.2111706e-02
 -1.1008793e-02
 -1.1296067e-02
  2.7799118e-01
 -9.0779569e-03
  2.5879381e-02
  8.5882276e-02
 -4.9589306e-02
 -8.2374804e-02
 -7.9294577e-02
 -2.0954251e-02
 -2.0383197e-01
 -9.1848917e-02
  7.8884304e-02
 -4.6250105e-02
  1.2153934e-01
  5.2183732e-02
 -1.8632497e-01
 -5.6927964e-02
  4.5968750e-03
 -4.9186584e-02
 -1.2221318e-02
 -6.9249615e-02
 -2.4083138e-02
 -2.9902458e-01
  2.1068484e-02
 -2.5062189e-01
 -4.2227391e-02
 -5.2175831e-02
 -5.2033818e-01
 -1.4897041e+00
 -4.1953775e-01
  1.6029617e+00
  5.2356429e+00
 -9.8709005e-01
 -1.5948802e+00
 -4.1253492e-01
 -5.2911797e+00
 -1.7902444e-01
  1.8860555e+00
  2.8320446e+00
  8.2791942e-01
  8.0416694e-02
 -2.5840861e-01
  8.8436514e-01
 -1.7677788e+00
  1.5907356e+00
 -3.7156922e-01
  2.8200405e+00
  1.8642660e+00
  8.3124691e-01
  1.5287880e+00
  4.9214685e-01
  3.1937227e+00
 -3.2537324e+00
  8.1815505e-01
  1.2581805e+00
  4.9352238e-01
  1.3597537e+00
  1.3134919e+00
  7.0208937e-01
 -1.4295283e-01
  1.1122371e+00
  2.0412089e-02
 -6.0951775e-03
  5.4911596e-01
  3.8707206e-01
  7.8326821e-01
  6.4966637e-01
 -2.4377877e-01
 -1.0413580e-01
  1.7763698e-02
  3.8596654e-01
 -1.8823752e-01
 -2.3850128e-01
  1.8385243e-01
 -2.9783590e-02
  1.0210039e-01
 -3.4274426e-01
 -9.6855670e-02
 -9.5164634e-02
 -3.8787097e-01
  2.1673468e-01
 -8.6533673e-02
  2.6906797e-01
  9.5632243e-01
 -6.1198467e-01
  1.2895766e+00
  1.0494475e+00
 -2.0090868e+00
 -1.8539057e+00
 -4.4539380e+00
 -2.9640758e-01
 -2.6058793e-01
 -5.9283543e-02
  2.6642361e-01
 -8.3603120e-01
 -2.5627092e-02
  1.4184771e+00
  5.4439932e-01
 -2.1474264e+00
  1.2074194e-01
 -2.2502167e+00
 -3.5260952e-01
  5.8505857e-01
 -4.0233803e+00
 -2.3971663e-01
  2.6812975e+00
  1.3222834e-03
 -1.0524975e+00
 -2.7898252e-01
 -2.3929291e+00
  2.7841505e-02
  1.3488213e-02
 -8.2194310e-01
 -2.9326713e-01
  1.0083295e-01
  2.1568714e-03
  1.0117647e-01
 -1.5295088e+00
 -1.4677299e+00
 -5.4529643e-01
  4.0684715e-01
 -1.2568411e+00
  3.2407901e-01
  1.7841641e+00
  4.5081161e-02
  4.0464923e-01
 -3.2085800e-03
 -9.3010217e-02
  6.4773399e-01
  6.8900274e-04
  1.2193316e+00
  1.1148098e-01
  1.9450593e-01
  3.5559058e-01
 -8.2867056e-01
 -4.2492440e-01
  8.3828485e-01
  5.2671795e+00
 -4.7097553e-02
  3.2054660e+00
 -4.1211960e-01
 -2.8148959e+00
 -2.4273081e+00
 -5.4993606e-01
 -6.3586445e-03
 -6.2092543e-01
 -1.1809908e-02
  8.5718608e-01
 -1.2939738e-01
  7.4317372e-01
 -1.2338144e+00
  3.8737234e-01
 -6.3360505e-02
  8.0587220e-01
  4.1099104e-01
 -1.5705454e-01
  3.4430966e-02
 -7.5895101e-01
 -5.2236013e-02
 -8.1517301e-02
 -4.5217399e-02
  4.9554628e-01
  1.0047657e+00
  9.1319185e-01
  8.1245613e-01
  3.5661969e-01
 -1.2086774e-01
  6.4214163e-02
 -1.0525132e+00
  1.6523801e-01
 -1.3406079e+00
  2.2662316e-01
 -4.1160263e-02
 -1.0242151e-01
  1.4967582e-01
 -2.6789421e-01
 -4.5795841e-03
 -1.8266745e-01
  2.7724547e-02
  8.5675359e-02
  1.3809521e-01
 -9.3412720e-02
  1.3492360e-02
 -1.0013621e-01
 -1.9978559e-01
  5.2030079e-02
 -1.3125551e-01
 -9.7447552e-02
 -1.1356093e-02
 -6.4715154e-02
 -7.0832290e-02
 -4.6812958e-01
  2.5679098e-02
 -7.5647585e-02
 -9.1048610e-01
 -1.1668956e+00
 -1.6693437e-02
  2.4633141e-02
  7.7555574e-02
  1.9484179e-01
  5.0200235e-02
  1.0631220e-01
  1.5912695e-02
 -2.5532743e-02
 -6.7885853e-03
  7.0088327e-02
 -5.1534321e-02
 -5.8739357e-02
  1.5507995e-01
 -1.0119686e+00
  6.0028080e-02
 -5.3979017e-02
 -1.4833471e-02
  4.9345285e-02
 -1.7441033e-01
 -1.7743877e-01
 -6.0718469e-03
 -5.7435587e-02
 -6.7457664e-01
  3.1252567e-02
  4.5064129e-02
  3.4352257e-03
  1.9582305e-02
  3.8052719e-02
 -2.7890664e-01
  4.8544578e-02
  4.3781230e-01
 -1.4197285e-01
 -1.0648619e-01
 -5.7233743e-02
  1.2583500e-01
 -1.0542792e-02
 -3.7565179e-02
  9.9013522e-03
  5.0579612e-05
  4.7984429e-02
 -2.8085103e-02
 -6.1303088e-03
  2.5087353e-02
  5.0110325e-02
 -5.3289050e-01
 -1.6984244e-01
  1.3988424e-02
 -4.7000896e-02
  5.9382100e-02
  6.5406077e-02
 -1.9678098e-01
 -1.1306429e-01
 -2.2589799e-02
 -7.9622298e-02
 -1.0563807e-01
 -3.8718082e-02
 -3.5538215e-02
  4.3426789e-02
  8.2505159e-02
  2.8727062e-02
 -4.7259774e-02
  1.5637344e-01
  2.2609634e-02
  1.5958558e-01
  2.3682578e-01
 -5.9838075e-02
  7.3294237e-02
  2.0963906e-01
  2.1925399e-02
 -9.9354289e-02
  9.9275745e-02
 -8.3818339e-04
  3.1892020e-01
  6.5663278e-02
  9.2483386e-02
  1.8987644e-02
  3.8202297e-02
  1.2963621e-03
  2.8590105e-02
  2.9716736e-02
  2.0142239e-02
 -5.7970338e-02
  1.7588599e-02
  2.8857024e-02
 -2.4918912e-02
 -1.7617334e-02
  3.1003747e-02
  3.1227410e-02
  2.7100764e-02
 -2.8780796e-02
  1.4885310e-02
  7.1979523e-02
  2.4089660e-02
 -2.2624464e-01
 -3.5502203e-02
  7.1174979e-02
 -9.6686170e-02
  1.4708771e-01
  8.4491380e-02
  4.0513810e-02
  1.0287473e-03
 -6.1048555e-01
  2.9391858e-01
  1.9428873e-02
 -5.3219646e-01
  1.5856463e+00
 -1.0971783e+00
 -1.4440864e+00
  3.7831287e-03
  6.9160149e-02
  1.4658381e+00
 -9.2730656e-02
 -1.4930864e-01
 -5.0688267e-02
 -2.1361719e-01
  8.6459118e-01
 -4.8207942e-02
  4.7234394e-02
 -3.7574410e-01
  1.8475050e+00
  2.7264807e-01
 -1.3492852e+00
  1.3385345e+00
 -2.6537287e-01
  7.4467868e-02
  1.0077438e-01
  3.6364633e-01
 -2.0239658e+00
  1.9018850e-01
 -1.0349338e-02
 -2.9088488e-01
 -3.2420881e-02
 -2.1793561e+00
  3.1627852e-01
  3.2042794e-02
  1.7633326e-01
  7.1713783e-02
  1.5780320e+00
 -4.5135848e-02
  4.9428132e-01
  1.5174739e-01
 -7.6791108e-01
  1.2862608e-01
 -5.6474632e-01
 -1.3512088e-01
  1.5753216e-01
  1.2712775e+00
 -3.9279476e-02
 -6.0488170e-01
  4.5607996e-01
 -1.6014858e-01
  5.2811809e-02
  3.1703734e-01
 -8.3159665e-03
  1.5580057e-01
  4.1725733e-03
  1.5399957e-01
  1.2911427e-01
 -2.1925968e-01
 -9.7166738e-03
 -9.4007701e-03
  1.5541887e+00
  1.4742092e-02
 -7.4969828e-02
 -3.3119124e-01
  4.5880327e-01
 -6.4187542e-02
 -6.9266900e-02
 -1.1442949e-02
  5.1871959e-02
  9.4628161e-01
  1.1227240e-01
  2.0537578e-02
  1.3656549e-02
  7.8550562e-02
 -2.8271697e-02
  5.7366982e-02
  2.8769622e-02
 -8.9379707e-03
 -6.7299828e-02
 -2.7603769e-01
  9.3595251e-02
 -1.0492977e-02
 -1.3836363e-01
 -5.8452366e-03
 -8.0033205e-03
  5.3946219e-02
 -1.0092526e-01
 -4.1551422e-02
 -1.8572134e-01
  1.1376615e-02
 -1.0194524e-01
  1.1043704e-02
 -5.9473619e-02
 -5.0830035e-03
 -4.0074307e-02
 -1.1388674e-01
  1.7550503e-01
 -8.6209372e-02
  8.7820753e-02
 -3.6705196e-02
  1.4909069e-01
  2.8523773e-01
 -1.4327526e-01
  1.2473450e-02
  1.2746452e-01
 -8.8483259e-02
 -1.2216665e-01
 -1.0851799e-01
  4.7487730e-01
 -7.5954539e-01
 -1.6446464e+00
 -5.6172881e+00
  6.2955689e-01
  1.3933359e+00
 -8.0714720e-01
 -6.6738683e-01
 -7.8636515e-01
  1.3948416e-02
 -1.7693646e+00
 -5.2404916e-01
 -1.1281974e+00
  1.5990964e+00
  2.7474111e-02
 -4.0597057e+00
 -6.5386635e-01
  3.4613708e-01
 -1.0151978e-01
  4.0346399e-01
  1.8098073e-01
 -3.8831204e-02
 -2.0883856e+00
 -9.2034459e-01
 -6.1697417e-01
  2.2045977e-01
  4.3651603e-02
  2.3257172e-01
  1.0323926e+00
  9.1346264e-01
  1.1386927e-01
  3.1742759e-02
  1.9392928e-01
 -5.2687455e-02
 -2.2682665e-01
  6.0178453e-01
  3.9174818e-02
 -1.4753087e+00
 -1.2631246e-01
 -4.1198882e-01
  1.3119321e-01
 -7.0363253e-02
  4.8029721e-02
  8.6789047e-03
  2.3948708e-01
 -5.0144047e-01
 -4.6064295e-02
 -8.0573833e-01
  8.1183739e-02
  3.6186096e-01
  3.1597964e-02
  2.4890417e-01
  2.6705283e-01
  1.6081403e-01
 -1.8226270e-01
 -6.2099837e-02
  8.1615746e-02
 -6.3735321e-02
 -1.6065709e-02
  2.8401590e-03
 -3.3561602e-01
 -5.4667741e-01
  1.3587779e-01
  5.9832162e-03
  3.9782424e-02
 -8.9596011e-02
  6.3750674e-03
  7.5213172e-02
  9.5833756e-04
 -3.3803214e-03
  2.9464729e-02
  1.2334606e-01
  6.7188777e-02
  1.6023447e-01
  1.4108025e-01
  1.3740478e-01
 -5.4081015e-02
  1.8095374e-02
 -3.3613801e-01
 -2.6955895e-02
 -3.3323456e-02
  2.8649000e-02
  1.9864744e-02
  2.2469719e-01
  4.7255468e-02
 -5.1139365e-03
  1.5094825e-02
  7.8504018e-02
  7.1692288e-02
  1.2457073e-01
 -2.0942992e-02
 -4.4244822e-02
  7.9486591e-01
 -4.8104778e-02
 -1.1012129e-02
  2.4804000e-03
 -4.0788941e-02
  3.4016490e-02
 -8.6360062e-03
 -4.5118507e-02
  2.5287077e-02
  1.0762894e-01
 -6.1693420e-03
  1.5715979e-01
  1.8671703e-01
  9.4645768e-02
 -6.7866728e-02
  3.1370323e-03
  4.9059946e-02
 -1.8748434e-01
 -7.7322602e-02
 -9.3565412e-02
  1.1469864e-01
 -1.6111504e-01
  9.0588788e-03
 -6.9930367e-02
 -3.9160118e-01
 -5.4889385e-02
  4.7333896e-02
 -2.5149373e-02
  6.8809702e-03
 -7.0140466e-02
  1.8160658e-02
 -4.3800273e-03
  1.9015914e-01
  3.9083309e-02
  7.8849114e-02
  3.8548359e-01
 -1.6106774e-01
  4.2414948e-02
  1.0448492e-02
  1.7942639e-02
 -3.0161455e-01
 -4.8064977e-02
  2.1342546e-01
  1.8254312e-02
  9.0159528e-02
 -9.4734142e-03
  2.3947319e-02
 -4.2866837e-02
  3.9163362e-03
  4.8105162e-02
  6.2604919e-02
 -3.5796326e-02
 -2.5870293e-01
  2.7945990e-02
 -1.2632985e-01
 -2.1717208e-02
  1.3831898e+00
  9.7880788e-02
 -1.7375436e-02
 -3.8800381e-02
  2.7994990e-02
 -1.1362182e-01
 -1.4718673e-02
  2.5806856e-01
  9.6072055e-02
 -8.0702431e-02
 -6.3589416e-02
 -6.1538061e-03
 -3.3731200e-02
  6.4230993e-02
  1.0836217e-01
 -3.4380160e-02
  5.0522350e-02
  9.6609935e-02
 -1.0407823e-01
 -1.0448086e-01
 -1.6253799e-02
 -4.8604742e-01
  4.6992648e-02
 -7.6082759e-02
 -9.4420416e-03
 -2.7625455e-02
  1.6921289e-02
  5.4977082e-02
  5.6283884e-02
  2.0455826e-02
  2.6361135e-01
 -6.0934629e-02
  5.3141031e-02
  1.1328459e-01
  1.4734873e-02
 -6.3770376e-02
 -8.9343665e-03
 -2.0704208e-02
 -2.7760521e-02
 -4.6050355e-02
 -1.2546775e-02
 -6.3151665e-02
  7.1595192e-02
 -3.7203681e-02
 -1.4966883e-02
  1.9988456e-01
 -1.5318176e-01
  9.8286942e-03
  2.1990663e-01
  2.9697758e-01
 -8.2361721e-02
  6.6666710e-03
 -9.9928901e-02
 -9.7860321e-02
 -5.3607915e-03
  2.0879485e-02
  1.2577835e-01
  1.3636807e-02
  2.0854369e-02
  4.4257976e-03
 -7.2830236e-03
 -8.8275895e-03
  9.3530744e-02
  2.1763807e-02
  6.9337152e-03
  2.4218870e-02
  2.7500965e-02
 -1.4642790e-02
  1.6395932e-01
 -3.2244641e-01
  6.6806668e-01
 -1.0483832e+00
  6.4704724e-02
 -1.4341115e-02
  1.6439068e-01
  2.2058492e+00
  1.4327672e+00
 -1.0687248e+00
  1.6510665e-02
 -1.7625273e+00
 -4.1915187e-01
  3.0418485e-01
 -8.1778981e-02
 -5.2777499e-01
  2.7457319e-02
 -1.1617348e+00
  1.4688602e-01
  3.5174195e-02
 -9.7379148e-02
  1.9566603e-01
 -2.1581833e-01
  1.1443911e-01
  5.6376332e-01
  9.5000574e-03
  1.7581171e+00
  1.2396435e-01
  6.5263760e-01
 -4.7646597e-01
 -5.9860922e-02
 -2.7113961e-02
  4.0507201e-02
  6.6312529e-02
 -3.8085553e-01
 -6.6554911e-02
 -2.8791621e-02
 -3.5791788e-02
  1.3705671e-01
 -3.3494849e-02
 -9.7788346e-04
 -6.3777633e-02
  2.2902507e-01
  8.2764380e-02
 -2.9196685e-02
  2.9818216e-01
  2.3978768e-02
 -8.8246027e-03
 -6.0369659e-02
  1.2820172e-01
  1.1516991e-01
 -1.2895942e-02
 -1.3607861e-01
 -8.3433054e-03
  5.2370220e-01
  2.7994150e-02
  2.0153254e-02
 -1.3316298e-01
 -2.0377034e-02
  1.5647124e-01
  1.4057358e-01
  1.7015228e-01
  9.7147398e-02
 -8.6813240e-04
 -4.2378280e-01
  1.8373773e-01
  1.4076665e-01
  1.7799695e-01
 -1.0317671e-01
  7.6912396e-02
  2.0938741e-02
  5.4145968e-01
  8.5518487e-02
 -3.3778716e-02
 -3.3318140e-02
 -4.8229165e-02
 -4.4806334e-03
  2.6966345e-02
 -1.1715253e-01
 -1.9550521e-02
 -1.8597987e-01
  8.7105513e-02
 -1.2052330e-02
 -5.7684071e-02
  3.6523104e-02
  1.4528809e-01
  2.8986080e-02
 -1.1532822e-01
 -4.8804380e-02
 -2.1988533e-03
 -6.8136635e-03
 -1.2412950e-02
  1.6908246e-01
  6.5818396e-03
 -6.6925816e-02
 -2.0432234e-02
 -1.1498708e-01
 -4.7397867e-02
 -6.9523729e-02
  3.6805678e-02
  1.2578800e-02
 -1.2107293e-02
  6.9527060e-02
  1.0048815e-02
  1.2359432e+00
  9.4198018e-02
  8.7390549e-02
  4.2231458e-01
  5.5910689e-01
 -3.4249250e-02
  4.0483853e-01
 -1.1665823e-01
  2.4872443e-01
  2.9427793e+00
  3.4235480e+00
  1.7379465e+00
 -3.7876132e-03
 -1.2837505e-01
 -3.7419203e-01
 -4.7402017e-02
 -1.3875559e-02
  4.3318996e-01
 -7.6279426e-03
  8.2853168e-01
  1.1383857e-02
 -1.2281875e-01
  1.4926422e-01
  1.8593296e+00
  1.6297605e-02
  1.1542943e-02
 -3.9018175e-01
 -1.5435795e-01
  4.0579286e-01
  1.6600333e-02
  2.8699198e-01
  3.9306471e-01
  1.0103513e-01
 -7.3662840e-02
 -4.9578600e-02
  3.8198754e-01
 -5.9690494e-02
  1.1705370e+00
 -7.4483283e-02
 -9.1635227e-01
 -3.6425848e-02
 -1.5331793e-02
 -9.0831554e-01
 -8.1456013e-02
  1.6395330e-01
 -1.0269677e-03
  1.1383523e-02
 -7.8108422e-02
  3.2668248e-01
 -5.3989079e-02
  4.2604301e-02
 -8.5889041e-01
  3.3770319e-02
  7.7628605e-03
 -1.6088657e-02
  3.9003946e-02
 -3.7457332e-02
  2.9459676e-02
  3.9147374e-01
 -2.0603633e+00
  3.5635737e-01
 -1.5240284e+00
 -1.7148132e-02
  6.1551964e-01
 -5.8068955e-01
  9.1954418e-02
 -1.8893919e+00
  6.3951784e-01
  9.2337810e-02
  3.8053792e+00
  1.0215697e+00
 -1.3424698e-02
  1.1889919e-01
 -4.5384243e-01
  1.2244032e-01
  1.1904020e+00
  6.5401852e-01
 -1.3172232e-02
 -8.0635615e-02
  2.0012946e-01
  9.9783665e-01
 -6.5545660e-01
  1.6767185e+00
  3.7677038e-02
  1.8670671e+00
  4.0492529e-01
 -8.4471256e-01
  1.6321095e+00
  6.0831434e-01
 -3.1669560e-01
 -3.1556946e-01
  9.4235313e-01
  2.9534993e-01
 -4.4582006e-01
  4.9472979e-01
  2.2959797e+00
 -4.3591666e-01
  2.1352250e-02
  6.5761352e-01
 -6.7769581e-01
 -6.5562075e-01
 -6.7086655e-01
 -1.1413538e-02
 -5.1014896e-02
  2.8350601e-01
 -3.8163844e-01
  4.8729382e-02
  1.3240632e-01
  2.1345431e-02
  6.4710432e-01
 -5.1877767e-01
 -2.4269023e-03
 -5.9431446e-01
  1.2708396e+00
 -4.4656450e-01
 -4.9395376e-01
  1.5742505e-02
  2.0325773e+00
 -2.3857975e+00
 -7.9290622e-01
 -6.4771213e-02
 -1.8832454e-01
  8.4529573e-01
 -9.3870070e-03
  3.0183044e-01
  3.9838308e-01
 -1.6427232e-01
  2.3121436e-01
 -2.0554366e-02
 -1.9143255e-01
  3.2900554e-01
  1.7905268e-01
 -2.3858029e-01
  2.3108569e-01
 -1.1355614e-01
  1.0922411e-01
 -1.0559469e+00
  4.7934961e-01
  7.2259343e-01
  2.4011054e+00
 -9.3843244e-02
  2.0212136e-01
  1.9498456e-02
 -1.4973420e-01
 -1.2475131e-01
  2.5209613e-02
 -2.4682879e-01
  8.7563008e-01
  1.9962206e-01
 -3.5284519e-01
  3.0966488e-01
  4.3266425e-01
 -4.8406944e-01
  4.4173846e-01
  5.9470201e-01
  3.0813551e-01
  1.5498744e-01
  1.1183406e+00
 -8.8650517e-02
 -5.2267426e-01
  1.6154778e-03
  2.3084322e-03
  6.4020485e-01
 -8.3508164e-01
  4.9118795e-02
 -1.7577054e-02
  3.1586635e+00
 -2.7946866e+00
 -2.2306449e+00
 -3.9671424e-01
 -2.2201316e+00
 -7.4371231e-01
 -2.4339631e+00
 -1.7699523e+00
 -2.7044871e+00
 -3.3073192e+00
 -7.6149654e-01
  2.5801325e+00
 -4.2074478e-01
 -2.2355208e+00
 -2.8202200e-01
 -2.2398832e+00
  3.0166466e+00
  1.4931331e+00
 -2.6208560e+00
 -2.2907400e+00
 -2.4904280e+00
  2.8700912e+00
  6.2975597e-01
 -2.0386670e+00
  1.3124443e+00
  1.2973647e+00
 -6.2607574e-01
 -1.9178890e+00
 -1.0811913e+00
  1.6724427e+00
  2.4417827e+00
  7.0657104e-01
  3.6658904e-01
  2.5388212e+00
  1.6347386e+00
 -3.3645344e-01
  2.4701159e+00
  2.1799123e+00
 -2.4403396e+00
  2.0532701e+00
  1.5139619e+00
 -1.5216852e+00
 -2.9879138e+00
 -2.4208694e+00
 -2.7142401e+00
 -2.4681916e+00
  2.8439496e+00
  5.8234262e-01
  1.0185230e+00
  9.6641958e-01
  7.8260887e-01
  2.0049109e+00
  2.8383663e+00
  9.3161947e-01
  4.2140633e-01
 -1.4133834e+00
  1.0492655e+00
  8.7877065e-01
  1.1167997e+00
 -1.4704616e+00
  1.7926940e-01
 -4.6011302e-01
  1.0139467e+00
  1.2447071e+00
 -2.5866252e-01
  8.6776972e-01
  7.4866158e-01
  1.5866370e-01
  2.7646146e+00
  3.6476603e+00
  5.6120110e-01
 -1.0970037e+00
 -1.7425548e+00
  6.4174378e-01
  2.0151651e-01
  1.6239051e+00
 -3.0864179e-01
  5.6868595e-01
  1.0771204e+00
  2.1882672e+00
 -1.4092777e+00
  1.0200148e+00
  3.5077329e+00
 -9.0085137e-01
 -9.8494089e-01
  5.8098042e-01
  2.7469320e+00
 -3.5596991e-01
  5.4541314e-01
 -5.3464335e-01
 -5.6243914e-01
 -5.9837121e-01
  2.2099698e+00
  1.2181191e+00
  7.5060099e-01
  8.0256683e-01
 -2.1410997e+00
 -1.0219771e+00
  7.5514859e-01
  1.2320176e+00
 -2.8440275e+00
 -1.4591671e+00
 -2.2843053e+00
  1.8565588e+00
  1.3185754e-01
 -2.9711165e+00
 -1.2714887e+00
  1.0210845e+00
  5.2296734e+00
  1.1129545e+00
  1.5197059e+00
  2.3835142e+00
  3.1723090e-02
 -2.2504193e-01
 -1.7360773e+00
  3.1871542e-02
 -4.4803667e-01
  1.3528368e+00
 -2.3289337e+00
  1.5135045e-01
 -3.0536190e-01
 -1.9545789e-01
 -4.0753905e-02
 -9.7214240e-01
  7.5916207e-01
  1.2297864e-01
  3.2557204e-01
 -4.9209826e-02
  1.3847153e+00
 -9.7074038e-01
  1.3578444e+00
 -6.3275480e-01
 -3.8743773e-01
  1.7421334e+00
  2.8521907e-01
 -1.7241521e+00
  3.4112621e-02
 -3.9083323e-01
 -1.6493616e-01
  3.6143020e-02
 -3.2879156e-01
 -7.0612371e-01
  4.9342591e-01
 -2.4161546e-01
  6.6775537e-01
  7.6673824e-01
 -1.7219488e-02
  4.7307339e-01
 -8.8423369e-03
 -4.8029274e-01
 -5.7305738e-02
 -9.3443487e-03
 -1.0562266e-01
 -7.5985885e-01
  1.2809919e-01
 -3.8194794e-02
 -3.4694400e-02
  4.8287818e-01
  3.4335575e-01
 -2.1639953e+00
  1.4156607e-01
 -2.2571253e-02
 -1.0240047e-01
  3.9186351e-02
 -1.2416995e-02
  1.4848050e-01
  2.0124629e-02
 -1.5523776e-01
 -1.9063744e-01
 -1.8085225e-01
 -9.9861838e-02
 -8.3790615e-02
  8.4639769e-03
  9.6226605e-03
  1.4349261e-01
  2.6465088e-02
  5.3004410e-02
  1.2540968e-02
 -1.9505793e-01
  1.8806589e-01
 -9.4428711e-02
 -2.7249259e-01
  1.7157735e-01
 -1.9925168e-02
 -3.6907472e-02
 -2.7332395e-01
 -8.5291276e-03
  1.0381653e-02
 -1.1198287e-01
  7.3998278e-01
 -1.1188812e-01
  1.2696956e-01
  1.4617172e-01
 -7.9728201e-02
 -1.0038242e-01
 -2.8241921e-02
 -1.6754835e-03
 -2.0424271e-01
  6.3817054e-02
  8.0474302e-02
  3.3207802e-04
  2.2409000e-02
  1.8861141e-02
 -1.7291388e-02
 -2.0186465e-02
 -4.7234450e-02
 -3.0670660e-02
 -2.4251001e-02
 -5.3718054e-01
 -2.2926079e-01
 -6.4017143e+00
 -2.6300261e+00
 -1.4246109e-01
 -3.4663203e+00
 -3.0214133e+00
 -6.4658280e-03
 -1.4224666e-01
 -1.7529480e-02
 -1.2479572e-02
  4.8877554e+00
  2.4344178e-02
  1.5741509e-01
 -4.3953055e-01
  2.2348108e+00
 -6.2449002e-01
  7.1098357e-01
 -2.8564763e-01
  3.9967597e-01
  1.7431895e+00
  8.5530049e-01
  3.6960661e-02
  3.1712586e-01
  1.5373974e-01
  3.4563744e-01
  5.4848379e-01
 -9.3437597e-02
  1.0533838e+00
 -1.1442779e+00
  1.7129844e-02
  4.2054048e-01
  1.0203296e+00
  8.5193723e-01
  5.1865399e-01
  1.6868219e+00
  1.6245098e-01
  3.4717435e-01
 -5.2297801e-01
 -4.2149302e-02
  5.3034174e-01
  2.7217180e-01
  3.7243642e-02
  7.1875668e-01
  1.1577295e-02
  1.0949175e+00
  2.0899084e-01
  1.3072437e+00
  5.3776734e-02
 -1.1150376e+00
 -2.5653931e-01
 -5.3513531e-02
 -3.8075440e-02
 -5.6154728e-02
 -5.6547284e-01
 -1.6309269e-01
 -5.2469158e-01
 -5.5482328e-01
 -1.5700497e-02
  1.3222388e+00
 -7.1522081e-01
  7.0949577e-02
 -2.4761930e+00
 -6.5925911e-02
 -2.0612428e-02
 -1.5235123e-01
 -3.1308737e-02
 -2.6427746e-02
 -1.6281966e-02
 -1.4087372e-02
  1.2302231e-02
  5.3826533e-02
 -9.3439914e-02
  4.2866144e-02
 -1.2391865e-01
 -9.0755768e-02
  1.3196781e-01
  6.1534248e-02
 -1.1994639e-02
  7.1665548e-02
  1.0829842e-01
 -3.0258421e-02
  5.4102784e-01
 -1.1663119e+00
 -2.7826920e-01
 -9.4469994e-01
  2.6435447e-01
 -6.3075233e-01
 -6.1132795e-01
  6.4664790e-03
 -3.5652388e-02
 -4.9439003e-03
  2.1436110e-01
 -8.7320328e-02
 -1.5107444e-01
 -6.2099680e-02
  1.5293275e-03
 -4.2717314e-01
  1.9168906e-02
  1.0152549e-01
  7.5077087e-02
 -1.5712914e-01
  4.9308254e-03
 -5.5898381e-03
  1.0059278e-01
 -2.5444021e-02
  3.6052922e-03
 -3.3973806e-02
  3.1079566e-01
  2.4113106e-02
 -1.7396389e+00
 -6.8209893e-01
  3.2108957e-01
 -2.0610845e+00
 -1.3219067e+00
 -3.0210328e-01
  3.5801768e+00
 -2.4148142e-02
  5.9349650e-01
 -5.6164563e-01
 -2.1492079e-01
 -6.3561726e-01
  3.8590318e-01
  5.2651995e-01
 -1.0085304e-01
 -3.6360508e-01
  1.0286000e-01
 -1.5015669e-01
 -1.3317206e+00
 -4.3913148e-02
 -6.0241066e-02
 -3.6646965e-01
  1.3382096e+00
 -6.1803918e-02
 -3.0602798e+00
  1.1230498e-01
  3.5461092e-01
 -1.2700107e+00
  3.4985021e-01
 -3.7420672e-01
  1.6365722e-01
  1.4771812e+00
 -5.2744347e-01
 -5.6203961e-01
 -9.9200743e-01
 -6.0714293e-01
 -1.1703624e+00
  2.2206442e-02
  5.8477249e-02
 -4.4584524e-02
  1.3026465e+00
 -4.2478543e-02
  1.6094837e+00
  7.2786182e-01
  1.9083816e-01
 -1.1434041e-01
  7.1974605e-02
 -1.6869178e-01
  3.0348636e-02
  1.8711537e-02
 -2.4679321e-01
 -3.3737352e-01
  4.1799784e-02
  1.0744522e+00
  2.0943923e-01
 -5.9672129e-01
 -7.9342559e-02
 -1.2938899e+00
 -2.5514616e-02
 -2.6207879e+00
  3.5284501e-01
 -1.1283437e-01
  3.4509160e-02
 -4.2981604e-01
 -4.2168330e-02
 -1.9545466e-02
 -1.1416231e+00
  1.5188849e-01
 -4.7055483e-02
  3.7620533e-02
 -2.5296801e-01
 -1.1040454e-01
 -8.7743419e-01
 -2.3142509e-02
  1.3910358e-02
 -7.3651707e-01
 -1.9407995e-01
 -2.2368763e-02
  1.0325728e-01
 -1.5237921e-01
 -1.2257822e+00
 -1.5173804e+00
  1.4272587e-01
 -1.9293875e-01
 -9.5432214e-02
 -2.9185283e-01
  1.8854299e-01
  3.0396719e+00
  4.0529895e-01
 -2.3000295e+00
 -2.1298970e-01
  2.9780564e-01
 -2.1823229e-01
 -1.8102951e-01
  1.1966226e-01
  1.4453770e+00
  7.4831820e-01
 -6.7655114e-03
 -2.6813475e-02
  7.0701011e-02
 -1.5086286e-01
  5.1412228e-03
  1.1127583e-02
  2.0289531e-02
  6.9934838e-03
  8.9029074e-02
 -1.5683956e+00
 -3.4091991e-01
  1.5090545e-02
  4.0379477e-01
 -4.7421228e-02
 -2.5973408e+00
 -4.2448711e-02
  1.0207558e-01
 -3.2504353e-01
 -3.0116526e-02
  4.4735961e-02
  2.3796730e-01
  5.1700276e-01
 -9.7485483e-02
 -1.4275607e-01
 -1.4198991e-02
 -7.2277121e-02
 -1.7991581e+00
  1.7390630e-01
  6.7260437e-02
  9.4295043e-01
 -1.3663488e-02
 -6.0878169e-02
  1.3265944e-03
 -1.1728057e-01
 -7.8464851e-02
 -3.6022791e-01
 -1.9813120e-02
 -1.6702686e-02
  2.2890948e-02
  1.3637321e-02
 -5.4797399e-01
 -3.9529836e-01
 -2.5771561e-01
  4.9501660e-01
 -2.3900728e+00
 -1.8594325e-01
 -8.4450799e-01
  5.7030588e-02
 -4.1801903e-02
 -6.8841390e-02
 -1.7466006e-01
  1.4998625e-02
 -4.5768300e-01
 -4.5611295e-01
 -5.1642165e-02
  5.9905548e-02
 -8.5531190e-02
  3.2371905e-01
  2.0581758e-02
  3.4323711e-02
 -3.0893920e-02
  1.3982135e-01
  9.5730104e-02
  9.3776900e-01
 -2.3780209e-01
 -1.6923414e-01
 -3.1321392e+00
  1.1991569e+00
  1.0632479e+00
  1.8315370e-01
 -9.9093747e-01
 -9.5939565e-01
 -1.7556385e+00
 -1.1502709e+00
 -1.8159410e-02
 -1.9926888e-01
  4.3546686e-01
 -7.1836114e-01
  6.7466885e-02
 -4.1025183e-01
 -3.8832444e-01
 -1.5040582e-02
 -1.9618474e-02
  1.4614396e+00
  1.0522218e+00
  1.0438539e+00
 -5.9861887e-01
  1.9082619e-01
  1.1398699e-04
  2.1035451e-01
  3.6857191e-02
 -1.2038858e+00
  5.0054878e-01
 -2.7630857e-01
  1.4609422e-01
  2.5020760e-01
 -1.7852707e-01
 -9.4470239e-01
  1.7962409e+00
 -6.1426002e-01
 -7.2752482e-01
  1.4711934e-02
 -5.4340016e-02
  1.1715208e-01
  2.6360136e-01
 -5.2997661e-01
 -4.6091810e-01
  3.4551136e-02
 -3.7930679e-02
 -4.6976167e-03
  1.1721983e+00
  1.1642049e-03
 -3.1146166e-01
 -2.2187081e-01
 -3.1882782e-02
 -2.6679152e-01
 -5.4678987e-03
 -1.4242424e+00
 -7.9508126e-02
 -2.2571833e+00
  9.8304218e-01
  1.9426381e-02
 -2.1702100e-01
  6.1400831e-01
 -2.1710997e+00
 -1.7080401e-01
 -2.2696290e-02
 -4.6717670e-02
 -1.4215146e-02
 -6.2970415e-02
  2.1562636e-01
  1.3454874e+00
  3.8370743e-01
 -6.8828709e-02
 -8.7219244e-01
 -4.6057129e-01
  5.5041104e-03
  8.5874158e-01
 -1.5133736e-01
  1.1278223e-01
 -1.6748181e-01
  2.1316428e-01
 -6.6443676e-01
 -1.2275171e-01
 -5.4589546e-01
 -1.2782803e+00
 -7.8980103e-02
 -4.6556223e-02
 -2.2094771e-01
  2.0854682e-01
 -1.9607674e-02
  1.9786684e-02
 -6.9527006e-01
 -2.6166689e-01
 -2.8033438e-01
 -5.2136958e-01
 -3.4495050e-01
 -3.8487494e-02
 -8.2548805e-02
  2.5834868e+00
 -6.0085946e-01
 -1.4022653e-01
  1.7708724e-02
 -4.7948722e-02
 -2.4403038e-02
 -1.4865707e-01
 -2.2680467e-02
  1.0590997e-01
  3.7240885e-02
  5.1031519e-02
 -3.1861387e-02
  1.2142099e-01
 -7.6716736e-02
  1.4426721e-03
  7.3812306e-01
  1.8771631e-01
 -2.3264173e-02
  5.5844760e-03
  1.9406949e-01
  1.3489926e-01
  1.7816868e-02
 -1.6139247e-01
 -8.0110572e-02
  1.0279813e-01
  4.5219142e-02
 -7.0289582e-02
 -5.2905429e-02
  9.9759735e-03
  3.0738426e-02
 -3.2216591e-01
  2.1720529e-02
 -2.3117936e-01
  2.7097619e-01
  1.5714699e-01
 -5.0028369e-02
 -9.0656936e-02
 -1.2224654e-01
 -1.9924385e-02
  2.1767657e-02
  3.6570262e-02
 -3.7929618e-01
  1.6614575e-02
 -7.6689139e-02
  2.2857970e-02
 -6.4583316e-02
  5.7909619e-02
  3.1587426e-04
  7.3216558e-03
  6.4716659e-02
 -6.8577901e-02
  1.1494779e-02
 -6.8670459e-02
  1.9870747e-03
  1.6334470e-01
  3.4657106e-02
 -1.0031849e-01
  1.3709138e-01
 -5.6600478e-02
  6.3530497e-02
 -7.1806297e-02
 -2.0804740e-01
  3.6781199e-02
 -1.2640812e-01
  9.4311781e-02
  2.9949222e-02
 -2.3234775e-02
 -6.2763907e-02
 -5.3105935e-02
 -1.7141569e-02
  2.1571979e-01
 -5.5922009e-02
  1.0506491e-01
 -2.3390839e-02
  5.4846996e-01
  2.3320546e-02
 -2.7753197e-02
 -1.2913057e-01
  1.1399980e-01
 -1.7974595e-02
 -1.5544845e-01
 -5.2170184e-02
  1.7306286e-01
  4.3709379e-02
 -4.2340241e-02
 -3.2739613e-02
  7.9342285e-03
 -6.9448188e-02
  1.1325966e-01
 -8.3406689e-03
 -2.3134295e-02
 -7.6380946e-02
 -4.2565167e-02
 -1.1106943e-01
  1.8409926e-01
 -9.5726013e-02
 -2.0269442e-02
  3.8214859e-02
  4.4314332e-02
  1.0084885e-01
  5.0266698e-02
  1.0122673e-01
  9.2034027e-02
 -1.2225462e-01
 -1.1029551e-02
 -3.8868442e-02
 -5.9618684e-03
  9.0276962e-03
 -7.6865237e-03
  4.9252793e-02
 -1.0006132e-01
  9.6906029e-02
  6.3117795e-02
  6.9354768e-03
 -5.9650492e-02
 -2.1095191e-01
  3.0289698e-02
  1.7609164e-02
  1.7597709e-02
 -8.5889855e-03
 -4.5802531e-01
  4.0114287e-01
 -9.0623051e-01
  1.5435755e-01
  2.4846190e-01
 -1.8207307e+00
 -7.8750111e-02
 -3.1882769e-01
 -2.5602326e-02
 -7.8955457e-02
  4.0078819e-02
 -4.8412097e-01
  1.0646363e-03
  4.0609291e-01
 -1.6139414e-02
 -1.5481147e-01
 -1.9281866e-01
 -2.7862204e-02
  2.9302284e-02
  1.0996816e-01
  6.5219432e-01
 -2.4454195e-02
  1.3934270e-01
 -5.9892852e-02
  3.1802505e-01
  9.7545475e-04
  2.2430235e-01
 -3.4345072e-02
  2.4254753e-03
 -3.5287261e-01
  2.7716577e-01
  1.5740309e+00
  2.6335310e-02
 -5.5016551e-02
 -2.1063814e-01
  2.2817405e-01
 -3.4699553e-01
 -9.0290837e-02
  5.6955647e-01
 -8.8119365e-02
  8.7442046e-01
  8.2922587e-03
 -9.2699462e-01
 -7.4684404e-02
 -9.6821785e-02
  3.4427617e-02
 -5.5167131e-02
  1.2463527e-01
  8.9860164e-02
 -1.9407434e-02
 -5.6523189e-02
 -6.9770738e-02
 -6.0899734e-02
 -6.3241452e-02
  1.2513083e-01
  6.1117802e-02
  1.0348680e-01
 -2.3836164e-02
 -2.5890222e-02
  2.5089227e-02
 -1.0600227e-02
 -3.3588085e-01
  9.6598530e-01
  5.8195903e-04
 -2.1077966e-02
 -2.1724238e-01
 -8.0884270e-02
  4.6208397e-02
  8.9325882e-02
 -1.0035248e-01
 -3.2986566e-02
 -1.2149545e-01
 -2.9619055e-02
  8.9917341e-03
 -9.8652756e-03
 -2.0547926e-02
 -1.3414693e-01
  1.0613615e-01
  3.6880009e-02
  1.8440392e-02
  2.6194442e-02
 -3.2432318e-02
  2.3864031e-02
 -1.8602805e-02
  1.0536271e-01
 -1.3107553e-01
  1.4751580e-01
  3.4209590e-02
  1.6126956e-01
 -3.1832218e-02
  4.8995771e-02
 -3.7422550e-03
  8.5735112e-02
 -6.0855571e-02
  1.1423638e+00
 -1.8077375e-01
  1.2087925e-01
  1.2913375e-01
  6.8720311e-02
 -7.1352266e-02
  2.2572964e-02
 -2.1686062e-02
 -9.1174180e-03
  3.0593083e-03
  4.5669217e-02
 -7.3640794e-01
 -2.5109443e-01
 -7.6005664e-03
  3.9334077e-02
  2.9558201e+00
 -1.8334043e+00
  1.7057799e-02
 -1.9577031e-01
 -2.1170785e+00
  1.3446164e+00
  3.0141532e-01
  3.3869070e-01
  1.2915667e-02
  2.4728443e-01
  2.0343468e+00
  2.0524187e-01
  3.5371423e-01
  2.0420370e-01
 -5.7177448e-01
 -8.0802679e-02
  6.3763952e-01
  7.0583200e-01
  1.8453776e+00
  1.2219381e-01
 -1.7801334e-01
  4.8506349e-01
 -8.0611795e-01
  1.0940702e+00
 -9.8821856e-02
  6.0523719e-01
 -7.4928969e-01
 -1.3153709e-01
  6.2946856e-01
  1.2501989e-01
  1.7185647e+00
 -3.1831563e-01
 -1.1585832e+00
  2.6586339e-01
  1.3912537e+00
 -1.0572430e-01
 -4.7036836e-01
  1.1241915e-01
 -2.0905590e-01
  8.1550980e-01
  8.9125580e-01
 -4.4883270e-02
 -1.1524729e-01
  5.9677273e-01
  9.5958970e-02
  1.0918840e-01
 -5.4135752e-01
  7.5119011e-02
 -2.6111227e-02
  2.7021497e-02
 -1.6990539e-01
  3.5334401e-02
 -5.6238031e-01
  6.1712110e-01
 -3.0949122e-01
 -1.3110818e+00
 -9.0251690e-01
  4.0094176e-01
  1.4032822e+00
 -2.8524721e-01
 -2.2936894e-01
  8.3539420e-01
 -6.8594841e-03
  5.0589854e-01
  2.3237104e-02
  4.5172498e-02
  1.2372497e+00
  7.8871417e-01
  1.3698109e-02
  3.4756556e-02
  1.1112874e-01
 -5.5022711e-01
  2.4308550e-01
 -5.0050527e-01
  2.0877868e-01
 -8.4791529e-01
  4.2949155e-02
 -1.0019606e-01
 -1.7889948e-01
 -6.1579400e-01
 -6.0828567e+00
 -3.7275842e-01
  4.4396058e-01
  1.4760317e-01
  1.2645280e-01
  1.5527533e-01
 -1.0939226e-01
  1.6520759e+00
  2.1717508e+00
  3.5299745e-01
  1.3040149e-01
 -1.2245288e-01
  1.1122252e-01
  1.2103632e-02
 -1.4075634e-01
 -3.3728015e-01
 -1.3109009e-01
  6.5828270e-01
  2.2278140e-01
  5.2216120e-02
 -1.2080483e-01
  1.0117196e-01
 -5.6311056e-02
  1.2529586e-02
 -3.8480338e-02
 -4.3556906e-02
 -2.2771822e-01
  2.7189529e+00
  6.9495386e-01
 -2.4438334e+00
 -5.8386955e+00
 -3.6481980e-02
  4.0393573e-01
 -7.5884199e-01
 -4.7671919e+00
  1.8558742e+00
  1.2249286e+00
  3.8182172e-01
 -9.1349083e-01
 -5.7013653e-02
 -9.2017198e-01
  8.1346311e-02
 -1.3167009e+00
  1.2800188e+00
  2.0601668e+00
  2.5641084e+00
 -4.2774327e-02
 -7.4998355e-01
 -2.0996860e-01
  1.5016844e-02
 -4.1147560e-01
 -9.4332032e-02
  7.8887242e-01
  1.2840152e+00
  8.7937228e-02
  4.6514878e-01
 -2.9163423e+00
  5.9211546e-01
  1.3624698e-01
  1.4572327e-01
  2.0117704e-02
  1.8556778e-01
  2.4840157e+00
 -2.0209230e-01
  3.8785735e-01
 -1.4703077e+00
  2.6520845e-01
  1.5071730e-01
 -3.7468869e-02
  3.4747350e-01
  1.4713140e-01
  1.1956924e+00
 -5.6903366e-02
 -5.1410240e-03
 -1.5674062e-01
  6.2962070e-02
  5.3349238e-02
 -1.1421472e-01
 -1.8149968e-02
 -3.7007567e-02
  1.1971088e-01
  4.3099906e-02
 -1.1102585e-01
 -1.1002771e-01
 -4.9072865e-01
  4.7160711e-02
 -5.6150697e-02
  1.4394604e-01
  1.0977998e-01
  2.2183081e-02
 -4.6573874e-02
  6.2956498e-04
  2.9416475e+00
  2.3596590e-02
  7.6312691e-02
 -1.1742556e-02
  1.6362552e-02
  4.9775392e-02
 -1.7672098e-01
 -2.2791263e-02
 -4.1231070e-02
 -1.2825912e-01
 -7.3365219e-02
 -1.1520970e+00
 -1.5958488e-02
  2.0299065e-04
  6.3242845e-02
  7.5198156e-01
 -4.2274900e-02
  6.0930261e-03
 -1.2744325e-01
  2.1598710e-02
 -3.5702493e-02
  4.2488869e-02
 -2.2097526e-02
 -1.4462213e-01
  2.1769553e-02
 -1.2515809e-02
 -1.0110497e-02
  5.3238396e-02
 -1.8875388e-02
 -1.8980911e-02
  3.7564507e-01
  2.8844573e-02
  3.3805311e-02
 -2.9244198e-02
 -1.2756558e-01
 -4.0387023e-02
  4.1223198e-02
 -1.0672027e-02
  6.9234222e-03
 -4.8204451e-03
  5.2280385e-02
  6.1581638e-03
  2.7681151e-01
 -1.2936078e-01
  1.0009094e+00
  3.9518043e-01
 -9.6317458e-01
 -2.1423146e-01
  3.0198222e-01
 -8.0321945e-04
 -6.5434194e-01
 -5.0933403e-01
  4.5318104e-02
  3.7625182e-01
 -8.5359849e-03
  3.7833523e-02
 -3.1716812e-02
  3.6386487e-01
 -1.0598448e-01
 -4.6347108e-02
  2.6962259e-01
 -1.9796056e-01
 -2.6399732e-01
 -4.5584673e-01
 -3.5942063e-01
 -1.5283884e-02
 -1.9218600e-01
  8.1739813e-02
 -1.1466830e+00
 -1.6203315e+00
 -1.2270832e+00
 -2.5115588e-01
  2.6616794e-01
 -4.5177335e-01
 -1.2743957e+00
 -2.0730056e-01
 -4.7608379e-01
  2.0749684e-01
 -5.6069344e-02
 -2.4944018e-01
  2.2324505e-01
 -4.1709328e-01
 -1.6355446e-01
 -1.3189846e-01
 -5.2541263e-02
 -3.9336872e-01
  1.0826465e+00
  9.9042475e-02
  4.3701890e-01
 -4.2075133e-03
  8.6401375e-03
  9.2760064e-03
 -1.9470306e-01
  1.9678973e-02
 -6.2090713e-01
 -2.0959921e-02
  2.1279242e-02
  1.3438687e-01
  7.3297352e-01
 -1.0690507e+00
 -2.0067150e-02
 -3.9843452e-01
 -8.3710372e-02
 -1.7197730e-01
  2.9430041e-01
  3.7622741e-01
 -1.0014025e-01
 -8.3060578e-02
 -2.1072397e-01
  3.4065694e-02
 -1.1149783e-02
 -3.0197961e-02
  4.4450387e-03
 -1.0298011e-01
 -3.5718098e-02
 -2.7410591e-01
  1.6557932e-02
 -1.1436978e-02
 -2.4054500e-03
  3.6506131e-03
 -6.2444485e-03
 -6.1564274e-02
 -1.8670645e-01
 -6.2879182e-02
 -1.9109099e-01
  6.1995443e-02
 -9.8530495e-01
  2.0304069e-01
  8.7429658e-02
  4.4382926e-02
 -3.8348429e-02
 -2.8708113e-02
 -2.3933349e+00
 -1.4215349e-01
 -5.2591431e-01
 -8.4404200e-01
  2.0816310e-01
 -9.7622853e-03
  6.4401460e-01
  3.0694434e-01
  7.0761450e-02
  4.9485367e-02
  1.6906869e-01
  1.5778373e-01
 -2.0163000e-01
  6.3777588e-02
  5.8449574e-02
 -2.0459017e-01
  5.6445203e-03
  6.8327296e-03
  3.2531556e-02
  2.5631815e-01
  2.9810518e-01
 -2.3608205e+00
 -1.6720277e+00
  1.0536586e+00
  4.1284181e-02
  9.9889618e-01
  1.1936895e-01
 -1.2484620e+00
  7.0419766e-02
  1.0981451e-01
 -1.7681512e-01
  9.8856293e-02
 -8.0153935e-02
 -1.5014099e-01
  4.5129520e-01
  2.9842466e-01
  5.3089088e-01
  9.5529789e-01
  1.0759529e-02
  3.1960601e-01
 -6.0221940e-02
 -4.2433091e-02
  3.5617784e-01
  9.8826036e-02
 -5.5145252e-02
  8.3717838e-02
  2.4118886e+00
  2.0218109e-01
 -5.1668409e-02
  1.7674601e+00
  1.0683587e+00
  2.2131774e-01
  5.3228021e-01
  4.6204194e-01
 -8.9555271e-02
  2.6196816e-03
  1.6947607e-02
  3.7997687e-01
  3.5151109e-01
  3.0474067e-01
  2.5601995e-01
 -5.3992212e-01
 -2.9558870e-01
  1.8522096e+00
  1.3340478e-01
  8.9231059e-02
 -1.9324938e-02
 -1.0678479e-02
  2.5323225e-02
  4.5151658e-02
  2.2446634e-02
  1.9562733e-03
 -1.3496296e-02
 -6.4454488e-02
  2.1275699e-01
 -1.3757989e+00
 -1.2538425e+00
  5.4457319e-01
 -5.0453442e-01
  7.8196071e-02
  1.0793222e-02
  2.3760703e+00
 -1.1287048e+00
 -3.0750281e-01
 -8.3363116e-01
 -1.5146968e-01
 -1.0275940e+00
  6.9057500e-01
  4.1940771e-02
 -4.7415119e-04
 -3.8204085e-02
 -2.4298859e-01
  5.4507054e-02
 -1.0765813e-01
 -1.2105083e-01
 -3.3067870e-01
  4.0297352e-02
 -5.3747680e-02
 -2.0662099e-01
 -2.3787071e-01
  5.3922512e-02
 -1.0102243e+00
 -4.4017938e-01
  2.5553551e-01
 -1.4624703e+00
 -4.5019481e-03
  6.9714576e-01
  2.8895509e-01
 -6.2048978e-01
 -9.1613263e-01
  2.9095170e-01
 -4.6479827e-01
  1.3434941e-01
 -3.4319729e-01
 -8.6066514e-01
  2.0495710e+00
  7.7024353e-01
  5.1696908e-01
  1.2089153e-01
 -4.9618497e-02
  3.1553593e-02
  1.0588646e-01
  1.2520458e-01
  1.2873471e-02
 -6.2206764e-02
 -1.5998632e-01
  6.7865282e-02
  1.2769496e+00
 -1.0348441e-01
  3.8062938e-02
 -1.2487364e+00
 -1.7770559e-03
 -1.5998346e-01
 -4.1597322e-02
 -6.3134603e-02
 -7.0417458e-01
 -1.0500309e-02
  1.4854516e-01
 -7.6210919e-05
 -4.5834675e-02
 -3.5886724e-02
 -9.9398801e-03
  4.9314490e-03
  2.7571362e-03
 -3.2937251e-02
  5.0745402e-03
  6.0117532e-02
  3.5808253e-01
 -1.0220688e-02
  1.6322771e-01
  2.2864433e-01
  1.3387974e-01
 -1.3527104e-03
  3.1046415e-02
 -1.6446264e-02
  2.4321336e-02
  8.7974733e-01
 -2.9700734e-02
  1.2033359e-02
  1.1721448e-01
  5.8950478e-01
  6.9273179e-03
  4.0073614e-03
  1.9571261e-02
  6.6970922e-02
  7.3211677e-03
  6.3855387e-02
  4.7030383e-01
  1.2917459e-02
 -6.7110551e-03
  5.2350149e-02
 -8.3736509e-02
  3.2689962e-01
  9.9529311e-02
  1.0639841e-01
  1.5462297e-02
 -1.2449901e-01
  1.8636918e-02
  3.2576468e-02
  5.7067752e-02
 -1.4248407e-02
  1.6833024e-01
  1.6566044e-01
  1.6303530e-02
 -1.1625820e-01
 -1.1889864e-01
  1.4730856e-01
  2.4598485e-02
  2.0226307e-01
  4.7293797e-02
 -4.8774116e-02
  7.4241483e-03
 -6.8073727e-02
 -1.0876209e-02
 -2.5271336e-03
  1.9764971e-02
  1.4416572e-01
 -2.9955819e-02
  8.6870238e-02
 -9.8793777e-03
 -2.2853274e-02
  1.0674846e-01
 -2.6571130e-02
 -7.5373441e-02
  1.5059771e-01
 -1.2665492e-02
  3.0483937e-02
 -1.1673349e-02
 -1.0444096e-01
  1.1176928e-01
  2.8410217e-02
 -3.1234393e-01
  5.5259753e-02
 -2.2140583e-03
 -2.0065827e-02
  2.5468010e-01
 -1.8042544e-02
 -5.2263282e-02
  9.7891651e-02
  1.5730582e-01
  9.0943649e-02
 -1.1461154e-01
 -1.9738299e-01
  3.4862977e-02
 -1.0497951e-01
 -1.4220919e-01
 -4.7831222e-02
 -1.0423948e-01
  8.1107005e-02
  1.0427742e-01
  1.8344255e-01
 -1.5591469e-01
 -6.8462543e-02
 -2.0958576e-02
  5.7053071e-02
 -2.0925667e-02
 -3.9259452e-01
 -6.7387848e+00
 -2.8171110e+00
 -3.8763419e-01
 -4.0046992e+00
 -2.5989296e+00
 -2.3928562e-01
  4.1729660e+00
 -2.2019777e+00
  1.2622264e-02
  3.6746812e+00
  4.4578004e-01
  1.0515199e+00
 -1.7641328e-02
  1.1633257e+00
  6.5086924e-02
 -1.2748973e+00
 -3.9930484e+00
 -1.0207929e-01
 -3.1066289e-02
  2.7433348e-01
  1.4851893e+00
 -1.6853143e-01
 -1.6499919e-01
 -2.1310823e-01
 -3.1153944e+00
 -1.2495903e+00
  6.4614356e-02
 -5.0613958e-01
  9.4328701e-02
 -1.1845599e+00
 -1.3428980e-01
 -1.9589122e-01
 -1.6558689e-01
 -5.9965557e-01
 -2.0654748e-01
  4.6833999e-02
 -5.9381336e-01
 -2.8427936e-02
 -7.0184755e-01
 -5.2155197e-01
 -4.2079484e-01
  5.0774610e-01
  5.8118831e-02
 -1.2570711e-02
 -1.5090503e-01
  5.2723277e-01
  3.5340864e-02
 -3.4254055e-02
 -5.9945960e-02
  2.7335614e-02
 -1.6862363e-01
 -1.2805315e+00
 -7.7284202e-02
 -1.7991431e-01
 -2.7096486e-01
 -4.4688977e-02
  2.2294883e-02
 -4.7730595e-02
  6.9710784e-02
  3.4591758e-01
  2.2980748e-02
 -3.7323534e-03
  7.0504859e-02
 -1.2078084e-02
  3.0763214e-02
 -4.0821922e-03
 -1.8730413e-02
 -4.8559844e-03
 -1.8751147e-01
  3.2296911e-02
  3.1619754e-01
  1.9542404e-02
 -1.1036002e-01
  2.2764091e-01
  1.9735686e-02
  3.1626533e-04
 -2.7726874e-02
  6.2396605e-02
  7.3293909e-02
  1.6924093e-02
  1.0313602e-01
  5.7180303e-01
 -2.4574686e-02
 -1.9993821e-01
  9.3185924e-02
 -4.4288613e-02
 -5.1703818e-02
  7.3939659e-02
 -7.9994328e-02
 -2.5490203e-01
 -1.9525123e-03
 -5.7747118e-02
 -1.9299498e-01
  1.5845962e-02
 -6.6199422e-01
 -5.4680921e-02
  8.1967628e-01
 -9.8491862e-02
 -5.6230273e-02
  3.2577518e-02
  3.5120334e-02
 -2.0243846e-04
 -8.1298575e-03
 -5.1185623e-02
  2.8472284e-02
  3.2081814e-03
  1.8455122e-03
  8.6593729e-01
 -1.7606820e+00
  1.7237839e+00
  2.7240378e-01
  1.5778962e-01
  1.3923326e+00
 -6.0860377e-02
  5.8924860e-01
  4.6713433e-01
  1.1927344e+00
 -1.0311011e+00
  1.5752612e-01
 -2.3760886e+00
 -7.1449089e-01
 -1.2305806e+00
  1.8189477e-02
  6.4688873e-01
  3.1089801e-01
 -3.5079919e-02
 -1.5378538e+00
  8.7125981e-03
 -1.5851032e+00
  7.5751618e-02
 -7.5104433e-01
 -2.9052451e-01
  1.6081701e-01
 -1.2742063e+00
  3.6662377e-02
 -1.6347203e-01
 -2.0407885e-01
 -1.4808043e+00
  2.5826064e-01
 -1.5223829e-01
 -1.3438334e+00
 -1.3829204e+00
 -1.0767918e+00
  5.2811378e-01
 -6.7003018e-01
 -1.0577337e-02
 -4.2128387e-01
 -8.8155478e-02
  8.6271772e-03
  3.4394223e-02
 -2.4579834e-02
  8.0195665e-02
  3.7485834e-02
 -4.9621361e-01
  1.3852818e-01
 -7.1678482e-02
 -6.0987845e-02
 -6.2294430e-01
 -2.0299308e-01
  4.4398564e-03
 -2.9227832e-01
  7.0754731e-01
  8.6537875e-02
 -2.4971385e-02
  1.2794756e-03
 -1.2236908e-02
  6.7614818e-01
 -7.7413040e-01
 -1.2228965e-01
  3.5069796e-01
 -1.2517073e+00
 -1.9330804e-01
 -1.6513640e-02
  2.1544677e-01
 -7.6063883e-01
  9.6060061e-01
  5.6839097e-01
  7.7471906e-01
  2.3850912e-02
  3.9827093e-02
  1.5966007e-01
  9.8708361e-02
 -8.0274649e-02
  1.1909868e-01
 -8.3415784e-02
  4.0843675e-01
  2.3437068e-02
 -6.7370075e-01
 -7.0472151e-01
 -3.6315414e-01
  1.0276446e-01
  1.0823562e-03
  2.6696173e-02
  1.1205634e-01
 -9.9731185e-02
 -8.8982290e-01
 -1.9679230e-01
  2.3228323e-02
 -6.9301009e-02
  4.7988221e-02
 -7.5514871e-03
  1.2237423e-02
 -4.1267939e-02
 -4.2459562e-01
 -5.0411469e-01
  5.2208412e-02
  9.5320188e-02
 -6.3157999e-03
  7.6228470e-02
  2.4623893e-02
  8.3071522e-02
  4.9059228e-03
  9.9671394e-02
  4.8252009e-02
  9.0878701e-01
 -7.9237148e-02
 -5.7644203e-02
 -1.6368413e-01
 -5.1706302e-01
  1.0150535e+00
  5.7115453e-01
  1.1773419e+00
  6.4463443e-01
 -1.1913484e+00
 -7.5084084e-01
 -3.3723298e-01
 -1.7191402e+00
 -4.2092055e-01
  1.0968239e+00
  1.0045466e+00
  2.2224928e-01
  3.7157124e-01
 -6.7734730e-01
 -1.4361482e+00
 -1.1192724e+00
 -6.6884547e-01
  5.8142178e-02
  1.0118625e+00
  1.9303207e-01
 -2.8951925e-01
 -3.0648264e-01
  5.2481574e-01
 -9.5492834e-01
  1.1873715e-01
 -9.9066895e-01
 -1.3050905e+00
 -6.9462702e-02
  7.9681647e-01
  1.4292973e-01
 -1.0804133e+00
 -2.3088170e-02
 -1.0882502e+00
 -2.5363177e-01
 -5.6972986e-01
 -8.3427988e-03
 -3.7781370e-01
  2.7058932e-01
 -4.7036961e-02
  9.5844781e-01
  4.8583984e-01
 -6.4934142e-02
  7.9234198e-02
 -6.1939180e-01
 -1.4123964e-01
 -6.3716948e-02
 -9.2737479e-03
  1.7379002e-01
 -6.4408429e-02
  1.8982075e-01
 -1.5538118e+00
 -9.3272531e-01
  4.5202196e-01
  3.3003616e-01
 -1.7323695e-02
  1.6013917e-02
  1.6480844e-01
 -1.2628312e-01
 -4.6197101e-02
 -2.1930417e-02
  1.2698084e-01
  1.6615652e-01
 -2.8356070e-02
 -5.4805315e-01
 -1.6365267e+00
  1.3045615e-02
  2.1546482e-01
 -1.4759885e-01
  4.7446828e-02
  1.4468597e-02
  7.1155101e-02
  2.9017836e-01
 -4.1526631e-01
 -2.2794793e+00
 -6.2835333e-03
  6.6930908e-01
  2.2774333e-02
 -1.1368874e+00
 -1.4360215e-01
 -2.4371149e-01
 -5.0930136e-01
  1.4056350e-03
 -7.4060822e-01
 -4.3383223e-04
  6.1050898e-01
 -1.9560792e-01
 -8.4234864e-02
  8.3636189e-01
 -7.7428663e-01
 -3.9950222e-02
 -2.0097765e-01
 -1.1079223e+00
  5.0915015e-01
 -1.2859271e-02
  3.5865668e-02
 -3.1814814e-02
 -1.6749643e-02
  1.2648074e-01
  2.5270623e-03
 -1.2861119e-01
 -1.7468795e-01
  9.5643597e-03
  5.2895315e-02
 -7.7740997e-02
 -6.1179133e-04
 -3.6326912e-01
  1.1629746e+00
 -6.4954773e-02
 -2.6919829e-02
 -6.6559680e-02
 -3.6600852e-01
  2.3921534e-01
  2.0890446e-01
 -1.4312626e-01
 -1.4538052e-02
 -4.9201179e-02
  4.2397775e-02
  4.1314806e-03
  1.0358168e-01
 -5.3629253e-02
  1.0378008e-01
 -1.2861885e-02
  4.5024741e-02
 -1.1910002e-02
  7.6241136e-02
 -4.1975997e-02
  3.3652615e-02
 -1.1520921e-02
 -7.3034622e-02
  1.6651308e-02
  1.4900318e-01
 -2.4078465e-01
 -4.1434842e-01
 -6.4301632e-02
  1.0759862e-01
  9.4299771e-02
 -1.5983334e-01
  5.1443882e-02
 -3.8247034e-01
 -4.0506802e-02
 -1.0910654e-01
  1.2455612e-01
 -1.5126860e-01
  8.2677141e-02
  1.2500677e-01
  4.7054568e-01
  5.1881699e-03
 -4.5177624e-01
  6.6257507e-01
 -9.1899879e-02
 -1.4731953e-01
 -1.3703432e-02
  1.8729150e-02
  2.1071468e-02
  1.1027158e-01
 -4.8219184e-03
 -2.5544351e-02
 -4.9346513e-01
  1.9327123e+00
  2.1753170e+00
 -2.0057197e+00
  4.0388945e-01
  1.0809406e+00
 -9.9023497e-01
 -9.9581385e-01
  2.9545515e+00
 -7.2020136e-02
  1.5300853e+00
 -1.2648978e+00
 -3.9486060e-01
 -2.7715659e-01
 -2.3664246e+00
 -1.2875308e+00
 -2.7425057e-01
 -1.0401485e+00
 -2.1813780e-01
  8.9981681e-01
 -4.1625876e-02
 -2.4456382e+00
 -9.0002596e-01
 -7.4366999e-01
 -1.4223881e-01
  1.9588132e-01
  9.3445784e-01
 -5.8159876e-01
 -3.4265107e-01
 -1.1677288e-01
 -1.7224771e-01
 -1.7414153e-02
 -1.1124706e+00
 -5.8341317e-02
  1.6917233e+00
 -5.5824113e-01
 -1.5720350e+00
 -6.0546893e-01
  2.6357892e-01
 -3.8112003e-01
  4.4225422e-03
 -8.6501628e-01
  2.6354915e-01
  2.2873725e-01
  1.2884700e+00
  7.2108679e-02
 -6.9998815e-03
 -8.9015585e-01
 -9.0363815e-02
 -9.7239681e-02
  2.2582974e-01
 -3.0721556e-02
  1.5865682e-01
  3.5053295e-01
 -6.8810791e-02
  2.2663972e-01
  8.7107159e-03
 -1.6148864e+00
  6.9573037e-02
 -3.9973423e-01
 -3.2269284e-01
 -9.2883515e-01
 -3.6288950e+00
  2.2402171e-02
  3.8611349e-02
 -9.3517669e-02
 -9.6463360e-02
 -5.9494790e-02
 -1.0750443e-02
 -4.0343098e-02
  1.3566028e-02
  3.3790004e-02
 -1.1526478e-01
 -6.8889543e-02
  3.5835493e-02
  1.4130563e-02
 -8.6305693e-02
  7.7249177e-02
 -4.3320779e-02
 -1.5663785e-01
  8.9942338e-03
 -4.7138084e-02
  6.9388933e-02
  1.4402361e-02
  1.2047090e-02
  1.7860580e-02
 -3.8905267e-02
 -2.3420843e-01
 -1.0597618e-01
  1.3909711e-02
  2.4221533e-04
 -5.0222229e-02
 -3.6419261e-02
  1.1911592e-02
  2.5986522e-01
  1.5259693e-02
 -1.3471882e-01
  1.9921014e-02
  5.3042829e-01
  3.9765403e-02
  1.4895473e-01
  4.3561212e-03
 -5.7374924e-02
  1.9319537e-01
 -1.6673334e-02
  2.6567213e-02
 -5.4670025e-02
  1.3231583e-01
  4.3651350e-02
  8.3566941e-02
 -1.9139872e-01
 -3.2316065e-01
  1.0588428e-02
 -1.7120601e+00
  2.8351128e-01
 -2.8963494e-01
  1.1168116e-01
 -8.4902473e-02
 -9.4985031e-03
 -7.9642437e-02
  1.1670449e-01
  1.0422340e-01
 -3.1534471e-02
  1.1829400e-02
  2.9353952e-01
 -2.1231405e-02
  1.8271649e-01
  5.9029173e-02
  2.3437858e-02
 -8.8069275e-02
 -2.5432062e-01
 -2.8549789e-02
 -3.3974305e-02
 -5.2631885e-02
  7.6500334e-02
  9.1127180e-02
  8.0713265e-02
  8.5016024e-01
  1.7840296e-01
  6.3738607e-02
 -6.1753765e-02
 -3.5317248e-04
  9.7882234e-02
  4.8609292e-03
 -1.3115342e-01
 -1.0501517e-01
  1.4793749e-04
 -1.4481325e-01
 -1.2154033e-01
  1.2571846e-01
  2.3648787e-02
 -2.0639798e-01
 -4.6975338e-03
  6.0058575e-02
  1.5505935e-01
  5.2979402e-02
 -1.4509760e-02
  5.4647557e-02
  1.0750401e-01
 -5.6721661e-02
 -8.2475357e-03
 -3.2230157e-02
  4.5916480e-01
 -2.0149292e-01
 -4.2422414e-02
 -8.5040629e-01
 -4.9330436e-02
 -2.8686551e-02
 -1.6796465e-01
  1.3738830e-01
  7.7393419e-01
 -3.7583551e-01
 -2.2347863e+00
  3.3617392e-01
  2.5413051e-01
 -1.9609017e-02
 -1.3297923e-01
 -8.5197657e-02
 -2.1617928e-01
 -2.0591228e-01
  2.6174489e-01
 -1.2948278e-01
 -1.6030280e-01
 -7.1928360e-02
 -6.5843838e-01
 -7.9382703e-02
 -3.1881189e-01
 -1.2012920e-02
  3.3571813e-03
  6.1536324e-01
 -1.5519044e-01
  1.6035994e+00
 -5.9737146e-01
  1.0652986e-01
 -2.8665075e-01
 -9.1675371e-02
 -4.8720270e-01
  4.2807969e-01
  7.1960115e-01
  7.8935850e-01
  4.9791598e-01
 -3.1412011e-01
  1.4320385e-01
 -1.9273858e-01
 -2.1901265e-01
 -1.0523018e-01
  6.0207033e-01
 -9.8226788e-03
 -2.5608502e-03
  7.0287071e-02
  9.5037483e-02
 -2.4130037e-02
 -1.2022012e-01
 -1.9056398e-02
 -6.2604439e-03
  6.7364931e-02
  5.6106663e-01
 -1.1272379e+00
 -3.6245413e+00
  1.7999614e+00
  1.8070477e-01
 -4.1576557e+00
  1.3319882e+00
  2.5004873e-01
 -1.8627634e+00
  9.2835480e-01
 -4.4266942e-01
 -2.5793400e+00
 -6.3098259e-02
 -1.5749896e-02
 -1.1284693e+00
 -1.7495076e-01
  3.2576385e-01
  9.6272409e-01
  1.5592263e+00
  3.7419680e-01
 -8.8449366e-02
 -1.7884262e-01
  2.1102287e-01
 -4.1076851e-01
 -3.7529182e-01
 -6.8168056e-01
  5.2463746e-01
  2.5507528e-01
  2.8875095e-01
  1.4872854e+00
 -9.5941126e-03
 -1.3965775e-01
 -6.5999856e-04
 -8.0419230e-01
 -8.0837590e-01
 -6.8211637e-02
  3.4485450e-01
 -8.7541845e-03
  1.5935647e-01
 -3.1751084e-01
 -1.7882262e-01
 -4.7085816e-01
 -1.9366917e-01
 -5.8744729e-01
 -6.1770886e-01
  2.7532378e-02
 -3.4172095e-02
  8.4429845e-02
  2.2291219e-02
 -1.8195258e-01
 -1.4721764e-02
 -1.8676372e-01
  1.2563948e-01
 -2.3245335e-02
 -8.8616699e-02
 -9.4381481e-02
 -9.6567944e-02
 -1.8884712e-01
  9.3466282e-02
  4.4965509e-01
 -3.1776780e-01
  9.7340671e-03
  1.2279341e-01
 -1.0071361e-02
  5.8981843e-02
  3.9358708e-01
 -2.9884771e-02
 -8.7028593e-03
 -1.7126490e-01
 -1.6539042e-01
  7.4706725e-03
  1.2316072e-01
  2.0816751e-02
  1.2564914e-01
 -2.1451404e-02
 -7.0714332e-02
  9.2555933e-02
 -3.7594080e-02
 -3.1122930e-02
 -3.0612543e-02
  9.7439773e-03
  1.0380740e+00
 -9.4879963e-02
  1.2520838e-01
  1.6203453e-01
  1.0016647e-02
  1.3802560e-01
 -5.4226093e-02
  8.0239438e-02
  5.6681186e-02
 -1.7549430e-01
  3.8851491e-01
  1.8911077e-02
  5.8719300e-02
  1.0833145e-02
  8.6022906e-02
  1.2239181e-01
  3.1597160e-02
  1.0852784e-01
 -1.2405121e-01
 -1.8962955e-01
  2.4788767e-02
 -2.7550276e-02
  7.4285068e-02
  4.4676270e-03
  2.8069012e-02
 -5.7099722e-02
  2.5559142e-01
  1.0474952e-01
 -6.2393900e-02
 -2.6572865e-02
  2.1342382e-01
  9.4938956e-02
  6.1080012e-02
  1.2674317e-01
 -5.6715147e-03
  4.3523920e-01
 -1.6259320e-02
  1.8483374e-01
 -5.8312725e-02
  6.3731514e-02
 -5.9634078e-02
  4.4438366e-02
 -2.2318441e-02
 -7.2747558e-02
  7.7350460e-02
  9.1072902e-02
  6.0336329e-02
 -4.5467131e-02
  5.0626878e-02
  5.0798893e-02
  2.9047614e-01
  1.0477387e-01
  1.3228338e-02
  2.0053243e-02
 -2.1241900e-02
 -5.0429847e-02
 -1.4497858e-01
 -8.1007183e-02
 -2.2363044e-01
  1.7089343e-01
  1.0021541e-01
 -1.9768043e-01
 -5.4380535e-03
 -5.6609780e-02
  1.3450663e-01
 -1.8073611e-01
 -1.4023236e-02
  5.1612042e-02
  7.7615686e-02
  1.0095133e-02
 -3.2021236e-02
 -1.0552097e-01
 -4.5985319e-02
 -1.1458348e-02
  2.3410404e-02
  1.8446334e-01
 -4.3359809e-02
 -1.0460152e-01
 -1.1851497e-02
 -8.1805103e-02
 -1.1075725e-01
  1.4102249e-01
 -4.4437587e-01
  9.3018137e-02
  1.9154115e-01
 -2.7649075e-01
  5.9133172e-01
  9.9634242e-01
  2.7375996e-01
 -3.6356650e-02
  9.7376242e-02
 -4.1698698e-02
 -4.1991835e-03
  5.3809986e-02
 -8.0882169e-02
 -1.8248558e-01
 -4.3760672e-02
  7.9522729e-03
 -1.6759492e-02
 -6.7657828e-02
  8.7912560e-02
  1.0892919e-01
  7.1374100e-01
 -5.1160607e-02
  9.5284842e-03
  1.2439692e-02
  2.4560833e-02
 -2.6760798e-02
  5.9217002e-02
 -3.7202996e-01
 -8.5389161e-01
 -8.6386278e-02
 -1.5782844e-02
  1.3753829e-02
  2.4413984e-01
  3.8342379e-02
  3.0769063e-02
 -1.9368841e-03
  2.8369144e-01
 -3.4663517e-02
 -2.4110455e-02
 -1.9255023e-02
 -5.8661807e-02
 -7.3259288e-01
 -4.9877860e-02
 -4.8054229e-02
 -3.0353239e-02
 -4.5329612e-03
 -4.1574317e-01
 -9.4258502e-02
 -2.6219446e-02
 -7.2931588e-02
 -5.3154685e-02
  1.8853515e-02
 -4.3090237e-03
 -7.3561221e-02
 -4.0843608e-03
 -2.5765972e-02
  1.9015625e-01
  1.4153699e-03
 -1.0621376e-01
  2.3669209e-03
 -2.7296096e-01
  2.8000337e-03
 -9.0241015e-02
  2.6023187e-02
  1.0806549e-01
 -2.2643482e-02
  2.8439110e-02
 -6.2665813e-02
  5.8067374e-02
 -7.5536692e-03
  4.3989789e-02
 -8.6517803e-02
 -3.8393520e-02
  4.4545695e-02
 -7.2410427e-02
  1.6488974e-01
 -3.4822018e-03
  1.4246291e-01
 -7.6356247e-02
  5.7849884e-03
  5.6507319e-02
  9.3218926e-03
 -2.1894670e-01
  5.5919901e-02
  4.6807566e+00
 -6.5416358e-02
 -2.5765909e-02
 -1.3694173e-01
 -4.8335186e-01
  1.8902087e+00
  4.0914387e-02
  3.0785331e-01
 -4.8747372e-02
 -9.1395617e-02
 -7.6874089e-04
  6.4450093e-02
  2.1234276e-02
 -1.8084730e-01
 -9.5062621e-02
  2.2067625e-02
  6.1844520e-02
 -1.5757637e+00
  5.9370432e-02
  1.2897156e-01
  9.5871627e-02
 -3.7838738e-02
 -4.2767110e-04
 -1.1448743e+00
  1.2235925e+00
 -4.0849695e+00
  2.5180519e-02
 -1.1479186e-01
 -4.8137200e-01
  6.9522865e-02
 -1.9501534e-01
  1.3178736e+00
 -1.3461436e+00
  1.9712466e-01
 -3.3438078e-01
  1.3250555e-01
  1.2564166e-02
  1.6955560e+00
  9.2284447e-01
 -1.8197559e-01
 -2.2407019e-01
  6.8714887e-01
  2.7682444e-01
 -4.6645799e-01
  7.9891318e-01
 -5.8299735e-02
 -2.5737724e-01
  1.5281712e+00
 -1.9733753e-02
 -3.5342497e-01
 -1.6552438e+00
 -2.0955175e-01
 -1.6129656e-01
  1.2153189e-01
  2.1465052e-02
 -1.5868746e-02
  1.3534601e-01
 -7.8572434e-01
 -1.6593512e+00
 -9.2383361e-01
 -4.4241047e-01
 -1.0412706e+00
  2.6146360e-02
 -9.6047729e-01
 -3.1301877e-01
  1.1772090e+00
 -4.0940282e-01
 -5.3778994e-01
  1.2814424e-02
 -2.0633912e-01
  6.8640798e-01
  1.2496640e-01
 -2.8007952e-02
 -3.4067681e-01
  4.3733429e-02
  1.0266620e-01
 -5.0415969e-01
 -8.1569445e-01
 -2.3895697e-01
 -3.9947480e-01
  7.9495811e-01
  6.8512613e-01
 -7.8432018e-01
  6.3761324e-02
  1.5797553e+00
 -9.8127162e-01
  4.0937547e-02
  1.3307690e-02
  3.7218255e-01
 -2.6513073e-01
  1.1872657e-01
 -8.0050939e-01
 -8.6327597e-02
  7.8112148e-02
 -4.4839010e-01
  8.9273715e-01
 -4.2258075e-01
  8.8609114e-02
  6.6635996e-02
  1.4510202e-01
  2.5160360e-01
 -3.6045694e-01
  3.1333119e-02
  2.8308633e-01
 -6.3148862e-01
 -7.7848601e-01
  1.7120625e+00
  1.8292874e-01
 -2.1099810e-02
  9.3935490e-02
  1.8034028e-01
  3.6802575e-01
 -8.2845157e-01
  4.4643980e-01
 -1.1944159e+00
 -3.8723957e-03
 -9.8174788e-02
 -2.1841796e-01
 -7.8710392e-02
 -1.9152467e-01
  3.3330920e+00
 -1.9617896e+00
 -6.7540479e-01
  3.2717645e-02
  2.1226797e-02
 -6.8552330e-02
  9.9558525e-02
  7.1829893e-02
 -1.0666304e-01
  3.4916852e-02
  7.0526463e-01
  1.2506404e+00
 -3.5815518e-02
  2.1284784e-01
  3.6054146e-01
 -1.0657757e-02
 -4.2464644e-02
 -2.3769313e-01
  2.4067377e-01
  4.9695927e-01
 -1.7738117e-01
  3.8560566e-01
  2.5645614e-01
  6.7516737e-02
 -1.7825238e-01
 -2.4205843e-02
 -3.2516465e-01
 -8.3130017e-02
 -6.5643422e-02
 -1.4388562e-02
 -2.4417908e-01
  2.0371030e-01
 -2.2472353e-01
 -2.5453651e-01
  5.9668005e-01
  2.4203506e+00
  1.1321197e-01
 -2.6880619e-01
 -3.2524872e-01
 -1.4057229e-01
 -1.7238067e-01
 -4.0555185e-01
  1.2551776e-02
  1.0065122e-02
  2.0463669e-01
 -3.4027153e-01
 -3.9850223e-01
 -1.7171323e-02
 -2.6458193e-02
  3.1587607e-01
 -9.3248129e-02
  1.8651073e-01
 -3.1909576e-01
 -9.7503239e-01
 -1.2520362e-01
  8.5860747e-01
  3.3408073e-01
 -1.0097760e-02
 -9.5528908e-02
  2.6077840e-01
 -5.0220996e-02
  3.0126156e-02
 -1.4252611e-02
 -1.2639488e-01
 -4.6427682e-01
 -2.4138353e+00
 -2.0745473e+00
 -6.6024814e+00
 -1.8234274e+00
  1.3424416e+00
 -1.5022751e+00
 -3.7348752e+00
 -5.1307001e+00
  7.3771691e+00
  2.1999073e-01
  3.5819736e+00
 -2.0617061e+00
  5.7940054e-01
 -1.7028230e-01
 -1.6058413e+00
  7.2773850e-01
 -1.8658249e+00
  2.7390392e+00
 -9.0794259e-01
  3.2555346e+00
 -2.3403425e+00
 -2.1116982e-01
  8.3557761e-01
 -2.1574917e+00
  4.8639923e-02
  1.5961993e+00
 -8.1918222e-01
 -2.9724143e+00
  2.0026112e+00
 -3.9913347e+00
  4.3767635e-02
  3.3843368e-01
 -1.8754560e+00
  2.8221424e+00
  5.8200126e+00
  2.9307911e-02
 -3.3515761e+00
  3.8890371e-01
 -1.6527200e+00
  2.2436510e-01
  9.5271420e-01
 -1.6414690e+00
  1.0347323e+00
  2.7323337e+00
  2.5239992e+00
 -5.5627126e-01
  2.8879324e-01
  4.5888352e-01
  9.8355405e-02
 -1.8785150e+00
  2.7898979e-01
  1.2308241e-01
 -2.6744142e-01
 -5.1174983e-02
  3.5082858e-02
 -3.7820563e-02
  3.8516156e-02
  3.4133112e-01
  2.2284651e-01
  1.4922930e-01
  1.2854110e-02
 -3.7887804e-02
 -6.2800413e-03
  3.3090264e-02
 -5.9030972e-02
 -7.9076819e-02
 -3.6915708e-01
  6.4859077e-02
  2.6771364e+00
  7.6281272e-02
 -1.8513596e-02
  6.4125974e-03
  1.1213064e-01
  7.1932636e-02
 -3.1777177e-02
  1.0619393e-01
  2.1938848e-01
 -4.2997833e-02
 -1.5277662e-02
  8.8281520e-03
  1.9107077e-01
 -5.9254855e-01
  4.9153149e-02
 -1.4018585e-01
  5.7473153e-02
 -7.8702517e-02
 -5.0044499e-02
 -1.2298292e-02
  6.6110604e-02
 -6.9007635e-02
  3.6837822e-01
  1.1250303e-03
 -9.9466674e-02
  8.7297410e-02
  2.9841658e-02
  1.1036978e-02
 -4.1954167e-02
 -1.7080335e-01
 -5.3177234e-02
 -3.7468784e-02
 -1.6019886e-02
 -8.1549041e-02
  1.1481059e-01
  7.1005709e-02
  8.9401953e-02
  2.7433185e-02
  1.0948672e-01
 -1.3172202e-02
 -1.9027747e+00
 -1.5113568e-01
  4.0584075e-01
  9.7141564e-02
 -5.4209996e-02
 -3.5774064e+00
  3.3183441e-01
  5.6066108e-01
  3.2794905e-01
 -1.3244903e-02
 -2.3208540e-03
  2.7056759e-02
 -3.2378626e-01
 -9.5450735e-01
  1.1380804e-01
  1.2499765e-01
 -2.6346434e-02
 -4.5442082e-02
 -2.3290757e-02
 -9.0112850e-02
 -5.5324595e-02
  9.8021418e-02
  9.0181060e-02
  5.7996303e-02
 -1.6595346e-04
  2.9328248e-01
  2.6169615e-02
 -1.6839748e-02
 -5.3305876e-02
  6.1137348e-01
  8.5984766e-02
  2.1746578e-02
 -1.8922882e-01
 -6.6144305e-01
 -1.2042136e-01
 -5.2317017e-01
 -2.7867821e-01
  2.0054434e-01
  1.0656159e-02
  4.4214491e-02
 -1.6016187e-01
  1.9089495e-01
 -1.5644766e-01
 -4.8616499e-01
  1.1508089e-02
  5.2354321e-02
  7.3362887e-02
  5.1681854e-02
 -6.9496259e-02
 -1.0009860e-02
 -4.6092537e-03
 -2.4770410e-03
  4.8960503e-02
  5.6718614e-02
  1.1871252e-01
  3.4750756e-02
  1.0426071e-01
 -1.2886210e-01
 -4.1912138e-02
 -5.8770490e-01
 -1.6253112e-01
 -1.8515062e-01
  1.8971801e-02
 -1.0165151e-02
  3.1296390e-01
 -9.5012076e-02
 -2.0768931e-02
 -8.0235317e-02
  2.5366737e-02
 -2.8380554e-02
 -1.9227172e-01
 -7.3851101e-02
  8.9368269e-02
  1.2740083e-01
  9.7909592e-02
 -1.4392512e-01
 -3.8272992e-01
  2.7005769e-02
  1.6393689e-02
  1.7944282e-03
 -4.4197906e-02
  4.6259600e-01
  7.5127915e-03
 -1.6264847e-02
 -3.5503930e-01
  2.5969860e-01
  3.4788873e-02
  9.8568145e-03
 -6.6672109e-02
  2.1900855e-01
  2.6547476e-03
 -6.0480941e-02
  3.7832522e-01
  2.6032922e+00
  2.3611000e-02
 -1.9723099e-02
  2.5052807e-01
  1.4721411e-01
  3.8587525e-02
 -1.4254269e-02
 -1.9952931e-01
 -2.3384738e-01
  8.1570782e-02
  1.2259884e-01
 -2.1312539e-01
 -1.3581805e-01
  8.9067677e-03
  1.1292726e-01
  7.2919047e-01
  1.0201799e+00
  1.5774953e+00
 -1.4102615e+00
 -1.7417916e+00
  1.6460241e-01
  4.6617070e-01
 -6.8220878e-01
 -1.1376646e+00
 -3.2960641e+00
 -8.7434071e-01
 -2.4776798e-01
 -7.8506505e-01
 -3.8642326e-01
  1.0721940e-01
 -9.4620660e-03
 -2.5389266e-01
 -2.4004887e-01
 -4.4054359e-01
 -1.8035173e-01
  3.9794322e-02
  1.7287938e-01
  3.5723951e-02
 -1.8728691e+00
 -1.5431921e+00
 -7.8008604e-01
 -2.6270475e+00
 -6.9222128e-01
 -1.0545738e+00
  5.2702534e-01
  2.5537435e-02
 -9.0090558e-02
 -4.5461440e-01
  2.4764301e-01
 -9.1151285e-01
 -1.9004614e+00
 -1.1392788e-02
  5.4247779e-01
 -6.8595237e-01
 -1.6637507e-01
 -3.9707389e-01
 -3.0924739e-02
  1.8147500e+00
 -3.6056846e-01
 -7.6303893e-01
 -2.4654176e-02
  1.8142551e-01
 -7.3632962e-01
  1.6051324e-02
 -6.9661982e-02
 -4.2855471e-02
  1.3316731e-03
 -2.7838141e-01
 -3.7938435e-02
 -1.2216893e-02
  1.1277020e+00
 -7.3143524e-01
  6.9501066e-01
  3.3757742e-03
 -1.8420215e-01
  2.7014357e-01
  7.8383848e-02
 -1.9401637e-01
  2.0729756e-01
 -6.2793256e-03
  1.3883372e-01
  2.0636395e-02
 -1.0783912e-01
  3.8132176e-02
 -1.6553073e-01
 -7.4074194e-02
 -2.1522804e-01
 -1.4352414e-01
  1.4251565e-02
  8.6921930e-01
  2.9814342e-02
  3.9066589e-01
  1.8797070e-01
  5.9502948e-02
  5.3114772e-02
 -6.2181983e-02
 -8.5193843e-02
  7.0062935e-01
  1.8272308e-01
  3.6126713e-03
  5.3039987e-02
 -1.3891359e-01
 -9.6865073e-02
  3.8736002e-03
  9.9595302e-01
  1.8523855e+00
 -1.0315702e-01
 -5.3168041e-01
 -1.6823600e-01
  2.6148997e-02
  8.7824933e-02
  6.9785428e-01
 -1.8319204e-01
 -1.3014826e+00
 -5.8670864e-02
  1.0235692e-02
 -1.4966759e-01
 -3.2919387e-03
  1.7819246e-02
 -8.4036124e-05
  6.7698233e-02
  6.8241112e-02
 -6.0903136e-02
 -6.9555469e-02
 -1.9807267e-01
 -4.9119808e-02
 -4.1443840e-02
 -7.0500612e-02
 -8.9793757e-02
 -4.1526027e-02
 -4.1992448e-02
 -3.7116233e-02
  1.9779582e-02
 -8.5241310e-02
  2.0635661e-02
 -1.0367290e-01
 -1.5171084e-01
 -9.4545789e-02
 -2.6099792e-02
 -2.4271037e-02
 -6.7441382e-02
  7.2477490e-02
 -4.1440710e-02
  7.7732997e-03
  1.6016158e-01
  5.4486859e-01
  1.8609707e-01
  1.0095879e-02
 -1.8384038e-01
 -4.3354981e-02
 -4.2754415e-02
 -3.5987884e-02
  8.8713922e-02
 -1.9613177e-02
 -6.4529024e-02
 -1.3387975e-01
 -1.3913924e-01
 -2.2016418e-01
 -8.9208446e-02
  6.7289732e-03
 -2.7906446e-02
  8.2608879e-02
  7.6477647e-02
 -8.0005273e-02
  2.4316173e-02
 -6.0700774e-02
  6.9051139e-02
 -4.4001769e-02
  1.1711150e-01
 -7.1092762e-02
 -2.7279938e-02
  9.1008171e-02
 -2.5714943e-01
 -3.3718444e-02
 -6.6901259e-02
  8.5637989e-03
  9.7908549e-02
  1.3371390e-01
 -2.8011079e-03
 -1.6172764e-01
  6.0847098e-01
 -2.3844074e-02
  3.2144126e-02
  7.6073311e-02
 -3.4939207e-02
  8.6119696e-02
 -9.5218956e-02
  1.1792435e-01
 -1.5243878e-02
 -8.2290374e-02
  8.0962747e-02
  8.5080862e-03
  8.5843258e-02
  4.7279153e-02
 -1.9442934e-01
 -7.4184380e-02
 -6.2896907e-02
  9.4011784e-02
  1.7088492e-01
 -2.5387013e-02
 -7.0218436e-02
 -6.7554563e-02
  7.0742749e-02
  6.3965425e-02
 -1.9539867e-01
 -6.5837383e-02
  1.2023172e-01
  1.1575370e-01
 -1.7144717e-01
 -1.8462449e-02
  4.5618843e-02
 -2.7538964e-01
 -4.5580314e-03
 -8.6844847e-02
 -2.5760125e-02
 -7.0983791e-03
  4.7798064e-02
  1.7594609e-02
 -8.9105330e-03
  1.6805239e-02
 -3.3151735e-02
 -2.8940460e-02
 -5.3613833e-03
 -4.1005626e-02
  2.8391392e-03
 -1.1097570e-01
  4.8503168e-02
  8.8442951e-02
 -5.1733509e-02
  5.4317027e-02
  2.8036451e-02
 -3.5060101e+00
  1.1089066e+00
  6.4510965e-01
 -1.8164177e+00
 -3.3591523e+00
 -1.5685681e+00
 -1.2591218e+00
  1.1022961e+00
 -1.5862888e+00
  2.1039758e+00
  1.4738351e+00
  7.4833381e-01
  2.4879832e+00
  1.0363580e+00
 -3.0656807e+00
 -1.7089148e-01
  2.3195858e+00
  4.7777548e-01
 -3.0441785e+00
  2.3988659e+00
 -2.8274949e+00
 -1.8628228e+00
 -2.8092859e+00
 -2.0032020e+00
 -2.1058514e+00
 -3.2522509e+00
 -2.0956757e+00
 -8.3791918e-01
 -1.9547853e+00
 -1.6980833e+00
 -6.9688410e-01
 -2.4145052e+00
  8.6127681e-01
  2.2599211e+00
 -1.3430713e+00
 -1.2730145e+00
  2.9927936e+00
 -2.6588666e+00
  1.8359652e+00
 -1.3149949e+00
 -1.1718219e-01
 -1.2417616e+00
 -4.6926551e+00
  2.4863789e+00
  2.0348184e+00
 -6.5966088e-01
 -1.1532615e+00
 -1.4001009e+00
  3.4546003e+00
  2.4597504e+00
  6.5264070e-01
 -1.3439535e-01
 -1.8635617e+00
 -3.3002418e-01
  7.6487237e-01
 -3.0140007e-01
  3.6294377e-01
 -7.4905545e-01
  6.6533434e-01
 -7.1693665e-01
 -1.5185021e-01
  6.1163855e-01
 -6.9422841e-01
  2.0852008e+00
  2.2926528e+00
 -4.1863516e-01
 -4.6674624e-01
 -7.0594317e-01
  3.4449098e-01
  1.1010789e+00
  2.1122715e+00
  9.6748638e-01
  2.6745026e+00
  1.0911227e+00
  5.7666928e-01
  4.3852478e-01
  9.0098715e-01
 -2.0883763e+00
 -1.2763774e+00
 -2.1214749e-01
 -2.3534548e+00
  6.0222071e-01
  1.0895559e-01
 -6.0827231e-01
  6.7681414e-01
  2.2815149e-01
 -4.3519392e+00
 -1.9536090e+00
 -2.0453535e-01
  1.5767781e+00
  3.9352399e-01
 -1.3697721e+00
  9.7112536e-01
 -1.1518658e+00
 -1.2154860e+00
  1.1500831e-01
 -1.5312762e+00
  5.2487415e-01
 -4.6699473e-01
 -1.3591516e+00
 -8.3979315e-01
  2.6728415e-01
  9.7902095e-01
  7.0253551e-01
  4.3930945e-01
  2.0674852e-01
  1.7490205e-01
 -8.8394165e-01
 -1.2302098e-01
  6.8850583e-01
 -3.2427979e-01
 -2.8466168e-01
 -6.3937223e-01
 -5.8212656e-01
  2.3509926e-01
  2.7077010e-01
  1.5149845e-02
 -2.1331587e-01
 -4.6229154e-01
  3.1693537e-02
  6.7055309e-01
  1.5055627e-01
  3.9299211e-01
  1.4466178e-01
  4.1719055e-01
  2.5141072e-01
 -5.2431706e-02
  1.8978894e+00
  1.2845355e-01
  5.4002035e-01
  9.0236336e-02
  1.5353060e-03
  2.7432474e-01
 -1.4507353e-01
  3.5854346e-01
 -1.9503704e-03
  3.6223121e-03
  3.9650863e-01
  1.4080322e-01
  4.5116749e-01
 -3.1851059e-01
 -8.4067062e-03
  5.9406735e-02
 -3.8286641e-01
  3.1997094e-01
 -2.3617579e-01
  1.9969524e-01
 -5.4577179e-02
 -1.0945462e-01
 -5.6829315e-01
 -3.5113716e-01
  1.4388368e-01
  2.6631904e-01
  7.7603132e-02
 -6.8508369e-01
  3.9248693e-01
  3.6491355e-01
  1.3886311e+00
  1.4088775e-01
  7.3434830e-01
  3.0268431e-01
  3.6427480e-01
 -2.4263880e-01
  5.6407762e-01
 -8.7780371e-02
 -2.4199545e-01
 -1.1934963e-01
 -1.1052651e-01
  7.4308358e-02
 -8.0569392e-01
  1.3402584e-01
  7.5025141e-01
 -1.1304175e-01
 -1.3428117e-01
 -2.5658444e-01
 -1.1821723e-01
  9.5333435e-02
 -1.1431573e-02
  1.6676161e-02
  4.5234665e-01
 -6.5076870e-01
  4.2470795e-01
  7.6754153e-02
 -2.9965869e-01
 -1.6444243e-02
  7.0650727e-01
  1.9158389e-02
  4.1947135e-01
 -1.0753863e-01
  6.5069455e-01
  2.2427901e-03
 -3.9846901e-02
  3.4276450e-01
  3.4654200e-02
  3.0316651e-01
 -3.1313604e-01
  4.4198766e-02
 -2.5448123e-01
  4.0038139e-02
 -1.4881846e-02
 -7.3739342e-02
  1.4589114e-02
  2.1788752e-01
  2.0606227e-01
 -2.8499305e-02
 -1.9021828e+00
 -1.3214885e-01
 -1.3399458e-02
  1.3088548e-01
 -4.1842100e-01
 -1.6426571e-01
  4.0835137e-03
  3.0405492e-01
  5.9064902e-02
 -6.0022515e-01
 -1.6277269e-01
 -2.1810378e-01
 -1.0747654e-02
 -1.5275285e-01
  2.3949187e-02
  6.9051929e-02
 -2.9744953e-01
  3.2652310e-01
 -2.8583083e-01
  4.5417934e-03
  4.6135557e-01
  1.4248244e-01
  1.5672074e-01
 -4.6809244e-01
 -1.4917068e-02
  1.8422394e-01
  1.9553904e-01
 -4.0920295e-02
 -1.4349651e-02
 -5.1069888e-03
 -2.4336946e-01
 -1.4143279e-01
  6.7741819e-02
 -2.1134283e-02
 -3.5746497e-01
 -2.1540289e-01
 -1.5472977e-01
  9.4135500e-02
 -3.3094689e-02
  6.1453760e-02
  1.2637118e-01
  6.9849946e-02
 -9.8709881e-01
 -1.0662746e-01
  5.0793403e-01
  5.8960255e-02
  3.0334884e-01
 -1.0791176e-01
  3.4502044e-02
 -3.6535391e-01
 -1.4869258e-01
 -6.6842460e-03
 -1.0712292e-02
 -3.5090275e-02
  3.6028203e-01
 -1.9276492e-01
  3.0468836e-02
  4.8370367e-01
 -1.7580809e-02
 -3.4697911e-01
 -1.3741802e-01
 -6.1720204e-01
 -1.2015254e+00
 -6.4672816e-01
 -1.6453399e-01
  1.3314520e+00
  1.0727753e-01
  1.7206909e-01
  3.2766190e-01
 -1.1070772e-01
  4.9990034e-01
 -4.4829157e-01
 -1.5597089e-01
 -2.8965232e-01
  2.3084731e-01
 -1.3799696e-01
  1.3318087e+00
 -4.0166709e-01
  3.5873055e-01
 -1.3492458e-01
  1.1585721e-01
  3.6404023e-01
  5.9152696e-02
  1.1948324e-02
  2.6561642e-01
  4.6775502e-01
  2.0540360e-02
 -1.5744659e-01
 -3.8864225e-01
 -2.3353842e-01
  1.9952368e-02
 -1.5747538e-01
 -1.0701137e+00
 -4.7839713e-01
  7.7263546e-01
  3.8397425e-01
 -1.7423019e-01
 -5.2423865e-02
  1.3788025e-01
  2.1075799e-01
 -1.1232501e-01
 -9.6449327e-01
  1.9813116e-01
 -9.3637444e-02
 -2.7861632e-02
 -7.3768683e-02
  1.9061020e-01
 -3.9432228e-02
 -2.4266291e-02
  2.4578720e-02
 -2.2346336e-01
  1.7554861e+00
 -9.3194872e-01
  3.5842946e-01
  2.7375808e-01
  6.0444617e-01
  3.0082163e-01
  2.1376702e-01
 -2.0445515e-01
 -3.2709995e-01
 -9.2197932e-02
 -1.4953684e+00
 -1.6348825e-03
  2.7113622e-01
  8.2432494e-02
 -1.2534739e+00
 -3.8413534e-01
  1.5428872e-01
  4.4465652e-01
 -2.6613344e-02
  9.8633254e-01
  4.8248753e-02
  1.2202514e-02
 -2.2851948e-02
 -4.4224945e-01
 -1.4391917e+00
  1.4742655e-02
 -8.3617908e-01
  1.0368950e-01
 -2.2276866e-01
 -3.8114989e-01
 -8.4273422e-01
  5.7538354e-01
  3.9196730e-02
 -1.0216626e+00
  6.3292861e-01
  1.2316093e+00
 -7.9086632e-01
 -3.9060909e-01
 -5.5226052e-01
  2.1210990e+00
  1.4528946e+00
 -3.5746232e-01
  1.3163592e-02
 -8.1447887e-01
  1.3546933e-01
 -1.5080042e-01
  7.9052553e-02
  4.6488842e-01
  2.1756697e+00
  6.8541728e-02
 -4.5775014e-01
  1.0326845e-01
 -2.3652962e-01
  2.7179345e-03
 -4.3665048e-01
  4.4638455e-02
 -6.8684287e-02
  1.8432713e-01
 -2.1075568e-01
 -1.4663574e-01
  6.1184768e-02
  8.5860020e-01
  4.2493865e-02
  4.1854337e-02
 -9.1989711e-02
 -6.2571131e-03
  7.5178035e-03
  1.1334788e-01
 -6.2689386e-02
  1.4959085e-01
  2.0446798e-01
 -4.2965549e-01
  1.2672563e-01
  2.4553094e-02
 -5.7593375e-01
 -3.5898590e-01
  9.5246844e-02
  1.9924544e+00
  6.5506488e-02
 -8.5584819e-01
 -3.0556025e-02
  7.5652033e-02
  5.0386567e-02
  1.0753092e-01
  7.1469702e-02
 -2.0122027e-02
 -4.6900827e-02
 -7.9457171e-02
  2.2188371e-01
 -9.1656983e-02
  2.2652619e-01
 -4.5840845e-02
 -4.4477541e-02
 -3.2800889e-01
 -1.1251840e-01
 -1.7883363e-01
 -1.8437373e-02
  4.7471064e-01
  9.1125993e-03
 -2.4919495e-01
  4.3171011e-03
  4.0843061e-01
 -5.7572007e-02
 -1.7153119e-01
  1.8890930e-02
 -2.8811145e-01
 -3.3464006e-01
 -1.7794181e-02
  1.2123255e-01
  9.4615325e-02
  1.2321142e+00
 -1.3342836e-01
 -1.0122454e+00
  1.9036150e-01
  1.5748090e+00
  1.9864413e-01
 -1.3596222e+00
 -2.4738911e-01
 -1.2379359e+00
  1.2957171e+00
 -4.0235665e-02
  6.8632263e-01
  5.0349575e-01
  8.4216440e-01
  5.0827986e-01
 -3.9648020e-01
 -4.6556330e-01
 -6.2786198e-01
  8.5872537e-01
  5.4924954e-03
 -4.0046859e-01
 -2.5047934e-01
 -1.3807416e-01
 -4.2828864e-01
 -1.0346502e+00
 -7.2066170e-01
 -3.4631386e-01
 -2.9558063e-01
  1.8082422e+00
  2.3122869e-01
 -1.8565605e+00
 -5.0010651e-01
  8.4121801e-02
  1.6580747e-01
 -5.3751588e-02
  2.4002254e-01
 -2.1419761e-01
 -7.4794799e-02
 -6.7066692e-02
 -7.9043370e-01
 -8.3364171e-01
 -1.0656320e-01
  1.3773303e-01
 -1.0939876e+00
 -4.5706898e-02
  1.2102478e-01
 -4.0240622e-01
 -1.8319363e-02
  1.7264025e-01
 -3.6953106e-03
  1.4668290e-01
  8.2331993e-02
  1.1379209e+00
 -6.8626755e-01
  1.1220913e+00
  1.3658473e+00
  8.6573648e-01
 -5.3489643e-01
 -1.2005996e+00
 -1.6016247e+00
 -2.3108688e-01
 -1.1781625e+00
 -5.7035768e-01
  7.5152591e-02
 -6.2293422e-01
  1.6851282e-01
  7.4233122e-02
 -7.5225866e-01
 -2.2675069e-02
 -2.6692197e-02
  2.1379092e-01
  3.7715930e-02
 -2.7593614e-03
  1.0242498e-01
  6.2046945e-03
 -7.9808168e-02
 -6.1460612e-03
  9.0174161e-02
 -4.0099490e-02
  7.5101599e-02
 -1.1360556e-01
  2.6583850e-01
 -2.0038493e-01
  3.0865771e-01
 -2.2089094e-01
 -3.6772747e-02
 -9.6364671e-01
 -1.8412562e-01
 -5.7077501e-02
 -6.7988686e-02
  5.5996925e-01
  2.6577094e+00
  1.0906265e-01
 -4.9419552e-01
 -1.2548760e-01
  7.0618689e-01
 -8.3593726e-01
 -2.0777561e-01
  2.3741248e-01
 -2.0340472e-01
  2.0620245e-01
 -6.5044843e-02
 -1.1184673e-01
  6.2672928e-02
  6.0481064e-02
  9.6109696e-02
  2.2303028e+00
 -1.7633092e-01
 -2.6688796e-01
 -5.8931369e-01
  2.3104565e-01
 -3.5125110e-01
  4.7029155e-01
 -3.9743307e-01
  4.3237451e-02
 -3.6969271e-02
  3.5143290e-02
 -2.2093779e-01
 -7.1100295e-02
 -1.9418020e-02
 -8.1935925e-03
  1.3320013e-02
 -2.1748735e-01
 -5.2489474e-02
 -9.4554927e-03
 -1.8435468e-01
 -3.9251205e-02
  6.3896559e-02
  9.0158217e-02
 -3.4926169e-02
 -4.0082181e-01
 -8.5281670e-02
  4.1663963e-01
 -3.1188769e-02
 -8.5497729e-02
  4.5523774e-02
  5.6530807e-02
 -1.6226094e-02
 -1.0842197e-01
 -4.4269074e-02
  7.4011035e-02
 -3.3496030e-02
 -1.6866741e-01
  1.8293481e-01
  1.3389714e-01
 -1.1469966e+00
  1.7729779e-01
  7.5044408e-02
 -3.4279857e-02
  2.9022494e-01
  2.3879133e-01
  2.2678806e-01
 -1.0246058e-01
 -3.2615592e+00
  1.0673352e+00
  2.0766301e-01
  9.0674713e-02
 -3.0170951e-02
  1.2213946e-02
  9.7555049e-02
 -2.5132630e-02
 -9.7766352e-01
  2.9558370e+00
  7.2212234e-02
 -5.3604513e-01
 -6.1585851e-02
 -3.5272881e-01
 -3.0904600e-02
  2.9324695e-02
 -2.5697368e-01
  4.5734221e-01
 -6.4698742e-03
  4.1649312e-01
 -1.2785587e-01
  1.5958768e-01
 -1.0751699e-01
 -8.1570506e-02
  2.3668918e-01
 -7.7222109e-02
 -1.9358973e-01
  7.0264846e-02
 -7.1139023e-02
 -7.9824543e-03
 -7.2561793e-02
  2.2036672e-02
 -4.6360426e-02
 -7.9177335e-02
  1.7195076e-01
  7.7028948e-01
 -1.7146936e-01
  2.0832539e-01
 -1.9123736e-01
  4.2815590e-01
 -5.3463444e-02
  4.1116759e-02
  1.1123175e-02
 -5.6735110e-02
  5.6148689e-02
  5.1762551e-01
  3.5676647e-02
 -2.0944892e-01
  1.2867783e-01
  1.0699321e+00
 -1.2349730e-02
  1.7744346e-01
 -6.0518231e-02
  1.7552069e-01
  7.5874567e-02
 -3.5681698e-01
 -6.2236395e-02
 -1.8219706e-01
  8.5316980e-03
 -7.7454031e-02
  5.5958450e-01
  9.3268204e-01
  1.7645608e-01
 -4.1788411e+00
 -4.0279925e-01
  2.2295007e-01
  5.7633895e-01
  3.0927899e-01
  1.9703397e-01
 -2.1831895e-01
  3.3656348e-02
 -5.2831792e-03
 -4.7592255e-01
 -1.2967536e+00
  1.0032452e-02
 -6.6757524e-01
 -2.9168498e-02
  1.0570233e-01
  7.4209735e-02
 -1.2589796e-02
  2.5290893e-02
  2.7483054e-02
  2.3401454e-01
  1.4371596e-01
  4.6857196e-01
  1.2923041e-01
  2.5965500e-01
  2.5045672e-01
 -3.8871494e-01
  2.2875173e-01
  2.6356247e-01
  2.0781552e-02
  1.4453514e-01
  5.6563687e-01
 -1.0280958e-01
  6.3993835e-01
 -2.5380325e-01
  5.7324082e-02
  1.2791415e-01
  2.4780897e-02
  2.1030276e-01
 -9.3569793e-02
  1.0069983e+00
  5.3997463e-01
  1.2326985e-01
 -6.3174419e-02
  7.7466600e-02
 -9.7582333e-02
 -5.7547461e-02
 -2.4233878e-01
  7.0238627e-02
 -7.1358737e-03
 -3.3981192e+00
 -1.2063764e-02
 -4.4571753e-03
  2.3251243e+00
  1.9865941e-02
  1.5107423e+00
  4.2903125e-01
 -4.1087177e-01
 -2.3462865e+00
  1.8240538e+00
 -2.9879123e-01
  2.2138351e-01
 -1.3338672e-01
 -1.1293472e-01
 -7.9721197e-02
  2.1049302e-02
  7.3680276e-01
  4.7496513e-01
  8.4191866e-02
 -3.2768193e-01
  3.2529883e+00
 -1.4063807e-01
 -4.4904897e-01
  8.2225777e-02
 -8.0552274e-01
  2.9459224e+00
  9.2808270e-01
  7.2723128e-02
 -4.3841343e-02
 -2.0197175e+00
  1.3757767e-02
 -4.0480524e-02
 -6.9605984e-02
 -1.6798088e-01
  7.9854912e-01
 -9.0897800e-03
  2.2132778e-01
  8.9947462e-01
  7.5526148e-01
 -1.0196279e+00
 -1.8337268e-01
  4.0702429e-01
 -2.1887110e-01
 -1.9650990e-01
 -1.0920282e-01
 -6.5967327e-01
  3.3629328e-02
  2.2095082e+00
  7.7211511e-01
  4.1753575e-01
 -9.1273330e-02
 -4.6677610e-01
  3.0343774e-01
